{"learner":{"attributes":{"scikit_learn":"{\"_estimator_type\": \"regressor\"}"},"feature_names":[],"feature_types":[],"gradient_booster":{"model":{"gbtree_model_param":{"num_parallel_tree":"1","num_trees":"200"},"iteration_indptr":[0,1,2,3,4,5,6,7,8,9,10,11,12,13,14,15,16,17,18,19,20,21,22,23,24,25,26,27,28,29,30,31,32,33,34,35,36,37,38,39,40,41,42,43,44,45,46,47,48,49,50,51,52,53,54,55,56,57,58,59,60,61,62,63,64,65,66,67,68,69,70,71,72,73,74,75,76,77,78,79,80,81,82,83,84,85,86,87,88,89,90,91,92,93,94,95,96,97,98,99,100,101,102,103,104,105,106,107,108,109,110,111,112,113,114,115,116,117,118,119,120,121,122,123,124,125,126,127,128,129,130,131,132,133,134,135,136,137,138,139,140,141,142,143,144,145,146,147,148,149,150,151,152,153,154,155,156,157,158,159,160,161,162,163,164,165,166,167,168,169,170,171,172,173,174,175,176,177,178,179,180,181,182,183,184,185,186,187,188,189,190,191,192,193,194,195,196,197,198,199,200],"tree_info":[0,0,0,0,0,0,0,0,0,0,0,0,0,0,0,0,0,0,0,0,0,0,0,0,0,0,0,0,0,0,0,0,0,0,0,0,0,0,0,0,0,0,0,0,0,0,0,0,0,0,0,0,0,0,0,0,0,0,0,0,0,0,0,0,0,0,0,0,0,0,0,0,0,0,0,0,0,0,0,0,0,0,0,0,0,0,0,0,0,0,0,0,0,0,0,0,0,0,0,0,0,0,0,0,0,0,0,0,0,0,0,0,0,0,0,0,0,0,0,0,0,0,0,0,0,0,0,0,0,0,0,0,0,0,0,0,0,0,0,0,0,0,0,0,0,0,0,0,0,0,0,0,0,0,0,0,0,0,0,0,0,0,0,0,0,0,0,0,0,0,0,0,0,0,0,0,0,0,0,0,0,0,0,0,0,0,0,0,0,0,0,0,0,0,0,0,0,0,0,0],"trees":[{"base_weights":[1.2478007E-3,-5.0112046E-3,1.041231E-1,2.2673563E-3,-7.741741E-2,3.594176E-1,9.847777E-2,-9.978615E-2,8.719766E-3,2.4921369E-2,-7.9186976E-2,4.015171E-2,5.3410265E-3,-1.0028204E-1,1.0302534E-1,-1.0396221E-1,2.383654E-1,1.39715625E-2,-8.675076E-2,-7.5367875E-2,-2.1939644E-1,-1.2119651E-2,-1.2764958E-1,1.1122509E-1,7.493835E-3,-1.1310767E-1,2.9729493E-2,1.991026E-3,3.04547E-2,1.2547454E-1,1.03191985E-2,8.476191E-2,-9.6516274E-2,-2.2861771E-1,-7.175903E-2,1.991026E-3,-2.4099785E-1,3.410265E-4,-2.158974E-3,-1.6211966E-2,-6.9884616E-3,-1.1988461E-2,1.13944866E-1,4.7729496E-2,-9.403205E-2,9.865642E-3,-1.1652179E-2,7.749349E-5,1.9354701E-2,1.1175706E-2,4.2235043E-2,7.661925E-4,1.4843714E-2,-1.46589745E-2,1.1383433E-2,1.0570331E-2,-1.0222632E-2,-2.4716154E-2,-2.158974E-3,-2.512967E-2,-6.9002765E-3,1.991026E-3,-2.6652679E-2,1.1655086E-2,-1.0738461E-2,6.671343E-3,-4.4884607E-3,-1.3701098E-2,1.0341026E-2],"categories":[],"categories_nodes":[],"categories_segments":[],"categories_sizes":[],"default_left":[1,1,0,0,0,1,0,1,1,0,1,0,0,0,1,1,0,0,0,0,0,0,0,0,0,0,1,0,0,1,1,0,0,1,0,0,0,0,0,0,0,0,1,0,0,0,0,0,0,0,0,0,0,0,0,0,0,0,0,0,0,0,0,0,0,0,0,0,0],"id":0,"left_children":[1,3,5,7,9,11,13,15,17,-1,19,-1,-1,21,23,25,27,29,31,33,35,37,39,41,43,45,47,-1,-1,49,51,53,55,57,59,-1,61,-1,-1,-1,-1,-1,63,65,67,-1,-1,-1,-1,-1,-1,-1,-1,-1,-1,-1,-1,-1,-1,-1,-1,-1,-1,-1,-1,-1,-1,-1,-1],"loss_changes":[3.8284898E0,2.9540832E0,4.5606136E-1,3.3552234E0,3.1566715E-1,6.873423E-2,3.1312943E-1,4.5266032E-1,2.4038815E0,0E0,2.5655603E-1,0E0,0E0,1.7755218E-2,2.5609994E-1,3.7016416E-1,5.176726E-2,1.8488394E0,4.2690802E-1,2.5901604E-1,7.200003E-2,5.148358E-4,6.1731786E-4,2.0348763E-1,1.1478205E-1,2.146554E-1,9.47153E-2,0E0,0E0,5.3922343E-1,1.6137383E0,1.1085027E-1,2.844658E-1,3.6893845E-2,2.2414899E-1,0E0,8.523518E-2,0E0,0E0,0E0,0E0,0E0,1.8497372E-1,3.8158007E-2,8.205523E-2,0E0,0E0,0E0,0E0,0E0,0E0,0E0,0E0,0E0,0E0,0E0,0E0,0E0,0E0,0E0,0E0,0E0,0E0,0E0,0E0,0E0,0E0,0E0,0E0],"parents":[2147483647,0,0,1,1,2,2,3,3,4,4,5,5,6,6,7,7,8,8,10,10,13,13,14,14,15,15,16,16,17,17,18,18,19,19,20,20,21,21,22,22,23,23,24,24,25,25,26,26,29,29,30,30,31,31,32,32,33,33,34,34,36,36,42,42,43,43,44,44],"right_children":[2,4,6,8,10,12,14,16,18,-1,20,-1,-1,22,24,26,28,30,32,34,36,38,40,42,44,46,48,-1,-1,50,52,54,56,58,60,-1,62,-1,-1,-1,-1,-1,64,66,68,-1,-1,-1,-1,-1,-1,-1,-1,-1,-1,-1,-1,-1,-1,-1,-1,-1,-1,-1,-1,-1,-1,-1,-1],"split_conditions":[1.0599979E-1,1.8569534E-1,2.182179E-1,8.165066E-1,4.8508126E-1,2.4433888E-1,6.030327E-1,2.8867513E-1,2.182179E-1,2.4921369E-2,2.773501E-1,4.015171E-2,5.3410265E-3,3.1622776E-1,3.1622776E-1,2.3570226E-1,3.3333334E-1,1.1547105E0,4.5883146E-1,2.581989E-1,3.0151135E-1,2.6726124E-1,3.0151135E-1,2.6726124E-1,3.3333334E-1,3.0151135E-1,2.5E-1,1.991026E-3,3.04547E-2,3.0151135E-1,1.7149858E-1,2.773501E-1,3.0151135E-1,2.4253562E-1,2.2941573E-1,1.991026E-3,2.8867513E-1,3.410265E-4,-2.158974E-3,-1.6211966E-2,-6.9884616E-3,-1.1988461E-2,2.4253562E-1,4.9613893E-1,3.380617E-1,9.865642E-3,-1.1652179E-2,7.749349E-5,1.9354701E-2,1.1175706E-2,4.2235043E-2,7.661925E-4,1.4843714E-2,-1.46589745E-2,1.1383433E-2,1.0570331E-2,-1.0222632E-2,-2.4716154E-2,-2.158974E-3,-2.512967E-2,-6.9002765E-3,1.991026E-3,-2.6652679E-2,1.1655086E-2,-1.0738461E-2,6.671343E-3,-4.4884607E-3,-1.3701098E-2,1.0341026E-2],"split_indices":[67398,2282,1357,86932,36862,520,52068,7677,13844,0,1824,0,0,1211,526,566,123,45841,787,84,787,522,8479,30438,67398,7688,155,0,0,203,526,415,3141,423,740,0,1889,0,0,0,0,0,4044,526,526,0,0,0,0,0,0,0,0,0,0,0,0,0,0,0,0,0,0,0,0,0,0,0,0],"split_type":[0,0,0,0,0,0,0,0,0,0,0,0,0,0,0,0,0,0,0,0,0,0,0,0,0,0,0,0,0,0,0,0,0,0,0,0,0,0,0,0,0,0,0,0,0,0,0,0,0,0,0,0,0,0,0,0,0,0,0,0,0,0,0,0,0,0,0,0,0],"sum_hessian":[5.944E3,5.604E3,3.4E2,5.093E3,5.11E2,6E0,3.34E2,3.02E2,4.791E3,2E0,5.09E2,5E0,1E0,7E0,3.27E2,2.99E2,3E0,4.542E3,2.49E2,4.97E2,1.2E1,2E0,5E0,3.01E2,2.6E1,2.8E2,1.9E1,1E0,2E0,1.43E2,4.399E3,1.3E1,2.36E2,1E1,4.87E2,1E0,1.1E1,1E0,1E0,2E0,3E0,3E0,2.98E2,1.9E1,7E0,4E0,2.76E2,1.7E1,2E0,1.38E2,5E0,4.317E3,8.2E1,1E0,1.2E1,6E0,2.3E2,9E0,1E0,6E0,4.81E2,1E0,1E1,2.95E2,3E0,1.6E1,3E0,6E0,1E0],"tree_param":{"num_deleted":"0","num_feature":"128104","num_nodes":"69","size_leaf_vector":"1"}},{"base_weights":[-1.0037005E-4,1.4033733E-2,-3.0735442E-2,2.0689065E-2,-8.210715E-2,9.190266E-2,-4.222828E-2,2.9982816E-2,-4.9101345E-2,2.8424388E-2,-8.597387E-2,-1.5307745E-1,1.03953876E-1,2.6182607E-1,-4.3796536E-2,3.320495E-2,-1.1231973E-1,3.3736955E-2,-5.1579718E-2,-9.0556026E-2,1.6857678E-1,1.9527167E-3,-1.8052486E-1,-1.8945472E-1,1.1499719E-1,1.9527167E-3,2.8967256E-2,1.7819332E-1,-4.5593638E-2,-1.3439952E-1,3.5927135E-2,1.1279075E-1,-1.2326587E-1,1.056982E-1,-5.7649497E-2,-9.532431E-2,1.2639391E-1,2.5736347E-3,1.978528E-2,1.9527167E-3,-2.1712139E-1,1.9527167E-3,-2.3515655E-2,3.6621194E-2,1.03809014E-1,4.604075E-3,2.100494E-1,1.9759485E-1,-4.7144953E-2,1.3736956E-2,-1.4775067E-2,3.9048821E-3,-9.862208E-3,2.6036224E-3,1.8652717E-2,1.3736956E-2,-1.3267502E-2,1.5898405E-2,-1.959638E-2,-6.3613257E-3,1.1238405E-2,1.6385451E-2,-9.907487E-3,3.4315127E-3,1.6385451E-2,-6.3472837E-3,-2.3515655E-2,1.140862E-2,-1.1509629E-2,1.9527167E-3,2.271489E-2,2.5738163E-2,-4.763045E-3,1.1109216E-2,-4.9484144E-3],"categories":[],"categories_nodes":[],"categories_segments":[],"categories_sizes":[],"default_left":[0,1,0,1,0,0,0,1,0,0,1,0,0,0,0,0,0,0,0,1,0,0,0,0,0,0,0,0,0,0,1,0,0,1,1,0,0,0,0,0,0,0,0,0,1,0,0,1,0,0,0,0,0,0,0,0,0,0,0,0,0,0,0,0,0,0,0,0,0,0,0,0,0,0,0],"id":1,"left_children":[1,3,5,7,9,11,13,15,17,-1,19,21,23,25,27,29,31,-1,33,35,37,-1,39,41,43,-1,-1,45,47,49,51,53,55,57,59,61,63,-1,-1,-1,65,-1,-1,-1,67,-1,69,71,73,-1,-1,-1,-1,-1,-1,-1,-1,-1,-1,-1,-1,-1,-1,-1,-1,-1,-1,-1,-1,-1,-1,-1,-1,-1,-1],"loss_changes":[2.5880349E0,2.6186833E0,2.6635313E0,2.4830716E0,3.9982986E-1,4.9418688E-1,8.344836E-1,1.552144E0,4.4842017E-1,0E0,3.220265E-1,4.1425526E-2,5.240185E-1,5.5068076E-2,6.9350123E-1,1.5118251E0,1.9871014E-1,0E0,4.3377316E-1,2.7997828E-1,1.5816987E-2,0E0,5.5488214E-2,6.189704E-2,3.8357913E-1,0E0,0E0,4.9267232E-2,6.5254736E-1,2.1260297E-1,1.3693376E0,2.0731412E-2,1.9479513E-1,3.0441847E-1,4.4521427E-1,2.6313877E-1,1.507327E-2,0E0,0E0,0E0,1.7004013E-3,0E0,0E0,0E0,3.3934164E-1,0E0,3.140071E-2,1.735327E-1,6.32895E-1,0E0,0E0,0E0,0E0,0E0,0E0,0E0,0E0,0E0,0E0,0E0,0E0,0E0,0E0,0E0,0E0,0E0,0E0,0E0,0E0,0E0,0E0,0E0,0E0,0E0,0E0],"parents":[2147483647,0,0,1,1,2,2,3,3,4,4,5,5,6,6,7,7,8,8,10,10,11,11,12,12,13,13,14,14,15,15,16,16,18,18,19,19,20,20,22,22,23,23,24,24,27,27,28,28,29,29,30,30,31,31,32,32,33,33,34,34,35,35,36,36,40,40,44,44,46,46,47,47,48,48],"right_children":[2,4,6,8,10,12,14,16,18,-1,20,22,24,26,28,30,32,-1,34,36,38,-1,40,42,44,-1,-1,46,48,50,52,54,56,58,60,62,64,-1,-1,-1,66,-1,-1,-1,68,-1,70,72,74,-1,-1,-1,-1,-1,-1,-1,-1,-1,-1,-1,-1,-1,-1,-1,-1,-1,-1,-1,-1,-1,-1,-1,-1,-1,-1],"split_conditions":[3.5355338E-1,1.6903085E-1,4.082483E-1,2.236068E-1,3.5355338E-1,7.5593895E-1,4.082483E-1,2.2941573E-1,6.666767E-1,2.8424388E-2,2.6726124E-1,3.1622776E-1,3.0151135E-1,3.7796447E-1,4.082483E-1,3.1622776E-1,3.5355338E-1,3.3736955E-2,3.0151135E-1,2.581989E-1,2.773501E-1,1.9527167E-3,7.071168E-1,2.773501E-1,3.3333334E-1,1.9527167E-3,2.8967256E-2,7.5593895E-1,2.773501E-1,2.6726124E-1,1.9611613E-1,3.5355338E-1,2.8867513E-1,2.4253562E-1,2.581989E-1,3.5355338E-1,2.8867513E-1,2.5736347E-3,1.978528E-2,1.9527167E-3,3.1622776E-1,1.9527167E-3,-2.3515655E-2,3.6621194E-2,2.6726124E-1,4.604075E-3,3.592106E-1,2.5E-1,4.082483E-1,1.3736956E-2,-1.4775067E-2,3.9048821E-3,-9.862208E-3,2.6036224E-3,1.8652717E-2,1.3736956E-2,-1.3267502E-2,1.5898405E-2,-1.959638E-2,-6.3613257E-3,1.1238405E-2,1.6385451E-2,-9.907487E-3,3.4315127E-3,1.6385451E-2,-6.3472837E-3,-2.3515655E-2,1.140862E-2,-1.1509629E-2,1.9527167E-3,2.271489E-2,2.5738163E-2,-4.763045E-3,1.1109216E-2,-4.9484144E-3],"split_indices":[24,86932,375,545,487,1602,2987,15796,32437,0,155,59,15939,509,1779,431,1626,0,10966,88550,24,0,757,68,58551,0,0,87437,7088,29471,68756,40,862,3877,24666,1064,24,0,0,0,375,0,0,0,12533,0,313,4039,47503,0,0,0,0,0,0,0,0,0,0,0,0,0,0,0,0,0,0,0,0,0,0,0,0,0,0],"split_type":[0,0,0,0,0,0,0,0,0,0,0,0,0,0,0,0,0,0,0,0,0,0,0,0,0,0,0,0,0,0,0,0,0,0,0,0,0,0,0,0,0,0,0,0,0,0,0,0,0,0,0,0,0,0,0,0,0,0,0,0,0,0,0,0,0,0,0,0,0,0,0,0,0,0,0],"sum_hessian":[5.975E3,4.089E3,1.886E3,3.825E3,2.64E2,1.61E2,1.725E3,3.376E3,4.49E2,2E0,2.62E2,7E0,1.54E2,8E0,1.717E3,3.302E3,7.4E1,2E0,4.47E2,2.58E2,4E0,1E0,6E0,5E0,1.49E2,1E0,7E0,1.3E1,1.704E3,5.2E1,3.25E3,3E0,7.1E1,1.6E1,4.31E2,2.53E2,5E0,1E0,3E0,1E0,5E0,1E0,4E0,5E0,1.44E2,3E0,1E1,1E1,1.694E3,2E0,5E1,3.177E3,7.3E1,2E0,1E0,2E0,6.9E1,1.4E1,2E0,4.17E2,1.4E1,3E0,2.5E2,2E0,3E0,1E0,4E0,1.38E2,6E0,1E0,9E0,8E0,2E0,2.4E1,1.67E3],"tree_param":{"num_deleted":"0","num_feature":"128104","num_nodes":"75","size_leaf_vector":"1"}},{"base_weights":[-7.8383554E-4,1.3461123E-1,-4.4631674E-3,1.457583E-1,-1.720745E-1,-1.0196407E-2,9.0235084E-2,-1.3040783E-1,1.5596938E-1,1.2369975E-3,-2.114374E-2,1.02090664E-1,-1.363422E-2,3.8467485E-2,8.7284915E-2,2.2086998E-2,-2.4483738E-2,-2.055067E-2,1.6232869E-1,9.0232E-2,4.5877796E-2,1.0018884E-1,-1.6887443E-2,-6.0282033E-2,9.1138385E-2,-1.4794505E-1,1.6987251E-1,1.0071653E-1,-1.9390951E-1,-3.373515E-2,1.20175585E-1,-2.0915315E-2,7.1390525E-2,-9.000617E-3,2.9168287E-2,-6.408247E-2,9.4791174E-2,1.2369975E-3,-2.055067E-2,-1.4794505E-2,1.7773964E-2,1.3109318E-2,-2.4928534E-4,1.7574728E-3,-2.397213E-2,1.9368346E-4,-1.769073E-2,3.188313E-2,1.0789294E-2,-2.3607034E-3,9.882354E-3,7.928469E-3,-1.2775605E-2,4.5630275E-3,-1.8778443E-4,1.095638E-2,-1.0454106E-2,-1.2521553E-2,9.730796E-3],"categories":[],"categories_nodes":[],"categories_segments":[],"categories_sizes":[],"default_left":[0,1,1,0,0,0,0,0,0,0,0,1,0,0,0,0,0,0,0,1,0,0,1,0,0,0,0,1,0,1,0,1,1,0,0,0,0,0,0,0,0,0,0,0,0,0,0,0,0,0,0,0,0,0,0,0,0,0,0],"id":2,"left_children":[1,3,5,7,9,11,13,15,17,-1,-1,19,21,-1,23,-1,-1,-1,25,27,-1,29,31,33,35,37,39,41,43,45,47,49,51,-1,53,55,57,-1,-1,-1,-1,-1,-1,-1,-1,-1,-1,-1,-1,-1,-1,-1,-1,-1,-1,-1,-1,-1,-1],"loss_changes":[2.9751344E0,5.652282E-1,3.1575022E0,4.5179224E-1,4.6177074E-2,2.1179495E0,2.548139E-1,2.9525658E-1,3.7357283E-1,0E0,0E0,6.480665E-1,1.9720147E0,0E0,1.9314694E-1,0E0,0E0,0E0,3.668666E-1,4.9320507E-1,0E0,4.0020657E-1,1.841224E0,2.6554823E-2,1.8864489E-1,3.9454103E-2,3.8384056E-1,4.831406E-1,6.234388E-2,1.0248733E-1,2.8036273E-1,1.5974131E0,3.6542284E-1,0E0,1.6189294E-3,6.765777E-2,1.8660259E-1,0E0,0E0,0E0,0E0,0E0,0E0,0E0,0E0,0E0,0E0,0E0,0E0,0E0,0E0,0E0,0E0,0E0,0E0,0E0,0E0,0E0,0E0],"parents":[2147483647,0,0,1,1,2,2,3,3,4,4,5,5,6,6,7,7,8,8,11,11,12,12,14,14,18,18,19,19,21,21,22,22,23,23,24,24,25,25,26,26,27,27,28,28,29,29,30,30,31,31,32,32,34,34,35,35,36,36],"right_children":[2,4,6,8,10,12,14,16,18,-1,-1,20,22,-1,24,-1,-1,-1,26,28,-1,30,32,34,36,38,40,42,44,46,48,50,52,-1,54,56,58,-1,-1,-1,-1,-1,-1,-1,-1,-1,-1,-1,-1,-1,-1,-1,-1,-1,-1,-1,-1,-1,-1],"split_conditions":[1.1547105E0,2.8867513E-1,1.0599979E-1,3.7796447E-1,3.3333334E-1,3.7796447E-1,6.247051E-1,3.5355338E-1,3.5355338E-1,1.2369975E-3,-2.114374E-2,3.1622776E-1,3.5355338E-1,3.8467485E-2,8.728816E-1,2.2086998E-2,-2.4483738E-2,-2.055067E-2,3.5355338E-1,2.5E-1,4.5877796E-2,1.9245009E-1,1.6439898E-1,2.8867513E-1,6.030327E-1,3.3333334E-1,3.1622776E-1,2.6726124E-1,3.0151135E-1,1.8569534E-1,2.085144E-1,2.8867513E-1,2.2941573E-1,-9.000617E-3,1.8569534E-1,3.0151135E-1,6.666767E-1,1.2369975E-3,-2.055067E-2,-1.4794505E-2,1.7773964E-2,1.3109318E-2,-2.4928534E-4,1.7574728E-3,-2.397213E-2,1.9368346E-4,-1.769073E-2,3.188313E-2,1.0789294E-2,-2.3607034E-3,9.882354E-3,7.928469E-3,-1.2775605E-2,4.5630275E-3,-1.8778443E-4,1.095638E-2,-1.0454106E-2,-1.2521553E-2,9.730796E-3],"split_indices":[45841,10228,67398,23760,447,47503,20286,960,670,0,0,8702,75136,0,12006,0,0,0,112,306,0,526,1779,1028,52068,12,214,375,151,17,1858,375,4137,0,22,1903,69169,0,0,0,0,0,0,0,0,0,0,0,0,0,0,0,0,0,0,0,0,0,0],"split_type":[0,0,0,0,0,0,0,0,0,0,0,0,0,0,0,0,0,0,0,0,0,0,0,0,0,0,0,0,0,0,0,0,0,0,0,0,0,0,0,0,0,0,0,0,0,0,0,0,0,0,0,0,0,0,0,0,0,0,0],"sum_hessian":[5.97E3,1.57E2,5.813E3,1.52E2,5E0,5.482E3,3.31E2,5E0,1.47E2,1E0,4E0,1.62E2,5.32E3,2E0,3.29E2,1E0,4E0,2E0,1.45E2,1.58E2,4E0,1.47E2,5.173E3,8E0,3.21E2,3E0,1.42E2,1.53E2,5E0,1.9E1,1.28E2,4.948E3,2.25E2,6E0,2E0,7E0,3.14E2,1E0,2E0,3E0,1.39E2,1.18E2,3.5E1,1E0,4E0,1.6E1,3E0,6E0,1.22E2,4.84E3,1.08E2,2.17E2,8E0,1E0,1E0,1E0,6E0,3E0,3.11E2],"tree_param":{"num_deleted":"0","num_feature":"128104","num_nodes":"59","size_leaf_vector":"1"}},{"base_weights":[1.080313E-3,7.873121E-2,-3.6117758E-3,2.396179E-1,7.262369E-2,1.0276443E-1,-6.683774E-3,4.519153E-3,2.5318472E-2,-1.1924193E-1,7.7165E-2,2.527177E-1,8.0449104E-2,9.4861366E-2,-1.0176784E-2,-1.479236E-1,4.0764883E-3,2.7702552E-1,7.249352E-2,-1.06356E-1,2.9852343E-1,6.779703E-2,3.4960398E-1,8.425224E-2,4.5357406E-2,-1.31878145E-2,1.0848034E-1,-3.423512E-3,-1.6116584E-2,3.4294146E-1,-5.923512E-3,3.2364732E-1,6.905228E-2,3.4829974E-4,-1.63017E-2,6.031066E-2,3.245306E-1,4.4931065E-2,5.861265E-2,3.8296092E-2,9.140964E-3,9.4661966E-2,-2.2993699E-2,-1.6135838E-2,1.1073906E-1,1.1975645E-1,-5.767987E-2,-9.235114E-4,4.152238E-2,9.076488E-3,3.7101984E-2,6.600901E-3,3.61521E-2,3.4829974E-4,8.6982995E-3,3.4829974E-4,3.457016E-2,3.4094345E-2,4.712619E-3,8.499707E-3,4.024031E-2,-1.8438079E-3,1.1214315E-2,-8.344903E-3,1.3110161E-2,-1.2258145E-2,1.2683642E-2,9.568008E-3,-8.880987E-3],"categories":[],"categories_nodes":[],"categories_segments":[],"categories_sizes":[],"default_left":[0,0,0,0,0,0,0,0,0,1,0,0,1,1,1,0,0,1,0,0,0,0,0,1,0,1,1,0,0,0,0,0,1,0,0,0,0,0,0,0,0,1,0,1,0,0,0,0,0,0,0,0,0,0,0,0,0,0,0,0,0,0,0,0,0,0,0,0,0],"id":3,"left_children":[1,3,5,7,9,11,13,-1,-1,15,17,19,21,23,25,27,-1,29,31,33,35,37,39,41,-1,43,45,-1,-1,47,-1,49,51,-1,-1,53,55,-1,57,-1,-1,59,-1,61,63,65,67,-1,-1,-1,-1,-1,-1,-1,-1,-1,-1,-1,-1,-1,-1,-1,-1,-1,-1,-1,-1,-1,-1],"loss_changes":[2.173966E0,3.1668806E-1,1.8395199E0,2.021116E-2,2.95866E-1,5.083777E-1,1.9411645E0,0E0,0E0,4.2744197E-2,2.8055096E-1,3.607025E-1,4.496441E-1,6.5440977E-1,1.8910859E0,5.0208867E-3,0E0,1.754688E-1,2.5076413E-1,1.9238554E-2,9.1941714E-2,4.4319612E-1,1.6669095E-2,6.039374E-1,0E0,1.8865724E0,2.523545E-1,0E0,0E0,1.5657151E-1,0E0,1.0453373E-2,2.5472593E-1,0E0,0E0,4.2442176E-3,1.0754633E-1,0E0,4.1200608E-1,0E0,0E0,4.8034847E-1,0E0,1.4905258E0,4.8544002E-1,2.2658408E-1,5.1464193E-2,0E0,0E0,0E0,0E0,0E0,0E0,0E0,0E0,0E0,0E0,0E0,0E0,0E0,0E0,0E0,0E0,0E0,0E0,0E0,0E0,0E0,0E0],"parents":[2147483647,0,0,1,1,2,2,3,3,4,4,5,5,6,6,9,9,10,10,11,11,12,12,13,13,14,14,15,15,17,17,18,18,19,19,20,20,21,21,22,22,23,23,25,25,26,26,29,29,31,31,32,32,35,35,36,36,38,38,41,41,43,43,44,44,45,45,46,46],"right_children":[2,4,6,8,10,12,14,-1,-1,16,18,20,22,24,26,28,-1,30,32,34,36,38,40,42,-1,44,46,-1,-1,48,-1,50,52,-1,-1,54,56,-1,58,-1,-1,60,-1,62,64,66,68,-1,-1,-1,-1,-1,-1,-1,-1,-1,-1,-1,-1,-1,-1,-1,-1,-1,-1,-1,-1,-1,-1],"split_conditions":[3.5355338E-1,2.182179E-1,1.1547105E0,1.1704115E-1,4.170288E-1,2.773501E-1,4.082483E-1,4.519153E-3,2.5318472E-2,2.581989E-1,6.030327E-1,2.6726124E-1,3.1622776E-1,3.0151135E-1,1.2700012E-1,2.6726124E-1,4.0764883E-3,2.8867513E-1,3.8490018E-1,2.581989E-1,2.773501E-1,6.3246554E-1,3.5355338E-1,2.8867513E-1,4.5357406E-2,2.6726124E-1,1.796053E-1,-3.423512E-3,-1.6116584E-2,2.581989E-1,-5.923512E-3,1.6222142E-1,2.340823E-1,3.4829974E-4,-1.63017E-2,5.345225E-1,2.581989E-1,4.4931065E-2,7.071168E-1,3.8296092E-2,9.140964E-3,3.0151135E-1,-2.2993699E-2,1.3736056E-1,3.3333334E-1,1.8898223E-1,2.236068E-1,-9.235114E-4,4.152238E-2,9.076488E-3,3.7101984E-2,6.600901E-3,3.61521E-2,3.4829974E-4,8.6982995E-3,3.4829974E-4,3.457016E-2,3.4094345E-2,4.712619E-3,8.499707E-3,4.024031E-2,-1.8438079E-3,1.1214315E-2,-8.344903E-3,1.3110161E-2,-1.2258145E-2,1.2683642E-2,9.568008E-3,-8.880987E-3],"split_indices":[67398,1211,45841,17,12631,24,47503,0,0,3963,28291,18392,10045,25113,75136,376,0,3837,11360,24,293,384,24,306,0,306,4285,0,0,5,0,17,8278,0,0,7,46,0,10655,0,0,696,0,949,4649,5804,4467,0,0,0,0,0,0,0,0,0,0,0,0,0,0,0,0,0,0,0,0,0,0],"split_type":[0,0,0,0,0,0,0,0,0,0,0,0,0,0,0,0,0,0,0,0,0,0,0,0,0,0,0,0,0,0,0,0,0,0,0,0,0,0,0,0,0,0,0,0,0,0,0,0,0,0,0,0,0,0,0,0,0,0,0,0,0,0,0,0,0,0,0,0,0],"sum_hessian":[5.965E3,3.39E2,5.626E3,1.1E1,3.28E2,1.57E2,5.469E3,1E0,1E1,7E0,3.21E2,1.9E1,1.38E2,1.81E2,5.288E3,6E0,1E0,6E0,3.15E2,2E0,1.7E1,1.33E2,5E0,1.77E2,4E0,5.158E3,1.3E2,1E0,5E0,5E0,1E0,3E0,3.12E2,1E0,1E0,2E0,1.5E1,2E0,1.31E2,4E0,1E0,1.72E2,5E0,5.039E3,1.19E2,1.22E2,8E0,1E0,4E0,1E0,2E0,3.1E2,2E0,1E0,1E0,1E0,1.4E1,4E0,1.27E2,1.68E2,4E0,4.951E3,8.8E1,1.1E1,1.08E2,3E0,1.19E2,1E0,7E0],"tree_param":{"num_deleted":"0","num_feature":"128104","num_nodes":"69","size_leaf_vector":"1"}},{"base_weights":[2.7235849E-3,-7.827027E-2,6.958917E-3,-8.342007E-2,1.4699557E-1,1.3191998E-2,-5.2627444E-2,1.9314641E-1,-8.697161E-2,1.6655837E-1,1.480937E-3,-6.538363E-2,1.7271569E-2,2.5040528E-1,-5.479474E-2,2.6927516E-3,2.3957688E-2,-9.07918E-2,1.4740916E-1,2.6551783E-3,1.8924935E-2,-7.132898E-2,1.5459229E-1,2.3172466E-2,-2.4005087E-2,2.7936862E-3,3.1524915E-2,-2.4633449E-2,-5.141969E-2,-9.422301E-2,1.7294875E-1,3.2792345E-3,1.6786529E-2,1.5700045E-1,-7.667321E-2,1.8794999E-3,1.7409269E-2,2.6789013E-2,-5.8837377E-2,1.690662E-1,-2.9139318E-2,-2.0040312E-1,-4.7559097E-2,1.4171469E-2,-9.8141655E-3,4.3723127E-3,2.803128E-2,2.9598044E-3,1.7656133E-2,8.130599E-3,-8.380239E-3,-1.2439102E-2,2.842283E-3,-6.5681855E-3,1.9522449E-2,7.557128E-4,2.938447E-2,3.533807E-2,-3.1019016E-3,-2.2175953E-2,2.7936862E-3,-2.424855E-2,-4.439577E-3],"categories":[],"categories_nodes":[],"categories_segments":[],"categories_sizes":[],"default_left":[0,1,1,0,0,0,0,0,1,0,0,1,1,0,0,0,0,1,0,0,0,0,0,1,0,0,0,0,0,0,0,0,0,0,0,0,0,0,1,0,0,1,0,0,0,0,0,0,0,0,0,0,0,0,0,0,0,0,0,0,0,0,0],"id":4,"left_children":[1,3,5,7,9,11,13,15,17,19,-1,21,23,25,27,-1,-1,29,31,-1,-1,33,35,37,39,-1,-1,-1,41,43,45,-1,-1,47,49,-1,-1,51,53,55,57,59,61,-1,-1,-1,-1,-1,-1,-1,-1,-1,-1,-1,-1,-1,-1,-1,-1,-1,-1,-1,-1],"loss_changes":[2.050184E0,3.5680413E-1,2.1099126E0,3.0262995E-1,1.5634894E-2,1.6494219E0,3.6705875E-1,2.4419278E-2,2.7125216E-1,1.4036387E-2,0E0,3.4321678E-1,1.1913667E0,4.8895746E-2,3.331877E-1,0E0,0E0,2.7330136E-1,6.218381E-3,0E0,0E0,3.1465852E-1,1.526463E-2,1.2703986E0,6.1158514E-1,0E0,0E0,0E0,2.9358053E-1,2.7370882E-1,4.3240592E-2,0E0,0E0,9.726748E-3,2.8049517E-1,0E0,0E0,1.0157444E0,3.2756728E-1,3.202251E-1,4.4021785E-1,6.959003E-2,3.0679202E-1,0E0,0E0,0E0,0E0,0E0,0E0,0E0,0E0,0E0,0E0,0E0,0E0,0E0,0E0,0E0,0E0,0E0,0E0,0E0,0E0],"parents":[2147483647,0,0,1,1,2,2,3,3,4,4,5,5,6,6,7,7,8,8,9,9,11,11,12,12,13,13,14,14,17,17,18,18,21,21,22,22,23,23,24,24,28,28,29,29,30,30,33,33,34,34,37,37,38,38,39,39,40,40,41,41,42,42],"right_children":[2,4,6,8,10,12,14,16,18,20,-1,22,24,26,28,-1,-1,30,32,-1,-1,34,36,38,40,-1,-1,-1,42,44,46,-1,-1,48,50,-1,-1,52,54,56,58,60,62,-1,-1,-1,-1,-1,-1,-1,-1,-1,-1,-1,-1,-1,-1,-1,-1,-1,-1,-1,-1],"split_conditions":[8.165066E-1,2.5E-1,1.9245009E-1,3.1622776E-1,3.3333334E-1,4.082483E-1,3.3333334E-1,2.581989E-1,2.773501E-1,2.773501E-1,1.480937E-3,3.0151135E-1,2.1320072E-1,2.581989E-1,3.3333334E-1,2.6927516E-3,2.3957688E-2,3.3333334E-1,2.8867513E-1,2.6551783E-3,1.8924935E-2,2.6726124E-1,4.082483E-1,2.182179E-1,2.6726124E-1,2.7936862E-3,3.1524915E-2,-2.4633449E-2,2.085144E-1,6.030327E-1,3.5355338E-1,3.2792345E-3,1.6786529E-2,2.6726124E-1,2.773501E-1,1.8794999E-3,1.7409269E-2,8.165066E-1,3.0151135E-1,2.5E-1,3.1622776E-1,2.0412415E-1,2.773501E-1,1.4171469E-2,-9.8141655E-3,4.3723127E-3,2.803128E-2,2.9598044E-3,1.7656133E-2,8.130599E-3,-8.380239E-3,-1.2439102E-2,2.842283E-3,-6.5681855E-3,1.9522449E-2,7.557128E-4,2.938447E-2,3.533807E-2,-3.1019016E-3,-2.2175953E-2,2.7936862E-3,-2.424855E-2,-4.439577E-3],"split_indices":[86932,155,2282,1764,24,13844,120368,7,82,177,0,787,545,1589,3107,0,0,285,519,0,0,3573,1625,149,13778,0,0,0,14529,7688,24,0,0,483,1183,0,0,193,1996,545,34097,11,2530,0,0,0,0,0,0,0,0,0,0,0,0,0,0,0,0,0,0,0,0],"split_type":[0,0,0,0,0,0,0,0,0,0,0,0,0,0,0,0,0,0,0,0,0,0,0,0,0,0,0,0,0,0,0,0,0,0,0,0,0,0,0,0,0,0,0,0,0,0,0,0,0,0,0,0,0,0,0,0,0,0,0,0,0,0,0],"sum_hessian":[5.974E3,2.96E2,5.678E3,2.9E2,6E0,5.141E3,5.37E2,3E0,2.87E2,5E0,1E0,2.53E2,4.888E3,3E0,5.34E2,1E0,2E0,2.83E2,4E0,1E0,4E0,2.47E2,6E0,4.277E3,6.11E2,1E0,2E0,8E0,5.26E2,2.8E2,3E0,1E0,3E0,5E0,2.42E2,1E0,5E0,4.097E3,1.8E2,1.5E1,5.96E2,1.2E1,5.14E2,4E0,2.76E2,2E0,1E0,1E0,4E0,1E1,2.32E2,4.3E1,4.054E3,1.76E2,4E0,7E0,8E0,2E0,5.94E2,1.1E1,1E0,7E0,5.07E2],"tree_param":{"num_deleted":"0","num_feature":"128104","num_nodes":"63","size_leaf_vector":"1"}},{"base_weights":[7.5664226E-5,6.0363216E-3,-6.184279E-2,1.02702165E-2,-6.5612644E-2,3.0622069E-2,-6.3832E-2,8.927488E-3,2.1861099E-1,2.633828E-2,-6.865349E-2,1.615944E-1,-6.63151E-2,5.893071E-3,8.863027E-2,-9.527471E-2,2.4193504E-1,-7.4153736E-2,9.991926E-2,1.8185062E-2,3.0156642E-3,2.1223497E-2,-6.834588E-2,7.823291E-3,-1.0857964E-1,8.1400216E-2,3.3697E-1,1.5205502E-3,-1.5811756E-2,-4.192806E-2,2.738464E-1,2.1726592E-2,-7.689382E-2,-1.2880057E-2,1.3964376E-1,-7.135823E-2,1.0927847E-1,5.342269E-4,9.205039E-3,-1.2037307E-2,1.5148545E-2,7.6065036E-3,3.779345E-2,8.60433E-3,3.7819084E-2,2.2675585E-2,-2.0707464E-2,-1.4824416E-2,2.9496988E-2,2.1395987E-2,-7.9637505E-3,2.4399087E-3,1.50999455E-2,1.17677795E-2,-7.4234344E-3,2.0720886E-2,5.16971E-3],"categories":[],"categories_nodes":[],"categories_segments":[],"categories_sizes":[],"default_left":[1,1,0,1,0,0,0,1,0,0,1,1,0,1,1,0,0,0,0,0,0,0,1,1,1,1,0,0,0,0,0,0,0,0,0,0,0,0,0,0,0,0,0,0,0,0,0,0,0,0,0,0,0,0,0,0,0],"id":5,"left_children":[1,3,5,7,9,-1,11,13,15,-1,17,19,21,23,25,27,29,31,33,-1,-1,-1,35,37,39,41,43,-1,-1,45,47,-1,49,-1,51,53,55,-1,-1,-1,-1,-1,-1,-1,-1,-1,-1,-1,-1,-1,-1,-1,-1,-1,-1,-1,-1],"loss_changes":[2.2107615E0,1.6582013E0,4.0466118E-1,1.4415338E0,3.2321072E-1,0E0,3.040278E-1,1.2396916E0,2.646463E-1,0E0,2.883488E-1,1.0490596E-2,3.0809093E-1,1.0926006E0,3.1012607E-1,2.3232928E-2,2.9229403E-1,2.5146985E-1,1.0884399E-1,0E0,0E0,0E0,2.8389192E-1,1.0150992E0,2.6973367E-1,2.6235223E-1,1.9176245E-2,0E0,0E0,2.2444429E-1,2.9337645E-1,0E0,2.5005805E-1,0E0,8.0938935E-3,2.8492928E-1,4.003858E-2,0E0,0E0,0E0,0E0,0E0,0E0,0E0,0E0,0E0,0E0,0E0,0E0,0E0,0E0,0E0,0E0,0E0,0E0,0E0,0E0],"parents":[2147483647,0,0,1,1,2,2,3,3,4,4,6,6,7,7,8,8,10,10,11,11,12,12,13,13,14,14,15,15,16,16,17,17,18,18,22,22,23,23,24,24,25,25,26,26,29,29,30,30,32,32,34,34,35,35,36,36],"right_children":[2,4,6,8,10,-1,12,14,16,-1,18,20,22,24,26,28,30,32,34,-1,-1,-1,36,38,40,42,44,-1,-1,46,48,-1,50,-1,52,54,56,-1,-1,-1,-1,-1,-1,-1,-1,-1,-1,-1,-1,-1,-1,-1,-1,-1,-1,-1,-1],"split_conditions":[1.9245009E-1,1.6903085E-1,2.8867513E-1,2.3570226E-1,3.5355338E-1,3.0622069E-2,6.666767E-1,1.118034E-1,7.5593895E-1,2.633828E-2,2.5E-1,3.3333334E-1,5.345325E-1,2.5E-1,2.1320072E-1,3.7796447E-1,3.7796447E-1,6.666767E-1,3.3333334E-1,1.8185062E-2,3.0156642E-3,2.1223497E-2,2.8867513E-1,1.3018891E-1,2.8867513E-1,3.1234753E-1,2.773501E-1,1.5205502E-3,-1.5811756E-2,3.1622776E-1,3.1622776E-1,2.1726592E-2,7.5593895E-1,-1.2880057E-2,3.3333334E-1,3.3333334E-1,3.3333334E-1,5.342269E-4,9.205039E-3,-1.2037307E-2,1.5148545E-2,7.6065036E-3,3.779345E-2,8.60433E-3,3.7819084E-2,2.2675585E-2,-2.0707464E-2,-1.4824416E-2,2.9496988E-2,2.1395987E-2,-7.9637505E-3,2.4399087E-3,1.50999455E-2,1.17677795E-2,-7.4234344E-3,2.0720886E-2,5.16971E-3],"split_indices":[2282,86932,24738,5266,487,0,44738,5411,102107,0,24302,1308,33257,15796,2097,24,15939,99458,79,0,0,0,3336,75136,1626,3751,3680,0,0,39,509,0,43661,0,82,414,3700,0,0,0,0,0,0,0,0,0,0,0,0,0,0,0,0,0,0,0,0],"split_type":[0,0,0,0,0,0,0,0,0,0,0,0,0,0,0,0,0,0,0,0,0,0,0,0,0,0,0,0,0,0,0,0,0,0,0,0,0,0,0,0,0,0,0,0,0,0,0,0,0,0,0,0,0,0,0,0,0],"sum_hessian":[5.988E3,5.463E3,5.25E2,5.159E3,3.04E2,2E0,5.23E2,5.127E3,3.2E1,2E0,3.02E2,5E0,5.18E2,4.94E3,1.87E2,2E0,3E1,2.93E2,9E0,4E0,1E0,3E0,5.15E2,4.859E3,8.1E1,1.83E2,4E0,1E0,1E0,3E0,2.7E1,2E0,2.91E2,1E0,8E0,5.07E2,8E0,4.721E3,1.38E2,7.8E1,3E0,1.81E2,2E0,1E0,3E0,1E0,2E0,1E0,2.6E1,2E0,2.89E2,1E0,7E0,7E0,5E2,2E0,6E0],"tree_param":{"num_deleted":"0","num_feature":"128104","num_nodes":"57","size_leaf_vector":"1"}},{"base_weights":[-5.4112053E-4,2.496671E-1,-1.5545308E-3,3.4266126E-1,8.5209124E-2,1.709445E-3,-6.254559E-2,5.081952E-4,3.664111E-1,-1.6355645E-2,1.3102268E-1,6.326491E-3,-4.1513674E-2,-6.6631824E-2,1.9268556E-1,8.8581955E-3,3.8096854E-1,-1.00179575E-1,2.1139184E-1,9.696478E-3,-5.6735087E-2,3.3036336E-2,-4.280932E-2,1.1947561E-1,-7.153606E-2,4.1681305E-3,2.200163E-2,3.9580116E-1,1.0148873E-2,8.1153214E-4,-1.5838468E-2,2.9435605E-4,2.4564262E-1,-2.855898E-2,1.601003E-2,-8.363582E-2,-1.737143E-2,9.901489E-2,-4.6207253E-2,4.77553E-3,1.3542317E-1,-7.5557716E-2,1.3141537E-1,1.0591537E-2,4.1252576E-2,8.1153214E-4,2.9152501E-2,3.0477012E-2,-3.1958309E-3,1.8245945E-3,-9.494491E-3,1.288364E-2,-9.168445E-3,-5.065168E-4,-2.216316E-2,-1.3263165E-2,1.2937141E-2,-4.891203E-3,1.3639301E-2,3.4859702E-3,1.48563925E-2,1.7454853E-2,-7.883739E-3,3.5011813E-3,1.4369371E-2],"categories":[],"categories_nodes":[],"categories_segments":[],"categories_sizes":[],"default_left":[0,1,1,0,0,1,1,0,0,0,0,1,0,0,0,0,1,0,0,0,1,0,0,0,1,0,0,0,0,0,0,0,0,0,1,0,1,0,1,0,0,0,0,0,0,0,0,0,0,0,0,0,0,0,0,0,0,0,0,0,0,0,0,0,0],"id":6,"left_children":[1,3,5,7,9,11,13,-1,15,-1,17,19,21,23,25,-1,27,29,31,33,35,-1,37,39,41,-1,-1,43,-1,-1,-1,-1,45,47,49,51,53,55,57,-1,59,61,63,-1,-1,-1,-1,-1,-1,-1,-1,-1,-1,-1,-1,-1,-1,-1,-1,-1,-1,-1,-1,-1,-1],"loss_changes":[1.5085843E0,3.3784938E-1,1.1796167E0,1.1839962E-1,1.3539797E-1,1.1228051E0,3.2676184E-1,0E0,2.2875905E-2,0E0,1.8841091E-1,1.0807726E0,2.7577144E-1,2.796229E-1,1.1464715E-2,0E0,1.372087E-2,2.0195287E-2,4.9253553E-2,1.1660701E0,2.7174622E-1,0E0,2.6577008E-1,2.6829392E-3,2.4662781E-1,0E0,0E0,1.4485836E-2,0E0,0E0,0E0,0E0,6.3024074E-2,7.847769E-1,1.0295528E0,2.7345932E-1,2.653274E-1,1.0857451E-1,2.6843393E-1,0E0,2.7499795E-3,2.4753678E-1,2.0710751E-3,0E0,0E0,0E0,0E0,0E0,0E0,0E0,0E0,0E0,0E0,0E0,0E0,0E0,0E0,0E0,0E0,0E0,0E0,0E0,0E0,0E0,0E0],"parents":[2147483647,0,0,1,1,2,2,3,3,4,4,5,5,6,6,8,8,10,10,11,11,12,12,13,13,14,14,16,16,17,17,18,18,19,19,20,20,22,22,23,23,24,24,27,27,32,32,33,33,34,34,35,35,36,36,37,37,38,38,40,40,41,41,42,42],"right_children":[2,4,6,8,10,12,14,-1,16,-1,18,20,22,24,26,-1,28,30,32,34,36,-1,38,40,42,-1,-1,44,-1,-1,-1,-1,46,48,50,52,54,56,58,-1,60,62,64,-1,-1,-1,-1,-1,-1,-1,-1,-1,-1,-1,-1,-1,-1,-1,-1,-1,-1,-1,-1,-1,-1],"split_conditions":[7.5593895E-1,2.8867513E-1,1.6903085E-1,3.3333334E-1,7.5593895E-1,1.8569534E-1,3.7796447E-1,5.081952E-4,3.0151135E-1,-1.6355645E-2,3.7796447E-1,2.182179E-1,4.8508126E-1,3.5355338E-1,3.9223227E-1,8.8581955E-3,3.3333334E-1,3.7796447E-1,5.547002E-1,4.082483E-1,2.2941573E-1,3.3036336E-2,2.581989E-1,3.5355338E-1,2.773501E-1,4.1681305E-3,2.200163E-2,3.7796447E-1,1.0148873E-2,8.1153214E-4,-1.5838468E-2,2.9435605E-4,7.5593895E-1,2.4253562E-1,2.773501E-1,2.8867513E-1,2.773501E-1,2.236068E-1,2.1320072E-1,4.77553E-3,3.3333334E-1,3.1622776E-1,2.8867513E-1,1.0591537E-2,4.1252576E-2,8.1153214E-4,2.9152501E-2,3.0477012E-2,-3.1958309E-3,1.8245945E-3,-9.494491E-3,1.288364E-2,-9.168445E-3,-5.065168E-4,-2.216316E-2,-1.3263165E-2,1.2937141E-2,-4.891203E-3,1.3639301E-2,3.4859702E-3,1.48563925E-2,1.7454853E-2,-7.883739E-3,3.5011813E-3,1.4369371E-2],"split_indices":[690,375,86932,53,8583,2282,7,0,337,0,84949,13844,25550,11126,7,0,39,169,132,545,14529,0,1002,407,1510,0,0,9757,0,0,0,0,230,12432,10259,674,806,415,95172,0,123,1185,68,0,0,0,0,0,0,0,0,0,0,0,0,0,0,0,0,0,0,0,0,0,0],"split_type":[0,0,0,0,0,0,0,0,0,0,0,0,0,0,0,0,0,0,0,0,0,0,0,0,0,0,0,0,0,0,0,0,0,0,0,0,0,0,0,0,0,0,0,0,0,0,0,0,0,0,0,0,0,0,0,0,0,0,0,0,0,0,0,0,0],"sum_hessian":[5.947E3,2.3E1,5.924E3,1.4E1,9E0,5.624E3,3E2,1E0,1.3E1,1E0,8E0,5.082E3,5.42E2,2.96E2,4E0,1E0,1.2E1,2E0,6E0,4.825E3,2.57E2,1E0,5.41E2,7E0,2.89E2,1E0,3E0,1.1E1,1E0,1E0,1E0,1E0,5E0,6.83E2,4.142E3,1.52E2,1.05E2,1.2E1,5.29E2,2E0,5E0,2.84E2,5E0,1E0,1E1,1E0,4E0,6E0,6.77E2,4.061E3,8.1E1,5E0,1.47E2,1E2,5E0,1E0,1.1E1,5.22E2,7E0,1E0,4E0,3E0,2.81E2,1E0,4E0],"tree_param":{"num_deleted":"0","num_feature":"128104","num_nodes":"65","size_leaf_vector":"1"}},{"base_weights":[-1.2583028E-3,9.403181E-3,-2.3932697E-2,-1.22357845E-1,1.149385E-2,3.7758234E-1,-2.5385603E-2,1.0412562E-2,-1.3520335E-1,-5.849315E-2,1.5629351E-2,8.40675E-3,4.1249022E-2,1.17601655E-1,-2.8183235E-2,1.2754719E-2,-1.4627196E-1,2.2273606E-2,-6.20142E-2,1.4803489E-2,3.6231494E-1,3.4263688E-1,3.303187E-2,1.3534985E-1,-3.0457698E-2,9.088854E-2,-1.5618792E-1,1.614574E-2,-6.579544E-2,1.813086E-2,-6.793824E-2,-1.473859E-4,4.0797275E-2,2.1503076E-3,3.759292E-2,3.0009678E-2,9.4623E-4,-1.5702435E-1,1.8031277E-1,-3.195246E-2,2.0202468E-1,1.099164E-2,2.6416406E-3,-1.6682504E-2,9.088854E-3,-6.9085765E-3,1.9523313E-2,-1.371703E-2,1.9758781E-3,1.8845068E-2,-7.6427795E-3,2.1472549E-2,-4.7682975E-3,7.2030275E-4,-2.1416781E-2,-1.6195476E-2,2.0323196E-2,1.4008562E-2,-3.3533168E-3,3.032258E-2,-7.618395E-3],"categories":[],"categories_nodes":[],"categories_segments":[],"categories_sizes":[],"default_left":[0,0,0,0,0,0,0,0,0,0,1,0,0,0,0,0,0,0,0,1,0,0,0,0,1,0,1,0,1,0,0,0,0,0,0,0,0,0,0,0,1,0,0,0,0,0,0,0,0,0,0,0,0,0,0,0,0,0,0,0,0],"id":7,"left_children":[1,3,5,7,9,11,13,-1,15,17,19,-1,-1,21,23,-1,25,-1,27,29,31,33,35,37,39,41,43,-1,45,47,49,-1,-1,-1,-1,-1,51,53,55,57,59,-1,-1,-1,-1,-1,-1,-1,-1,-1,-1,-1,-1,-1,-1,-1,-1,-1,-1,-1,-1],"loss_changes":[1.4543074E0,1.1286238E0,1.131976E0,2.0027298E-1,1.167033E0,3.7044942E-2,7.705637E-1,0E0,1.9606197E-1,2.3661292E-1,1.0840635E0,0E0,0E0,6.928358E-1,7.041322E-1,0E0,1.5294456E-1,0E0,1.9905788E-1,1.046593E0,1.500895E-1,9.882915E-2,2.3964658E-1,3.701095E-1,6.517736E-1,7.767044E-4,1.6496873E-1,0E0,2.0243883E-1,9.257499E-1,3.343671E-1,0E0,0E0,0E0,0E0,0E0,2.8053257E-1,3.9080746E-2,2.1333778E-1,5.067023E-1,3.6096123E-1,0E0,0E0,0E0,0E0,0E0,0E0,0E0,0E0,0E0,0E0,0E0,0E0,0E0,0E0,0E0,0E0,0E0,0E0,0E0,0E0],"parents":[2147483647,0,0,1,1,2,2,3,3,4,4,5,5,6,6,8,8,9,9,10,10,13,13,14,14,16,16,18,18,19,19,20,20,21,21,22,22,23,23,24,24,25,25,26,26,28,28,29,29,30,30,36,36,37,37,38,38,39,39,40,40],"right_children":[2,4,6,8,10,12,14,-1,16,18,20,-1,-1,22,24,-1,26,-1,28,30,32,34,36,38,40,42,44,-1,46,48,50,-1,-1,-1,-1,-1,52,54,56,58,60,-1,-1,-1,-1,-1,-1,-1,-1,-1,-1,-1,-1,-1,-1,-1,-1,-1,-1,-1,-1],"split_conditions":[3.5355338E-1,3.1622776E-1,3.7796447E-1,2.773501E-1,3.3333334E-1,3.7796447E-1,2.8867513E-1,1.0412562E-2,2.6726124E-1,3.1622776E-1,2.5E-1,8.40675E-3,4.1249022E-2,2.5400025E-1,4.082483E-1,1.2754719E-2,5.345325E-1,2.2273606E-2,3.1622776E-1,1.9611613E-1,3.0151135E-1,2.5E-1,1.069055E0,7.071168E-1,2.8867513E-1,2.581989E-1,2.8867513E-1,1.614574E-2,5E-1,3.3333334E-1,3.5355338E-1,-1.473859E-4,4.0797275E-2,2.1503076E-3,3.759292E-2,3.0009678E-2,2.8867513E-1,7.071168E-1,7.5593895E-1,4.082483E-1,3.3333334E-1,1.099164E-2,2.6416406E-3,-1.6682504E-2,9.088854E-3,-6.9085765E-3,1.9523313E-2,-1.371703E-2,1.9758781E-3,1.8845068E-2,-7.6427795E-3,2.1472549E-2,-4.7682975E-3,7.2030275E-4,-2.1416781E-2,-1.6195476E-2,2.0323196E-2,1.4008562E-2,-3.3533168E-3,3.032258E-2,-7.618395E-3],"split_indices":[24,431,6,86932,86932,24,40260,0,29471,1764,2383,0,0,22,2197,0,1792,0,1185,149,509,2417,14555,47365,58551,24,8310,0,7,1628,66274,0,0,0,0,0,58129,471,1087,1779,375,0,0,0,0,0,0,0,0,0,0,0,0,0,0,0,0,0,0,0,0],"split_type":[0,0,0,0,0,0,0,0,0,0,0,0,0,0,0,0,0,0,0,0,0,0,0,0,0,0,0,0,0,0,0,0,0,0,0,0,0,0,0,0,0,0,0,0,0,0,0,0,0,0,0,0,0,0,0,0,0,0,0,0,0],"sum_hessian":[6.014E3,4.091E3,1.923E3,6.3E1,4.028E3,6E0,1.917E3,3E0,6E1,2.24E2,3.804E3,1E0,5E0,3.6E1,1.881E3,2E0,5.8E1,2E0,2.22E2,3.796E3,8E0,9E0,2.7E1,2.5E1,1.856E3,2E0,5.6E1,3E0,2.19E2,3.65E3,1.46E2,1E0,7E0,1E0,8E0,2E0,2.5E1,3E0,2.2E1,1.845E3,1.1E1,1E0,1E0,5.4E1,2E0,2.17E2,2E0,3.7E1,3.613E3,4E0,1.42E2,4E0,2.1E1,1E0,2E0,1E0,2.1E1,1.6E1,1.829E3,8E0,3E0],"tree_param":{"num_deleted":"0","num_feature":"128104","num_nodes":"61","size_leaf_vector":"1"}},{"base_weights":[-1.2142456E-3,9.6134394E-2,-3.799105E-3,1.0676331E-1,-2.4408562E-2,8.331768E-2,-6.6016964E-3,1.164114E-1,-1.9824338E-1,9.328149E-2,-1.7910351E-1,5.6380354E-2,-1.0627895E-2,-2.2600723E-2,1.2269309E-1,-1.6943172E-3,-2.3933265E-2,1.1666741E-1,-1.9867735E-2,2.4604367E-3,-2.1715555E-2,1.7518733E-1,4.919491E-2,-1.105748E-2,3.714704E-1,-2.2528239E-2,1.2913528E-1,-1.5859026E-1,1.2553799E-1,3.0154375E-2,-4.0632907E-2,2.8211009E-2,2.1250029E-1,2.7438834E-1,4.549943E-2,4.641632E-2,-1.3940914E-2,4.305944E-3,4.2854067E-2,-2.1827763E-2,1.3561119E-2,3.181726E-4,-1.9982869E-2,-2.1848256E-2,1.3201316E-2,2.1727376E-2,-5.701844E-3,-1.612404E-3,4.3325783E-3,2.3964092E-2,2.405742E-3,3.3875958E-3,3.2604743E-2,3.9319536E-3,1.6771203E-2,6.548258E-3,-3.8949586E-3,-1.6054352E-3,6.695285E-3],"categories":[],"categories_nodes":[],"categories_segments":[],"categories_sizes":[],"default_left":[0,1,0,1,0,1,0,0,0,1,0,0,1,0,0,0,0,0,0,0,0,0,0,0,0,0,0,0,0,0,0,0,1,0,1,1,1,0,0,0,0,0,0,0,0,0,0,0,0,0,0,0,0,0,0,0,0,0,0],"id":8,"left_children":[1,3,5,7,-1,9,11,13,15,17,19,21,23,-1,25,-1,-1,27,29,-1,-1,31,33,35,37,-1,39,41,43,-1,45,47,49,51,53,55,57,-1,-1,-1,-1,-1,-1,-1,-1,-1,-1,-1,-1,-1,-1,-1,-1,-1,-1,-1,-1,-1,-1],"loss_changes":[1.507896E0,5.865656E-1,1.4256696E0,4.6743047E-1,0E0,4.9258518E-1,1.4348375E0,3.4392154E-1,3.319241E-2,4.6803117E-1,5.9603482E-2,2.8163326E-1,8.7686193E-1,0E0,3.5414195E-1,0E0,0E0,3.763963E-1,2.1915172E-1,0E0,0E0,9.820342E-2,2.554831E-1,8.809616E-1,9.4002366E-2,0E0,3.5132432E-1,3.3991918E-2,3.4516048E-1,0E0,1.3916676E-1,4.0491573E-3,7.095176E-2,5.107811E-2,2.3357868E-1,4.15963E-1,8.6598086E-1,0E0,0E0,0E0,0E0,0E0,0E0,0E0,0E0,0E0,0E0,0E0,0E0,0E0,0E0,0E0,0E0,0E0,0E0,0E0,0E0,0E0,0E0],"parents":[2147483647,0,0,1,1,2,2,3,3,5,5,6,6,7,7,8,8,9,9,10,10,11,11,12,12,14,14,17,17,18,18,21,21,22,22,23,23,24,24,26,26,27,27,28,28,30,30,31,31,32,32,33,33,34,34,35,35,36,36],"right_children":[2,4,6,8,-1,10,12,14,16,18,20,22,24,-1,26,-1,-1,28,30,-1,-1,32,34,36,38,-1,40,42,44,-1,46,48,50,52,54,56,58,-1,-1,-1,-1,-1,-1,-1,-1,-1,-1,-1,-1,-1,-1,-1,-1,-1,-1,-1,-1,-1,-1],"split_conditions":[1.1547105E0,2.8867513E-1,4.472136E-1,3.3333334E-1,-2.4408562E-2,2.5E-1,3.5355338E-1,3.1622776E-1,3.5355338E-1,3.1622776E-1,3.0151135E-1,1.9245009E-1,2.6726124E-1,-2.2600723E-2,6.3246554E-1,-1.6943172E-3,-2.3933265E-2,7.5593895E-1,3.5355338E-1,2.4604367E-3,-2.1715555E-2,1.8898223E-1,6.666767E-1,7.6249284E-1,3.0151135E-1,-2.2528239E-2,6.3246554E-1,3.3333334E-1,3.5355338E-1,3.0154375E-2,3.3333334E-1,1.1043153E-1,1.6439898E-1,3.0151135E-1,1.7407766E-1,1.9611613E-1,2.6726124E-1,4.305944E-3,4.2854067E-2,-2.1827763E-2,1.3561119E-2,3.181726E-4,-1.9982869E-2,-2.1848256E-2,1.3201316E-2,2.1727376E-2,-5.701844E-3,-1.612404E-3,4.3325783E-3,2.3964092E-2,2.405742E-3,3.3875958E-3,3.2604743E-2,3.9319536E-3,1.6771203E-2,6.548258E-3,-3.8949586E-3,-1.6054352E-3,6.695285E-3],"split_indices":[45841,932,47503,2000,0,306,67398,33,5266,375,151,1029,4044,0,2324,0,0,3726,6,0,0,4218,20457,2309,2254,0,436,192,377,0,103,17,3293,1028,7197,43,306,0,0,0,0,0,0,0,0,0,0,0,0,0,0,0,0,0,0,0,0,0,0],"split_type":[0,0,0,0,0,0,0,0,0,0,0,0,0,0,0,0,0,0,0,0,0,0,0,0,0,0,0,0,0,0,0,0,0,0,0,0,0,0,0,0,0,0,0,0,0,0,0,0,0,0,0,0,0,0,0,0,0,0,0],"sum_hessian":[5.99E3,1.54E2,5.836E3,1.5E2,4E0,1.81E2,5.655E3,1.46E2,4E0,1.75E2,6E0,3.39E2,5.316E3,2E0,1.44E2,1E0,3E0,1.45E2,3E1,1E0,5E0,1.8E1,3.21E2,5.311E3,5E0,2E0,1.42E2,4E0,1.41E2,1E0,2.9E1,4E0,1.4E1,4E0,3.17E2,2.53E2,5.058E3,1E0,4E0,2E0,1.4E2,1E0,3E0,2E0,1.39E2,1E0,2.8E1,1E0,3E0,1.2E1,2E0,1E0,3E0,3.03E2,1.4E1,2.07E2,4.6E1,4.93E3,1.28E2],"tree_param":{"num_deleted":"0","num_feature":"128104","num_nodes":"59","size_leaf_vector":"1"}},{"base_weights":[2.8017824E-4,9.927058E-2,-1.3004873E-3,1.1785832E-1,-2.5516285E-2,4.9272742E-2,-4.5158914E-3,-2.1305425E-2,1.31718E-1,2.340266E-1,4.429583E-2,1.4714009E-1,-5.452069E-3,1.5668318E-1,-5.50126E-2,5.161673E-4,2.619895E-1,4.1147772E-2,3.0159384E-2,2.2918339E-1,-7.268222E-2,6.545362E-2,-7.4920733E-3,-2.2182753E-2,1.697345E-1,2.1718828E-2,-1.3963372E-1,3.1125134E-2,7.613599E-3,3.790008E-2,2.518126E-1,1.3952868E-1,3.497126E-1,-1.5673608E-1,1.756888E-2,3.4076165E-2,5.39281E-2,-9.053916E-3,1.010107E-1,-1.9256381E-2,1.8229833E-2,8.590983E-3,-1.7856538E-2,2.4243591E-2,3.4715158E-3,1.587385E-3,3.0682886E-2,2.0665478E-2,6.435784E-3,3.9230514E-2,-1.6810059E-3,4.931425E-3,-2.3363857E-2,6.601728E-3,-1.6739586E-2,1.0153445E-2,-1.0776458E-3,1.1245619E-2,-2.149815E-2],"categories":[],"categories_nodes":[],"categories_segments":[],"categories_sizes":[],"default_left":[0,1,0,0,0,0,0,0,1,0,1,1,0,0,0,0,1,1,0,1,1,0,1,0,0,0,0,0,0,0,0,0,1,0,0,0,1,0,1,0,0,0,0,0,0,0,0,0,0,0,0,0,0,0,0,0,0,0,0],"id":9,"left_children":[1,3,5,7,-1,9,11,-1,13,15,17,19,21,23,25,-1,27,29,-1,31,33,35,37,-1,39,-1,41,-1,-1,43,45,47,49,51,-1,-1,53,55,57,-1,-1,-1,-1,-1,-1,-1,-1,-1,-1,-1,-1,-1,-1,-1,-1,-1,-1,-1,-1],"loss_changes":[9.3582404E-1,6.4935577E-1,9.5752734E-1,4.408337E-1,0E0,3.1329888E-1,7.867867E-1,0E0,4.1419291E-1,5.6245267E-2,2.6622635E-1,6.2984586E-1,7.964878E-1,4.1803682E-1,2.8370017E-1,0E0,4.954648E-2,2.2375971E-1,0E0,2.2135532E-1,2.3630218E-1,4.7027564E-1,9.0754825E-1,0E0,3.7649345E-1,0E0,9.436759E-2,0E0,0E0,2.1111593E-1,6.003174E-2,6.743494E-2,1.6270602E-1,1.3828796E-1,0E0,0E0,4.0971923E-1,1.0059451E0,2.9904395E-1,0E0,0E0,0E0,0E0,0E0,0E0,0E0,0E0,0E0,0E0,0E0,0E0,0E0,0E0,0E0,0E0,0E0,0E0,0E0,0E0],"parents":[2147483647,0,0,1,1,2,2,3,3,5,5,6,6,8,8,9,9,10,10,11,11,12,12,13,13,14,14,16,16,17,17,19,19,20,20,21,21,22,22,24,24,26,26,29,29,30,30,31,31,32,32,33,33,36,36,37,37,38,38],"right_children":[2,4,6,8,-1,10,12,-1,14,16,18,20,22,24,26,-1,28,30,-1,32,34,36,38,-1,40,-1,42,-1,-1,44,46,48,50,52,-1,-1,54,56,58,-1,-1,-1,-1,-1,-1,-1,-1,-1,-1,-1,-1,-1,-1,-1,-1,-1,-1,-1,-1],"split_conditions":[5.163978E-1,2.8867513E-1,7.071168E-1,3.5355338E-1,-2.5516285E-2,2.236068E-1,2.8867513E-1,-2.1305425E-2,2.8867513E-1,4.0825832E-1,2.5E-1,2.3570226E-1,4.082483E-1,3.7796447E-1,3.0151135E-1,5.161673E-4,2.182179E-1,2.581989E-1,3.0159384E-2,2.4253562E-1,2.773501E-1,3.7796447E-1,2.8867513E-1,-2.2182753E-2,2.8867513E-1,2.1718828E-2,3.5355338E-1,3.1125134E-2,7.613599E-3,2.8867513E-1,2.085144E-1,4.8666427E-1,2.6726124E-1,2.6726124E-1,1.756888E-2,3.4076165E-2,2.6726124E-1,3.3333334E-1,3.0151135E-1,-1.9256381E-2,1.8229833E-2,8.590983E-3,-1.7856538E-2,2.4243591E-2,3.4715158E-3,1.587385E-3,3.0682886E-2,2.0665478E-2,6.435784E-3,3.9230514E-2,-1.6810059E-3,4.931425E-3,-2.3363857E-2,6.601728E-3,-1.6739586E-2,1.0153445E-2,-1.0776458E-3,1.1245619E-2,-2.149815E-2],"split_indices":[39,8120,67398,23760,0,1357,57659,0,41867,863,20457,3607,375,228,2000,0,520,7139,0,40260,22,6,306,0,12533,0,4937,0,0,72548,17,4211,2601,21656,0,0,12533,47503,10867,0,0,0,0,0,0,0,0,0,0,0,0,0,0,0,0,0,0,0,0],"split_type":[0,0,0,0,0,0,0,0,0,0,0,0,0,0,0,0,0,0,0,0,0,0,0,0,0,0,0,0,0,0,0,0,0,0,0,0,0,0,0,0,0,0,0,0,0,0,0,0,0,0,0,0,0,0,0,0,0,0,0],"sum_hessian":[5.979E3,9.3E1,5.886E3,8.9E1,4E0,3.51E2,5.535E3,3E0,8.6E1,8E0,3.43E2,3.3E1,5.502E3,7.6E1,1E1,1E0,7E0,3.4E2,3E0,2.4E1,9E0,1.53E2,5.349E3,2E0,7.4E1,2E0,8E0,5E0,2E0,3.36E2,4E0,1.5E1,9E0,7E0,2E0,5E0,1.48E2,5.274E3,7.5E1,2E0,7.2E1,1E0,7E0,4E0,3.32E2,1E0,3E0,7E0,8E0,8E0,1E0,2E0,5E0,1.41E2,7E0,8E1,5.194E3,7.3E1,2E0],"tree_param":{"num_deleted":"0","num_feature":"128104","num_nodes":"59","size_leaf_vector":"1"}},{"base_weights":[2.0583302E-3,7.5128686E-4,1.3425957E-1,8.838249E-2,-1.0935507E-3,1.497024E-1,-1.9875996E-2,1.000699E-1,-1.523046E-1,2.1596709E-1,-1.927188E-3,-1.9799678E-2,1.6624676E-1,1.08245455E-1,-2.4395784E-2,1.0755316E-3,-1.8706764E-1,2.6421294E-1,-1.7766088E-2,-2.6927346E-3,1.80098E-1,-1.4906997E-2,1.7500877E-1,-2.391369E-2,1.1658386E-1,-2.3361703E-2,-4.350543E-5,-1.7499566E-2,2.965395E-1,-3.3552384E-3,2.0677124E-1,3.0764041E-2,2.1777725E-1,-8.303246E-2,1.8675612E-1,-1.5673557E-2,1.2815806E-2,3.303754E-2,5.9562526E-4,6.4981985E-3,-5.408955E-4,-1.9351525E-2,2.4170076E-2,-4.79252E-3,5.6086928E-3,1.33532E-3,2.283923E-2,1.7430037E-3,-1.4197873E-2,1.9617042E-2,-1.4197873E-2],"categories":[],"categories_nodes":[],"categories_segments":[],"categories_sizes":[],"default_left":[1,0,1,1,0,0,0,1,0,1,1,0,0,0,0,0,0,0,0,1,0,0,0,0,0,0,0,0,1,0,0,0,0,0,1,0,0,0,0,0,0,0,0,0,0,0,0,0,0,0,0],"id":10,"left_children":[1,3,5,7,9,11,-1,13,15,17,19,-1,21,23,-1,-1,25,27,-1,29,31,-1,33,-1,35,-1,-1,-1,37,39,41,43,45,47,49,-1,-1,-1,-1,-1,-1,-1,-1,-1,-1,-1,-1,-1,-1,-1,-1],"loss_changes":[1.0236962E0,9.487488E-1,3.2803535E-1,3.5561532E-1,1.040516E0,3.5505402E-1,0E0,3.5267103E-1,3.6022738E-2,4.647404E-1,7.9853517E-1,0E0,1.752801E-1,3.5809362E-1,0E0,0E0,4.3336526E-2,3.35855E-1,0E0,7.922417E-1,1.2834322E-1,0E0,1.7616594E-1,0E0,3.743937E-1,0E0,0E0,0E0,1.8484294E-1,7.984951E-1,2.9844534E-1,1.4643807E-2,3.8179755E-2,2.0240365E-2,1.8568671E-1,0E0,0E0,0E0,0E0,0E0,0E0,0E0,0E0,0E0,0E0,0E0,0E0,0E0,0E0,0E0,0E0],"parents":[2147483647,0,0,1,1,2,2,3,3,4,4,5,5,7,7,8,8,9,9,10,10,12,12,13,13,16,16,17,17,19,19,20,20,22,22,24,24,28,28,29,29,30,30,31,31,32,32,33,33,34,34],"right_children":[2,4,6,8,10,12,-1,14,16,18,20,-1,22,24,-1,-1,26,28,-1,30,32,-1,34,-1,36,-1,-1,-1,38,40,42,44,46,48,50,-1,-1,-1,-1,-1,-1,-1,-1,-1,-1,-1,-1,-1,-1,-1,-1],"split_conditions":[2.4253562E-1,3.5355338E-1,2.581989E-1,2.8867513E-1,3.5355338E-1,5.547102E-1,-1.9875996E-2,2.773501E-1,3.3333334E-1,3.0151135E-1,1.9611613E-1,-1.9799678E-2,2.8867513E-1,3.1622776E-1,-2.4395784E-2,1.0755316E-3,3.1622776E-1,3.1622776E-1,-1.7766088E-2,2.773501E-1,2.4253562E-1,-1.4906997E-2,2.8867513E-1,-2.391369E-2,3.5355338E-1,-2.3361703E-2,-4.350543E-5,-1.7499566E-2,3.1622776E-1,1.8898223E-1,3.5355338E-1,2.4253562E-1,3.0151135E-1,2.8867513E-1,3.5355338E-1,-1.5673557E-2,1.2815806E-2,3.303754E-2,5.9562526E-4,6.4981985E-3,-5.408955E-4,-1.9351525E-2,2.4170076E-2,-4.79252E-3,5.6086928E-3,1.33532E-3,2.283923E-2,1.7430037E-3,-1.4197873E-2,1.9617042E-2,-1.4197873E-2],"split_indices":[41918,45841,10101,10228,3090,2872,0,170,14,1147,515,0,6515,4323,0,0,24,165,0,5266,43,0,1264,0,23760,0,0,0,70296,24,312,7,203,24,387,0,0,0,0,0,0,0,0,0,0,0,0,0,0,0,0],"split_type":[0,0,0,0,0,0,0,0,0,0,0,0,0,0,0,0,0,0,0,0,0,0,0,0,0,0,0,0,0,0,0,0,0,0,0,0,0,0,0,0,0,0,0,0,0,0,0,0,0,0,0],"sum_hessian":[5.924E3,5.867E3,5.7E1,1.2E2,5.747E3,5.5E1,2E0,1.15E2,5E0,2.1E1,5.726E3,2E0,5.3E1,1.13E2,2E0,1E0,4E0,1.9E1,2E0,5.703E3,2.3E1,1E0,5.2E1,2E0,1.11E2,3E0,1E0,1E0,1.8E1,5.686E3,1.7E1,5E0,1.8E1,2E0,5E1,4E0,1.07E2,1.6E1,2E0,1.65E2,5.521E3,1E0,1.6E1,1E0,4E0,1E0,1.7E1,1E0,1E0,4.9E1,1E0],"tree_param":{"num_deleted":"0","num_feature":"128104","num_nodes":"51","size_leaf_vector":"1"}},{"base_weights":[-5.081599E-4,1.5511937E-1,-1.4314445E-3,-1.9839937E-2,1.8255687E-1,6.1964083E-2,-3.701679E-3,-3.852763E-2,2.1437982E-1,6.9898345E-2,-9.89505E-2,4.04977E-2,-4.0600225E-3,1.0120048E-2,-9.875978E-2,-1.5224504E-2,2.3291089E-1,6.0535494E-2,2.3705757E-1,3.4804628E-3,-1.1767936E-1,-5.943281E-3,6.701897E-2,-1.3475649E-2,4.6151728E-4,-1.4879952E-2,2.525594E-1,3.0467233E-2,5.4868378E-2,-5.838275E-4,2.646947E-1,2.5987595E-3,-1.3888618E-1,6.655591E-2,-7.87442E-3,9.420311E-2,-6.311499E-2,-1.5853957E-3,2.6349276E-2,3.3441465E-2,4.9931873E-3,7.598759E-3,2.7878463E-2,-2.3091466E-3,-1.521295E-2,1.9516135E-2,5.3386013E-3,5.804087E-3,-1.0052869E-3,2.907592E-2,7.971047E-3,-1.0270259E-2,2.7462412E-2],"categories":[],"categories_nodes":[],"categories_segments":[],"categories_sizes":[],"default_left":[0,0,0,0,0,1,0,0,0,1,0,0,1,0,1,0,0,0,0,0,0,0,1,0,0,0,0,0,0,0,0,0,0,0,0,0,1,0,0,0,0,0,0,0,0,0,0,0,0,0,0,0,0],"id":11,"left_children":[1,3,5,-1,7,9,11,13,15,17,19,-1,21,-1,23,-1,25,27,29,-1,31,33,35,-1,-1,-1,37,-1,39,-1,41,-1,43,45,47,49,51,-1,-1,-1,-1,-1,-1,-1,-1,-1,-1,-1,-1,-1,-1,-1,-1],"loss_changes":[8.527259E-1,3.7570733E-1,8.4922945E-1,0E0,2.4043322E-1,2.6737124E-1,8.358087E-1,5.2075155E-2,2.3248398E-1,2.9084158E-1,2.9146597E-2,0E0,7.623302E-1,0E0,1.5506554E-2,0E0,2.4758196E-1,2.4062395E-1,6.86748E-2,0E0,3.1029798E-2,7.769972E-1,5.259696E-1,0E0,0E0,0E0,8.341324E-2,0E0,2.3583865E-1,0E0,2.7456284E-3,0E0,8.755147E-3,2.3347688E-1,7.7641726E-1,3.243544E-1,3.7583184E-1,0E0,0E0,0E0,0E0,0E0,0E0,0E0,0E0,0E0,0E0,0E0,0E0,0E0,0E0,0E0,0E0],"parents":[2147483647,0,0,1,1,2,2,4,4,5,5,6,6,7,7,8,8,9,9,10,10,12,12,14,14,16,16,17,17,18,18,20,20,21,21,22,22,26,26,28,28,30,30,32,32,33,33,34,34,35,35,36,36],"right_children":[2,4,6,-1,8,10,12,14,16,18,20,-1,22,-1,24,-1,26,28,30,-1,32,34,36,-1,-1,-1,38,-1,40,-1,42,-1,44,46,48,50,52,-1,-1,-1,-1,-1,-1,-1,-1,-1,-1,-1,-1,-1,-1,-1,-1],"split_conditions":[4.472136E-1,3.1622776E-1,3.2444283E-1,-1.9839937E-2,3.7796447E-1,1.2126781E-1,6.3246554E-1,3.5355338E-1,7.5593895E-1,2.085144E-1,1.490712E-1,4.04977E-2,2.6726124E-1,1.0120048E-2,3.5355338E-1,-1.5224504E-2,3.1622776E-1,2.4253562E-1,4.7140452E-1,3.4804628E-3,2.581989E-1,3.3333334E-1,2.773501E-1,-1.3475649E-2,4.6151728E-4,-1.4879952E-2,2.581989E-1,3.0467233E-2,2.236068E-1,-5.838275E-4,2.581989E-1,2.5987595E-3,2.4253562E-1,2.8867513E-1,4.472136E-1,3.3333334E-1,3.1622776E-1,-1.5853957E-3,2.6349276E-2,3.3441465E-2,4.9931873E-3,7.598759E-3,2.7878463E-2,-2.3091466E-3,-1.521295E-2,1.9516135E-2,5.3386013E-3,5.804087E-3,-1.0052869E-3,2.907592E-2,7.971047E-3,-1.0270259E-2,2.7462412E-2],"split_indices":[2987,71,526,0,59541,2130,780,24,1087,11307,1211,0,306,0,375,0,398,16388,4440,0,1261,1028,8120,0,0,0,375,0,32861,0,522,0,376,8479,47503,115066,92,0,0,0,0,0,0,0,0,0,0,0,0,0,0,0,0],"split_type":[0,0,0,0,0,0,0,0,0,0,0,0,0,0,0,0,0,0,0,0,0,0,0,0,0,0,0,0,0,0,0,0,0,0,0,0,0,0,0,0,0,0,0,0,0,0,0,0,0,0,0,0,0],"sum_hessian":[5.932E3,3.4E1,5.898E3,2E0,3.2E1,2.03E2,5.695E3,4E0,2.8E1,1.94E2,9E0,4E0,5.691E3,1E0,3E0,1E0,2.7E1,1.85E2,9E0,1E0,8E0,5.545E3,1.46E2,2E0,1E0,1E0,2.6E1,3E0,1.82E2,1E0,8E0,1E0,7E0,1.43E2,5.402E3,1.21E2,2.5E1,1E0,2.5E1,2E0,1.8E2,1E0,7E0,1E0,6E0,1.2E1,1.31E2,1.72E2,5.23E3,7E0,1.14E2,2.3E1,2E0],"tree_param":{"num_deleted":"0","num_feature":"128104","num_nodes":"53","size_leaf_vector":"1"}},{"base_weights":[7.069275E-4,8.735406E-2,-1.0663267E-3,-1.8804953E-2,9.3615554E-2,2.1872056E-1,-1.7804705E-3,-2.1188077E-2,1.0803113E-1,2.4734913E-1,-1.4829688E-2,6.9614194E-2,-3.7243203E-3,1.1248654E-1,-8.590658E-2,-1.0925791E-1,1.1549314E-1,2.7934575E-1,-1.4829688E-2,7.839259E-2,-1.6144791E-1,-4.7462103E-3,1.2461698E-1,-3.9863945E-3,1.6054016E-2,4.517406E-3,-1.0549043E-1,-1.3976792E-2,-8.863941E-4,3.5350624E-2,1.0719781E-1,3.4995627E-2,1.949228E-1,3.98376E-2,7.1376756E-2,1.0720193E-3,-1.9802557E-2,-7.584707E-3,4.253846E-2,-6.2009897E-2,1.7299621E-1,-4.825935E-4,-1.1747025E-2,7.628155E-3,1.7355075E-2,5.1703127E-3,2.050913E-2,5.4877787E-3,1.9528776E-2,8.49278E-3,-9.0825104E-4,3.7924105E-3,2.1775795E-2,-2.0281276E-2,6.56608E-3,-5.1653455E-3,2.026916E-2],"categories":[],"categories_nodes":[],"categories_segments":[],"categories_sizes":[],"default_left":[0,0,0,0,0,1,0,0,0,1,0,1,1,0,0,0,0,1,0,0,0,1,0,0,0,0,0,0,0,0,0,0,0,0,1,0,0,0,1,1,0,0,0,0,0,0,0,0,0,0,0,0,0,0,0,0,0],"id":12,"left_children":[1,3,5,-1,7,9,11,13,15,17,-1,19,21,23,25,27,29,31,-1,33,35,37,39,-1,-1,-1,41,-1,-1,-1,43,-1,45,-1,47,-1,-1,49,51,53,55,-1,-1,-1,-1,-1,-1,-1,-1,-1,-1,-1,-1,-1,-1,-1,-1],"loss_changes":[9.1936547E-1,2.2453701E-1,9.2079955E-1,0E0,1.9757426E-1,2.3631752E-1,8.115701E-1,1.3078043E-1,1.8286705E-1,2.6929438E-1,0E0,3.270511E-1,7.471012E-1,4.3004714E-2,3.0436069E-2,1.10131875E-2,1.6349316E-1,3.3125043E-2,0E0,3.0830753E-1,3.9907917E-2,7.583824E-1,4.1702634E-1,0E0,0E0,0E0,1.02865845E-2,0E0,0E0,0E0,1.918999E-1,0E0,3.959447E-3,0E0,2.918548E-1,0E0,0E0,7.39187E-1,2.5046992E-1,1.9308084E-1,2.5062764E-1,0E0,0E0,0E0,0E0,0E0,0E0,0E0,0E0,0E0,0E0,0E0,0E0,0E0,0E0,0E0,0E0],"parents":[2147483647,0,0,1,1,2,2,4,4,5,5,6,6,7,7,8,8,9,9,11,11,12,12,13,13,14,14,15,15,16,16,17,17,19,19,20,20,21,21,22,22,26,26,30,30,32,32,34,34,37,37,38,38,39,39,40,40],"right_children":[2,4,6,-1,8,10,12,14,16,18,-1,20,22,24,26,28,30,32,-1,34,36,38,40,-1,-1,-1,42,-1,-1,-1,44,-1,46,-1,48,-1,-1,50,52,54,56,-1,-1,-1,-1,-1,-1,-1,-1,-1,-1,-1,-1,-1,-1,-1,-1],"split_conditions":[4.5226702E-1,2.7472112E-1,3.7796447E-1,-1.8804953E-2,3.3333334E-1,2.773501E-1,5.7735026E-1,3.2444283E-1,3.3333334E-1,3.0151135E-1,-1.4829688E-2,2.8867513E-1,2.6726124E-1,3.0151135E-1,2.8005603E-1,2.8867513E-1,1.6439898E-1,2.3570226E-1,-1.4829688E-2,6.3246554E-1,3.1622776E-1,1.118034E-1,3.3333334E-1,-3.9863945E-3,1.6054016E-2,4.517406E-3,2.4253562E-1,-1.3976792E-2,-8.863941E-4,3.5350624E-2,2.8867513E-1,3.4995627E-2,2.5E-1,3.98376E-2,3.0151135E-1,1.0720193E-3,-1.9802557E-2,3.1622776E-1,2.5E-1,3.1622776E-1,3.0151135E-1,-4.825935E-4,-1.1747025E-2,7.628155E-3,1.7355075E-2,5.1703127E-3,2.050913E-2,5.4877787E-3,1.9528776E-2,8.49278E-3,-9.0825104E-4,3.7924105E-3,2.1775795E-2,-2.0281276E-2,6.56608E-3,-5.1653455E-3,2.026916E-2],"split_indices":[949,9631,6,0,5323,46,45841,526,5704,1056,0,10228,15939,949,520,24,1406,24,0,384,1040,67398,375,0,0,0,1357,0,0,0,949,0,6,0,39,0,0,41918,9581,6731,1943,0,0,0,0,0,0,0,0,0,0,0,0,0,0,0,0],"split_type":[0,0,0,0,0,0,0,0,0,0,0,0,0,0,0,0,0,0,0,0,0,0,0,0,0,0,0,0,0,0,0,0,0,0,0,0,0,0,0,0,0,0,0,0,0,0,0,0,0,0,0,0,0,0,0,0,0],"sum_hessian":[5.982E3,1.19E2,5.863E3,2E0,1.17E2,1.8E1,5.845E3,1.3E1,1.04E2,1.7E1,1E0,1.54E2,5.691E3,4E0,9E0,3E0,1.01E2,1.6E1,1E0,1.49E2,5E0,5.647E3,4.4E1,1E0,3E0,1E0,8E0,2E0,1E0,2E0,9.9E1,7E0,9E0,2E0,1.47E2,1E0,4E0,5.328E3,3.19E2,9E0,3.5E1,1E0,7E0,6.9E1,3E1,1E0,8E0,1.31E2,1.6E1,8.4E1,5.244E3,3.12E2,7E0,4E0,5E0,4E0,3.1E1],"tree_param":{"num_deleted":"0","num_feature":"128104","num_nodes":"57","size_leaf_vector":"1"}},{"base_weights":[-3.6093223E-4,7.825437E-3,-1.77862E-2,-5.4062635E-2,1.1357114E-2,4.4113733E-2,-2.3887808E-2,-6.664089E-2,6.8304725E-2,1.3313531E-2,-9.773631E-2,3.2157753E-2,3.3880822E-2,9.8470524E-2,-2.6600845E-2,-7.401213E-2,1.8403117E-1,-1.6095815E-2,1.0090914E-1,-1.0904445E-1,1.5113203E-2,-1.16663575E-1,5.8801137E-2,4.0785152E-2,-2.5766686E-2,1.3679156E-1,-1.8180661E-1,2.6271043E-2,-2.7606295E-2,-7.968513E-2,1.5749884E-1,2.2440052E-2,6.886164E-3,-1.2071861E-2,1.1992838E-1,1.5875554E-2,-1.2214549E-1,1.9257445E-2,-4.0532403E-2,1.0037229E-2,-1.2572195E-1,-1.3297078E-2,1.0519295E-1,5.0845586E-2,-1.6174906E-1,-1.8672537E-2,1.6284654E-1,-4.0044016E-3,-2.0723626E-2,-2.8394867E-2,3.138462E-2,1.4031678E-2,-8.394217E-3,4.027614E-3,1.767355E-2,-1.2071861E-2,1.4118518E-2,1.05435215E-2,-1.3313758E-2,2.0179907E-3,-1.9480737E-2,1.888869E-2,-4.671977E-3,-1.3541601E-2,1.0037229E-2,4.470563E-3,1.2044676E-2,-1.8272687E-2,5.973104E-3,1.9824535E-3,-1.9052023E-2,-1.7941562E-2,1.9164454E-2,2.1118294E-2,-2.951216E-3],"categories":[],"categories_nodes":[],"categories_segments":[],"categories_sizes":[],"default_left":[0,0,0,1,1,0,0,1,0,0,1,0,1,1,0,1,0,0,0,0,1,0,0,1,0,0,0,0,1,0,0,0,0,0,0,0,0,1,0,0,1,0,0,0,0,0,0,0,0,0,0,0,0,0,0,0,0,0,0,0,0,0,0,0,0,0,0,0,0,0,0,0,0,0,0],"id":13,"left_children":[1,3,5,7,9,11,13,15,17,19,21,-1,23,25,27,29,31,-1,33,35,37,39,41,43,-1,45,47,-1,49,51,53,-1,-1,-1,55,-1,57,59,61,-1,63,-1,65,67,69,-1,71,-1,-1,73,-1,-1,-1,-1,-1,-1,-1,-1,-1,-1,-1,-1,-1,-1,-1,-1,-1,-1,-1,-1,-1,-1,-1,-1,-1],"loss_changes":[8.5375476E-1,8.9062554E-1,7.235731E-1,3.4316897E-1,8.236557E-1,4.7745788E-1,5.8089834E-1,3.831733E-1,1.7321675E-1,8.3534104E-1,2.0833206E-1,0E0,3.4667015E-1,4.3300903E-1,5.03217E-1,2.6865578E-1,1.2443349E-2,0E0,9.456624E-2,2.1235657E-1,8.6141294E-1,1.3254452E-1,8.516076E-2,3.4238774E-1,0E0,3.1700122E-1,9.726286E-3,0E0,4.666524E-1,1.906606E-1,4.1566417E-3,0E0,0E0,0E0,1.0912058E-1,0E0,1.4662153E-1,6.899295E-1,3.764753E-1,0E0,1.4290643E-1,0E0,1.0739788E-3,3.3675182E-1,4.556966E-2,0E0,3.49791E-1,0E0,0E0,4.604838E-1,0E0,0E0,0E0,0E0,0E0,0E0,0E0,0E0,0E0,0E0,0E0,0E0,0E0,0E0,0E0,0E0,0E0,0E0,0E0,0E0,0E0,0E0,0E0,0E0,0E0],"parents":[2147483647,0,0,1,1,2,2,3,3,4,4,5,5,6,6,7,7,8,8,9,9,10,10,12,12,13,13,14,14,15,15,16,16,18,18,19,19,20,20,21,21,22,22,23,23,25,25,26,26,28,28,29,29,30,30,34,34,36,36,37,37,38,38,40,40,42,42,43,43,44,44,46,46,49,49],"right_children":[2,4,6,8,10,12,14,16,18,20,22,-1,24,26,28,30,32,-1,34,36,38,40,42,44,-1,46,48,-1,50,52,54,-1,-1,-1,56,-1,58,60,62,-1,64,-1,66,68,70,-1,72,-1,-1,74,-1,-1,-1,-1,-1,-1,-1,-1,-1,-1,-1,-1,-1,-1,-1,-1,-1,-1,-1,-1,-1,-1,-1,-1,-1],"split_conditions":[3.5355338E-1,3.3333334E-1,4.082483E-1,2.3570226E-1,2.2941573E-1,3.7796447E-1,2.8867513E-1,2.5E-1,5.345325E-1,3.1622776E-1,3.1622776E-1,3.2157753E-2,2.8867513E-1,2.581989E-1,6.3246554E-1,2.6726124E-1,2.581989E-1,-1.6095815E-2,3.3333334E-1,2.3570226E-1,2.6726124E-1,3.3333334E-1,6.666767E-1,2.6726124E-1,-2.5766686E-2,2.6726124E-1,2.773501E-1,2.6271043E-2,5.163978E-1,3.3333334E-1,3.3333334E-1,2.2440052E-2,6.886164E-3,-1.2071861E-2,2.581989E-1,1.5875554E-2,3.0151135E-1,2.1320072E-1,3.0151135E-1,1.0037229E-2,2.773501E-1,-1.3297078E-2,3.3333334E-1,3.0151135E-1,2.773501E-1,-1.8672537E-2,2.6726124E-1,-4.0044016E-3,-2.0723626E-2,4.082483E-1,3.138462E-2,1.4031678E-2,-8.394217E-3,4.027614E-3,1.767355E-2,-1.2071861E-2,1.4118518E-2,1.05435215E-2,-1.3313758E-2,2.0179907E-3,-1.9480737E-2,1.888869E-2,-4.671977E-3,-1.3541601E-2,1.0037229E-2,4.470563E-3,1.2044676E-2,-1.8272687E-2,5.973104E-3,1.9824535E-3,-1.9052023E-2,-1.7941562E-2,1.9164454E-2,2.1118294E-2,-2.951216E-3],"split_indices":[24,86932,375,566,15796,6,40260,106,41380,431,1968,0,20824,22524,14683,129,24,0,106,566,545,2233,916,12533,0,11635,11635,0,242,560,21,0,0,0,121,0,83395,14707,10966,0,23811,0,69611,15939,204,0,545,0,0,59541,0,0,0,0,0,0,0,0,0,0,0,0,0,0,0,0,0,0,0,0,0,0,0,0,0],"split_type":[0,0,0,0,0,0,0,0,0,0,0,0,0,0,0,0,0,0,0,0,0,0,0,0,0,0,0,0,0,0,0,0,0,0,0,0,0,0,0,0,0,0,0,0,0,0,0,0,0,0,0,0,0,0,0,0,0,0,0,0,0,0,0,0,0,0,0,0,0,0,0,0,0,0,0],"sum_hessian":[5.983E3,4.071E3,1.912E3,2.19E2,3.852E3,1.71E2,1.741E3,1.99E2,2E1,3.785E3,6.7E1,5E0,1.66E2,3.7E1,1.704E3,1.94E2,5E0,2E0,1.8E1,5.4E1,3.731E3,6E1,7E0,1.63E2,3E0,3.3E1,4E0,5E0,1.699E3,1.9E2,4E0,3E0,2E0,1E0,1.7E1,2E0,5.2E1,3.473E3,2.58E2,2E0,5.8E1,1E0,6E0,1.56E2,7E0,2E0,3.1E1,1E0,3E0,1.696E3,3E0,3E0,1.87E2,1E0,3E0,1E0,1.6E1,2E0,5E1,3.459E3,1.4E1,6E0,2.52E2,5.6E1,2E0,2E0,4E0,5E0,1.51E2,1E0,6E0,2E0,2.9E1,7E0,1.689E3],"tree_param":{"num_deleted":"0","num_feature":"128104","num_nodes":"75","size_leaf_vector":"1"}},{"base_weights":[9.411522E-4,2.2889083E-4,2.040265E-1,9.571873E-3,-1.4437003E-2,-1.4885175E-2,2.2911301E-1,3.6745563E-2,9.079672E-3,-1.5180941E-2,3.3467922E-1,-1.4885175E-2,2.568402E-1,3.6509877E-1,8.589622E-3,1.8476802E-1,-1.6297206E-2,8.812221E-3,3.7428793E-2,2.738671E-1,-2.4822026E-3,4.169379E-2,7.887112E-3,7.974951E-3,2.8749868E-1,2.5458992E-1,-1.3283499E-2,2.0568137E-1,-1.7252753E-2,6.754741E-4,2.8918225E-1,5.389742E-4,7.3124357E-3,6.510866E-3,3.0996745E-2,2.5900593E-3,3.0253192E-2,2.5948508E-2,-1.3927591E-2,2.458032E-2,-1.8045856E-3,6.754741E-4,3.0641181E-2],"categories":[],"categories_nodes":[],"categories_segments":[],"categories_sizes":[],"default_left":[1,0,0,0,1,0,0,0,0,0,0,0,1,0,1,0,0,0,0,0,0,0,0,1,0,0,0,1,0,0,0,0,0,0,0,0,0,0,0,0,0,0,0],"id":14,"left_children":[1,3,5,7,9,-1,11,-1,13,15,17,-1,19,21,23,25,27,-1,-1,29,-1,-1,-1,31,33,35,-1,37,39,-1,41,-1,-1,-1,-1,-1,-1,-1,-1,-1,-1,-1,-1],"loss_changes":[8.6915433E-1,8.2076997E-1,2.2000599E-1,6.411978E-1,6.104901E-1,0E0,2.4782896E-1,0E0,6.3454235E-1,5.223888E-1,1.5845954E-2,0E0,9.791875E-2,4.130453E-2,6.2362516E-1,3.2210195E-1,4.9458486E-1,0E0,0E0,7.1682334E-2,0E0,0E0,0E0,6.13346E-1,1.9793093E-2,1.12766325E-1,0E0,2.2173977E-1,4.8553813E-1,0E0,8.065379E-2,0E0,0E0,0E0,0E0,0E0,0E0,0E0,0E0,0E0,0E0,0E0,0E0],"parents":[2147483647,0,0,1,1,2,2,3,3,4,4,6,6,8,8,9,9,10,10,12,12,13,13,14,14,15,15,16,16,19,19,23,23,24,24,25,25,27,27,28,28,30,30],"right_children":[2,4,6,8,10,-1,12,-1,14,16,18,-1,20,22,24,26,28,-1,-1,30,-1,-1,-1,32,34,36,-1,38,40,-1,42,-1,-1,-1,-1,-1,-1,-1,-1,-1,-1,-1,-1],"split_conditions":[2.5E-1,3.3333334E-1,3.1622776E-1,6.3246554E-1,3.1622776E-1,-1.4885175E-2,6.666767E-1,3.6745563E-2,3.1622776E-1,2.581989E-1,3.3333334E-1,-1.4885175E-2,3.1622776E-1,1.1094104E0,2.581989E-1,2.5400025E-1,7.5593895E-1,8.812221E-3,3.7428793E-2,7.071168E-1,-2.4822026E-3,4.169379E-2,7.887112E-3,9.325048E-2,3.1622776E-1,2.581989E-1,-1.3283499E-2,3.7796447E-1,3.5355338E-1,6.754741E-4,7.071168E-1,5.389742E-4,7.3124357E-3,6.510866E-3,3.0996745E-2,2.5900593E-3,3.0253192E-2,2.5948508E-2,-1.3927591E-2,2.458032E-2,-1.8045856E-3,6.754741E-4,3.0641181E-2],"split_indices":[58551,24,51,780,96222,0,18125,0,69443,40260,129,0,180,39,19896,22,66624,0,0,918,0,0,0,75136,9007,6486,0,24,214,0,1069,0,0,0,0,0,0,0,0,0,0,0,0],"split_type":[0,0,0,0,0,0,0,0,0,0,0,0,0,0,0,0,0,0,0,0,0,0,0,0,0,0,0,0,0,0,0,0,0,0,0,0,0,0,0,0,0,0,0],"sum_hessian":[6.008E3,5.988E3,2E1,3.658E3,2.33E3,1E0,1.9E1,4E0,3.654E3,2.326E3,4E0,1E0,1.8E1,4E0,3.65E3,1.2E1,2.314E3,1E0,3E0,1.7E1,1E0,3E0,1E0,3.643E3,7E0,1E1,2E0,9E0,2.305E3,1E0,1.6E1,3.505E3,1.38E2,1E0,6E0,2E0,8E0,8E0,1E0,6E0,2.299E3,1E0,1.5E1],"tree_param":{"num_deleted":"0","num_feature":"128104","num_nodes":"43","size_leaf_vector":"1"}},{"base_weights":[-1.2228766E-3,1.0864897E-1,-2.4185528E-3,6.315741E-2,2.2139643E-1,1.4770964E-1,-3.2653057E-3,2.8722165E-2,3.563465E-2,4.2215552E-2,1.6991684E-1,-7.998455E-2,1.912259E-1,-1.4189112E-3,-6.606739E-2,1.8356597E-2,2.5988985E-2,-1.3185978E-3,1.8300276E-1,9.648788E-3,-1.3457662E-1,-1.4218392E-2,2.0884049E-1,-2.1226378E-3,1.5175033E-1,1.673366E-1,-7.28217E-2,9.6457675E-3,1.833949E-2,2.7772621E-3,1.9210686E-1,2.754286E-4,-1.6959792E-1,-1.3970392E-2,2.2761928E-1,3.8566757E-2,-2.3966099E-3,-2.1006456E-2,1.9065426E-1,2.6893318E-3,1.957241E-2,2.8377688E-2,-7.6774634E-2,-9.098008E-3,2.0263542E-3,3.690955E-3,2.012059E-2,-4.7392636E-3,-1.9453546E-2,-1.9991042E-3,2.3832332E-2,1.7392006E-2,-2.990581E-4,3.6038533E-2,8.326463E-3,2.532863E-2,-8.039791E-3],"categories":[],"categories_nodes":[],"categories_segments":[],"categories_sizes":[],"default_left":[0,0,0,0,0,0,1,0,1,0,0,0,0,1,0,1,0,0,0,0,0,0,0,0,0,0,0,0,0,0,0,0,0,0,0,0,0,0,0,0,0,0,0,0,0,0,0,0,0,0,0,0,0,0,0,0,0],"id":15,"left_children":[1,3,5,7,9,11,13,-1,15,-1,17,19,21,23,25,27,-1,-1,29,-1,31,-1,33,35,37,39,41,43,-1,-1,45,-1,47,-1,49,-1,51,-1,53,-1,-1,-1,55,-1,-1,-1,-1,-1,-1,-1,-1,-1,-1,-1,-1,-1,-1],"loss_changes":[7.8100145E-1,3.1427693E-1,7.479567E-1,2.7960768E-1,1.1429864E-1,3.422724E-1,6.7802525E-1,0E0,1.6184112E-1,0E0,4.0750146E-2,7.078898E-2,1.9413424E-1,6.1278075E-1,2.754584E-1,5.7173453E-2,0E0,0E0,1.586318E-2,0E0,2.4514645E-2,0E0,2.0852077E-1,6.019449E-1,4.0602624E-1,1.4670491E-2,2.5155354E-1,4.4580486E-2,0E0,0E0,1.2343705E-2,0E0,2.9704496E-3,0E0,7.367563E-2,0E0,5.926463E-1,0E0,4.074492E-1,0E0,0E0,0E0,2.1409976E-1,0E0,0E0,0E0,0E0,0E0,0E0,0E0,0E0,0E0,0E0,0E0,0E0,0E0,0E0],"parents":[2147483647,0,0,1,1,2,2,3,3,4,4,5,5,6,6,8,8,10,10,11,11,12,12,13,13,14,14,15,15,18,18,20,20,22,22,23,23,24,24,25,25,26,26,27,27,30,30,32,32,34,34,36,36,38,38,42,42],"right_children":[2,4,6,8,10,12,14,-1,16,-1,18,20,22,24,26,28,-1,-1,30,-1,32,-1,34,36,38,40,42,44,-1,-1,46,-1,48,-1,50,-1,52,-1,54,-1,-1,-1,56,-1,-1,-1,-1,-1,-1,-1,-1,-1,-1,-1,-1,-1,-1],"split_conditions":[2.8867513E-1,2.581989E-1,4.472136E-1,1.5811388E-1,2.8867513E-1,3.7796447E-1,2.4253562E-1,2.8722165E-2,1.0599979E-1,4.2215552E-2,2.6726124E-1,3.5355338E-1,3.1622776E-1,2.8867513E-1,2.8867513E-1,2.5E-1,2.5988985E-2,-1.3185978E-3,3.0151135E-1,9.648788E-3,7.071168E-1,-1.4218392E-2,2.6726124E-1,3.1622776E-1,6.030327E-1,2.581989E-1,3.5355338E-1,8.728816E-1,1.833949E-2,2.7772621E-3,3.0151135E-1,2.754286E-4,3.5355338E-1,-1.3970392E-2,7.5593895E-1,3.8566757E-2,3.7796447E-1,-2.1006456E-2,3.1622776E-1,2.6893318E-3,1.957241E-2,2.8377688E-2,7.071168E-1,-9.098008E-3,2.0263542E-3,3.690955E-3,2.012059E-2,-4.7392636E-3,-1.9453546E-2,-1.9991042E-3,2.3832332E-2,1.7392006E-2,-2.990581E-4,3.6038533E-2,8.326463E-3,2.532863E-2,-8.039791E-3],"split_indices":[522,522,2987,1406,9581,59541,149,0,9694,0,1458,150,1780,3090,1197,4467,0,0,10466,0,471,0,40,69443,110281,44,410,12006,0,0,1357,0,39,0,8935,0,6,0,3090,0,0,0,2534,0,0,0,0,0,0,0,0,0,0,0,0,0,0],"split_type":[0,0,0,0,0,0,0,0,0,0,0,0,0,0,0,0,0,0,0,0,0,0,0,0,0,0,0,0,0,0,0,0,0,0,0,0,0,0,0,0,0,0,0,0,0,0,0,0,0,0,0,0,0,0,0,0,0],"sum_hessian":[5.942E3,6.3E1,5.879E3,4.6E1,1.7E1,3.2E1,5.847E3,4E0,4.2E1,2E0,1.5E1,5E0,2.7E1,5.681E3,1.66E2,4E1,2E0,1E0,1.4E1,1E0,4E0,1E0,2.6E1,5.656E3,2.5E1,4E0,1.62E2,3.9E1,1E0,1E0,1.3E1,1E0,3E0,1E0,2.5E1,3E0,5.653E3,2E0,2.3E1,1E0,3E0,1E0,1.61E2,3E0,3.6E1,1E0,1.2E1,1E0,2E0,1E0,2.4E1,1.8E1,5.635E3,8E0,1.5E1,1E0,1.6E2],"tree_param":{"num_deleted":"0","num_feature":"128104","num_nodes":"57","size_leaf_vector":"1"}},{"base_weights":[9.1965403E-4,4.9501634E-4,3.6173034E-2,5.915576E-2,-1.5239863E-3,9.267333E-2,-7.7617737E-3,-1.8147946E-3,4.1689392E-2,1.00615956E-1,-1.2919259E-2,1.8972805E-2,-1.998361E-2,2.2191563E-1,-2.3604475E-3,9.219096E-2,3.3874303E-2,1.7840056E-2,-2.9260527E-2,-1.980161E-2,2.694501E-1,-4.2451844E-3,6.171201E-2,3.073491E-2,8.253822E-3,-3.9155907E-3,1.7840056E-2,3.6095213E-2,1.671423E-2,-4.8667262E-4,1.992121E-2,-1.816168E-2,6.8930336E-3],"categories":[],"categories_nodes":[],"categories_segments":[],"categories_sizes":[],"default_left":[1,0,0,1,1,1,0,0,0,1,0,0,0,0,1,0,0,0,1,0,0,1,0,0,0,0,0,0,0,0,0,0,0],"id":16,"left_children":[1,3,-1,5,7,9,11,13,-1,15,-1,-1,17,19,21,23,-1,-1,25,-1,27,29,31,-1,-1,-1,-1,-1,-1,-1,-1,-1,-1],"loss_changes":[9.123624E-1,7.0478547E-1,0E0,4.448161E-1,7.0077825E-1,2.4560905E-1,1.6550857E-1,7.0247906E-1,0E0,2.255671E-1,0E0,0E0,1.2300528E-1,3.3281255E-1,6.930605E-1,2.3424006E-1,0E0,0E0,1.343883E-1,0E0,6.1367452E-2,7.058417E-1,3.005728E-1,0E0,0E0,0E0,0E0,0E0,0E0,0E0,0E0,0E0,0E0],"parents":[2147483647,0,0,1,1,3,3,4,4,5,5,6,6,7,7,9,9,12,12,13,13,14,14,15,15,18,18,20,20,21,21,22,22],"right_children":[2,4,-1,6,8,10,12,14,-1,16,-1,-1,18,20,22,24,-1,-1,26,-1,28,30,32,-1,-1,-1,-1,-1,-1,-1,-1,-1,-1],"split_conditions":[3.0151135E-1,7.071168E-1,3.6173034E-2,1.8257418E-1,3.0151135E-1,2.3570226E-1,2.773501E-1,4.472136E-1,4.1689392E-2,2.1320072E-1,-1.2919259E-2,1.8972805E-2,2.5E-1,3.0151135E-1,2.236068E-1,1.7677669E-1,3.3874303E-2,1.7840056E-2,2.4253562E-1,-1.980161E-2,3.7796447E-1,3.1622776E-1,2.581989E-1,3.073491E-2,8.253822E-3,-3.9155907E-3,1.7840056E-2,3.6095213E-2,1.671423E-2,-4.8667262E-4,1.992121E-2,-1.816168E-2,6.8930336E-3],"split_indices":[696,5411,0,1028,77944,4044,2993,8702,0,2097,0,0,6824,315,1779,1903,0,0,12094,0,47503,58551,450,0,0,0,0,0,0,0,0,0,0],"split_type":[0,0,0,0,0,0,0,0,0,0,0,0,0,0,0,0,0,0,0,0,0,0,0,0,0,0,0,0,0,0,0,0,0],"sum_hessian":[5.955E3,5.949E3,6E0,1.97E2,5.752E3,1.31E2,6.6E1,5.749E3,3E0,1.27E2,4E0,3E0,6.3E1,1.3E1,5.736E3,1.24E2,3E0,2E0,6.1E1,1E0,1.2E1,5.573E3,1.63E2,4E0,1.2E2,5.9E1,2E0,5E0,7E0,5.557E3,1.6E1,4E0,1.59E2],"tree_param":{"num_deleted":"0","num_feature":"128104","num_nodes":"33","size_leaf_vector":"1"}},{"base_weights":[9.557002E-4,3.0936176E-1,5.3778547E-4,3.474122E-2,2.1504313E-3,1.2994291E-3,-1.5939938E-1,5.3763454E-4,1.5495324E-1,1.7198482E-1,-2.0604488E-1,-4.38594E-4,1.21100806E-1,-1.1657583E-1,1.7938413E-1,2.0854207E-2,3.1156556E-3,1.0815518E-2,-2.2364302E-1,-2.5417905E-3,5.506008E-2,-1.5342888E-2,1.3040425E-1,-1.0098622E-3,-1.6476512E-2,-7.316399E-2,2.1400115E-1,3.1221004E-3,-2.360815E-1,1.293654E-2,-3.4433437E-4,4.7754617E-3,2.6218385E-2,1.3991228E-2,-1.4872837E-2,1.8260304E-2,-2.1928735E-2,-1.5426504E-2,2.367199E-2,3.1156556E-3,-2.4964489E-2],"categories":[],"categories_nodes":[],"categories_segments":[],"categories_sizes":[],"default_left":[0,1,1,0,0,1,0,1,0,0,0,1,0,0,0,0,0,0,0,0,1,0,1,0,0,0,0,0,0,0,0,0,0,0,0,0,0,0,0,0,0],"id":17,"left_children":[1,3,5,-1,-1,7,9,11,13,15,17,19,21,23,25,-1,-1,-1,27,29,31,-1,33,-1,-1,35,37,-1,39,-1,-1,-1,-1,-1,-1,-1,-1,-1,-1,-1,-1],"loss_changes":[7.6194495E-1,8.0154E-2,7.196473E-1,0E0,0E0,6.8806916E-1,4.6824878E-1,6.886995E-1,2.1328902E-1,1.4095716E-2,1.6242158E-1,6.777264E-1,1.4004928E-1,1.3729282E-2,2.5170362E-1,0E0,0E0,0E0,8.3453655E-2,6.656915E-1,3.0826432E-1,0E0,1.4289278E-1,0E0,0E0,1.8953668E-1,2.3731482E-1,0E0,9.114504E-2,0E0,0E0,0E0,0E0,0E0,0E0,0E0,0E0,0E0,0E0,0E0,0E0],"parents":[2147483647,0,0,1,1,2,2,5,5,6,6,7,7,8,8,9,9,10,10,11,11,12,12,13,13,14,14,18,18,19,19,20,20,22,22,25,25,26,26,28,28],"right_children":[2,4,6,-1,-1,8,10,12,14,16,18,20,22,24,26,-1,-1,-1,28,30,32,-1,34,-1,-1,36,38,-1,40,-1,-1,-1,-1,-1,-1,-1,-1,-1,-1,-1,-1],"split_conditions":[3.7796447E-1,2.773501E-1,2.1320072E-1,3.474122E-2,2.1504313E-3,2.773501E-1,3.3333334E-1,2E-1,7.5593895E-1,3.1622776E-1,2.8867513E-1,1.118034E-1,2.3570226E-1,3.7796447E-1,3.7796447E-1,2.0854207E-2,3.1156556E-3,1.0815518E-2,3.0151135E-1,8.528129E-1,1.3608277E-1,-1.5342888E-2,3.1622776E-1,-1.0098622E-3,-1.6476512E-2,3.1622776E-1,5E-1,3.1221004E-3,3.3333334E-1,1.293654E-2,-3.4433437E-4,4.7754617E-3,2.6218385E-2,1.3991228E-2,-1.4872837E-2,1.8260304E-2,-2.1928735E-2,-1.5426504E-2,2.367199E-2,3.1156556E-3,-2.4964489E-2],"split_indices":[16930,306,32444,0,0,5266,9458,419,102107,24,49,1029,213,24,15939,0,0,0,141,1040,9362,0,810,0,0,39,2662,0,75,0,0,0,0,0,0,0,0,0,0,0,0],"split_type":[0,0,0,0,0,0,0,0,0,0,0,0,0,0,0,0,0,0,0,0,0,0,0,0,0,0,0,0,0,0,0,0,0,0,0,0,0,0,0,0,0],"sum_hessian":[5.912E3,7E0,5.905E3,6E0,1E0,5.878E3,2.7E1,5.85E3,2.8E1,3E0,2.4E1,5.804E3,4.6E1,2E0,2.6E1,2E0,1E0,1E0,2.3E1,5.593E3,2.11E2,1E0,4.5E1,1E0,1E0,3E0,2.3E1,1E0,2.2E1,3.7E1,5.556E3,2.05E2,6E0,4.4E1,1E0,1E0,2E0,1E0,2.2E1,1E0,2.1E1],"tree_param":{"num_deleted":"0","num_feature":"128104","num_nodes":"41","size_leaf_vector":"1"}},{"base_weights":[1.7159639E-3,1.4238246E-1,8.672942E-4,-1.0017956E-1,1.5959728E-1,7.319806E-2,-7.04993E-4,-1.5330142E-2,3.0320734E-4,-1.41957E-2,1.7303701E-1,8.564335E-2,-2.4759566E-2,-1.3400555E-3,1.8426044E-1,-1.4129966E-2,1.8727565E-1,-2.2418419E-2,9.261723E-2,3.1583628E-1,-1.6668673E-3,2.317421E-1,6.29742E-2,-1.3230321E-2,2.0185249E-1,1.03350945E-1,-1.3033752E-1,9.571107E-3,3.407191E-2,3.3896323E-2,-1.9594699E-3,-4.85562E-3,2.570386E-2,9.163323E-3,1.8571623E-3,-2.8192045E-3,2.1046039E-2,-2.220286E-2,1.1100697E-2,-1.601159E-2,9.27718E-4,6.1131646E-3,-3.5266747E-4],"categories":[],"categories_nodes":[],"categories_segments":[],"categories_sizes":[],"default_left":[0,0,0,0,0,1,1,0,0,0,0,0,0,0,1,0,0,0,1,0,0,0,0,0,0,0,0,0,0,0,0,0,0,0,0,0,0,0,0,0,0,0,0],"id":18,"left_children":[1,3,5,7,9,11,13,-1,-1,-1,15,17,-1,19,21,-1,23,-1,25,27,29,31,33,-1,35,37,39,-1,-1,-1,41,-1,-1,-1,-1,-1,-1,-1,-1,-1,-1,-1,-1],"loss_changes":[7.1663046E-1,1.6631216E-1,6.7887455E-1,1.6913205E-2,1.6235942E-1,5.28236E-1,6.865926E-1,0E0,0E0,0E0,1.7416084E-1,2.8652936E-1,0E0,6.042246E-1,1.0058373E-1,0E0,1.7577624E-1,0E0,3.0303967E-1,2.5343895E-4,5.806393E-1,1.11748695E-1,7.205965E-3,0E0,6.731939E-2,3.1361628E-1,2.6430428E-2,0E0,0E0,0E0,5.751836E-1,0E0,0E0,0E0,0E0,0E0,0E0,0E0,0E0,0E0,0E0,0E0,0E0],"parents":[2147483647,0,0,1,1,2,2,3,3,4,4,5,5,6,6,10,10,11,11,13,13,14,14,16,16,18,18,19,19,20,20,21,21,22,22,24,24,25,25,26,26,30,30],"right_children":[2,4,6,8,10,12,14,-1,-1,-1,16,18,-1,20,22,-1,24,-1,26,28,30,32,34,-1,36,38,40,-1,-1,-1,42,-1,-1,-1,-1,-1,-1,-1,-1,-1,-1,-1,-1],"split_conditions":[4.082483E-1,7.5593895E-1,3.5355338E-1,4.082483E-1,3.7796447E-1,3.0151135E-1,2.3570226E-1,-1.5330142E-2,3.0320734E-4,-1.41957E-2,3.1622776E-1,3.5355338E-1,-2.4759566E-2,2.8867513E-1,2.8867513E-1,-1.4129966E-2,2.773501E-1,-2.2418419E-2,2.8867513E-1,2.773501E-1,6.3246554E-1,2.773501E-1,2.581989E-1,-1.3230321E-2,2.581989E-1,6.3246554E-1,3.1622776E-1,9.571107E-3,3.407191E-2,3.3896323E-2,3.5355338E-1,-4.85562E-3,2.570386E-2,9.163323E-3,1.8571623E-3,-2.8192045E-3,2.1046039E-2,-2.220286E-2,1.1100697E-2,-1.601159E-2,9.27718E-4,6.1131646E-3,-3.5266747E-4],"split_indices":[2987,1087,45841,24,132,7390,460,0,0,0,95,670,0,20060,2309,0,71,0,10228,85,780,2145,460,0,151,2324,24,0,0,0,75136,0,0,0,0,0,0,0,0,0,0,0,0],"split_type":[0,0,0,0,0,0,0,0,0,0,0,0,0,0,0,0,0,0,0,0,0,0,0,0,0,0,0,0,0,0,0,0,0,0,0,0,0,0,0,0,0,0,0],"sum_hessian":[6.003E3,3.5E1,5.968E3,2E0,3.3E1,1.26E2,5.842E3,1E0,1E0,1E0,3.2E1,1.22E2,4E0,5.823E3,1.9E1,1E0,3.1E1,2E0,1.2E2,5E0,5.818E3,1.3E1,6E0,1E0,3E1,1.15E2,5E0,1E0,4E0,4E0,5.814E3,1E0,1.2E1,3E0,3E0,1E0,2.9E1,2E0,1.13E2,4E0,1E0,1.4E2,5.674E3],"tree_param":{"num_deleted":"0","num_feature":"128104","num_nodes":"43","size_leaf_vector":"1"}},{"base_weights":[1.2470909E-3,-6.875334E-4,8.211655E-2,-1.4118624E-3,1.6700765E-1,9.408707E-2,-1.9891118E-1,3.549706E-2,-1.7197477E-3,5.5028E-3,1.808123E-1,-1.806021E-1,1.0392829E-1,7.218233E-3,-2.6756635E-2,2.960091E-1,-2.0802084E-3,1.1045531E-3,-2.7913303E-4,2.0437793E-1,7.998E-2,1.5330032E-3,-2.3341766E-2,2.9129773E-1,8.75843E-2,2.0746917E-3,3.3842828E-2,-2.7288564E-3,1.6031325E-1,1.2000278E-3,2.1498837E-1,2.353251E-4,9.50347E-2,2.6565095E-2,3.5416025E-1,-2.3133775E-2,9.488835E-2,1.9174194E-2,-3.27046E-4,-9.544733E-3,1.8921651E-2,3.1095655E-3,2.245382E-2,1.6190127E-3,1.1069831E-2,-3.9495365E-3,7.934301E-3,7.4915932E-3,3.8335003E-2,-8.324573E-3,1.084768E-2],"categories":[],"categories_nodes":[],"categories_segments":[],"categories_sizes":[],"default_left":[1,1,1,0,0,0,0,0,0,0,1,0,0,0,0,0,1,0,0,0,0,0,0,0,0,0,0,0,0,0,0,0,0,0,0,0,0,0,0,0,0,0,0,0,0,0,0,0,0,0,0],"id":19,"left_children":[1,3,5,7,9,11,13,-1,15,17,19,21,23,-1,-1,25,27,-1,-1,29,31,-1,-1,33,35,-1,-1,37,39,-1,41,-1,43,45,47,-1,49,-1,-1,-1,-1,-1,-1,-1,-1,-1,-1,-1,-1,-1,-1],"loss_changes":[9.3078953E-1,7.060775E-1,4.8631775E-1,6.355884E-1,5.4742992E-2,3.8100874E-1,1.309854E-1,0E0,6.212448E-1,1.6874811E-4,3.830588E-2,5.5319607E-2,3.7259436E-1,0E0,0E0,7.471353E-2,6.0896474E-1,0E0,0E0,3.4161925E-2,6.7882426E-3,0E0,0E0,1.5700924E-1,3.0381137E-1,0E0,0E0,6.067785E-1,1.8808347E-1,0E0,2.287221E-2,0E0,4.3827333E-3,1.3593281E-2,3.6489606E-2,0E0,2.9707766E-1,0E0,0E0,0E0,0E0,0E0,0E0,0E0,0E0,0E0,0E0,0E0,0E0,0E0,0E0],"parents":[2147483647,0,0,1,1,2,2,3,3,4,4,5,5,6,6,8,8,9,9,10,10,11,11,12,12,15,15,16,16,19,19,20,20,23,23,24,24,27,27,28,28,30,30,32,32,33,33,34,34,36,36],"right_children":[2,4,6,8,10,12,14,-1,16,18,20,22,24,-1,-1,26,28,-1,-1,30,32,-1,-1,34,36,-1,-1,38,40,-1,42,-1,44,46,48,-1,50,-1,-1,-1,-1,-1,-1,-1,-1,-1,-1,-1,-1,-1,-1],"split_conditions":[2.6726124E-1,1.9611613E-1,3.3333334E-1,3.3333334E-1,2.182179E-1,3.1622776E-1,3.7796447E-1,3.549706E-2,2.0412415E-1,2E-1,4.170288E-1,3.0151135E-1,3.0151135E-1,7.218233E-3,-2.6756635E-2,2.3570226E-1,2.182179E-1,1.1045531E-3,-2.7913303E-4,3.3333334E-1,2E-1,1.5330032E-3,-2.3341766E-2,2.773501E-1,3.3333334E-1,2.0746917E-3,3.3842828E-2,3.1622776E-1,2.4253562E-1,1.2000278E-3,2.773501E-1,2.353251E-4,2.182179E-1,5.547002E-1,2.8867513E-1,-2.3133775E-2,7.5593895E-1,1.9174194E-2,-3.27046E-4,-9.544733E-3,1.8921651E-2,3.1095655E-3,2.245382E-2,1.6190127E-3,1.1069831E-2,-3.9495365E-3,7.934301E-3,7.4915932E-3,3.8335003E-2,-8.324573E-3,1.084768E-2],"split_indices":[306,515,25185,1087,1779,4323,15939,0,4892,24,2309,39,9394,0,0,150,665,0,0,460,24,0,0,10867,4004,0,0,15225,935,0,282,0,116,5,59,0,74529,0,0,0,0,0,0,0,0,0,0,0,0,0,0],"split_type":[0,0,0,0,0,0,0,0,0,0,0,0,0,0,0,0,0,0,0,0,0,0,0,0,0,0,0,0,0,0,0,0,0,0,0,0,0,0,0,0,0,0,0,0,0,0,0,0,0,0,0],"sum_hessian":[5.948E3,5.81E3,1.38E2,5.786E3,2.4E1,1.33E2,5E0,4E0,5.782E3,2E0,2.2E1,4E0,1.29E2,1E0,4E0,6E0,5.776E3,1E0,1E0,1.7E1,5E0,1E0,3E0,9E0,1.2E2,1E0,5E0,5.754E3,2.2E1,1E0,1.6E1,1E0,4E0,2E0,7E0,2E0,1.18E2,1.5E1,5.739E3,2E0,2E1,1E0,1.5E1,1E0,3E0,1E0,1E0,1E0,6E0,8E0,1.1E2],"tree_param":{"num_deleted":"0","num_feature":"128104","num_nodes":"51","size_leaf_vector":"1"}},{"base_weights":[-1.5881377E-3,-2.61918E-3,1.10824876E-1,-1.4070332E-3,-9.52661E-2,-2.035114E-2,1.268284E-1,-1.8999233E-3,2.1856812E-1,2.165321E-2,-1.0661919E-1,-1.4821634E-2,1.3512765E-1,1.5639825E-1,-2.5848679E-3,1.8283665E-3,2.3373485E-1,-1.1846409E-1,2.131982E-2,-1.4669875E-2,1.4369816E-1,-1.8760325E-2,1.7854846E-1,3.9406937E-2,-2.8593016E-3,1.0670709E-2,2.642211E-1,1.4527111E-2,-1.3203621E-1,2.165992E-1,1.1758249E-1,-1.6793033E-2,2.0091407E-2,-4.4147373E-4,6.6874065E-3,3.339061E-2,1.4169185E-2,-1.6384121E-2,-1.6442131E-3,7.028576E-3,2.5756082E-2,9.724675E-3,2.7120858E-2],"categories":[],"categories_nodes":[],"categories_segments":[],"categories_sizes":[],"default_left":[1,1,0,1,0,0,0,0,0,0,1,0,0,0,0,0,0,0,0,0,1,0,0,0,1,0,0,0,1,0,1,0,0,0,0,0,0,0,0,0,0,0,0],"id":20,"left_children":[1,3,5,7,9,-1,11,13,15,-1,17,-1,19,21,23,-1,25,27,-1,-1,29,-1,31,-1,33,-1,35,-1,37,39,41,-1,-1,-1,-1,-1,-1,-1,-1,-1,-1,-1,-1],"loss_changes":[6.886355E-1,6.608736E-1,2.9745764E-1,6.304647E-1,2.9211682E-1,0E0,1.3872653E-1,6.2916356E-1,3.5216033E-2,0E0,3.0558348E-1,0E0,1.442653E-1,2.2398883E-1,6.297663E-1,0E0,1.827699E-2,2.7690136E-1,0E0,0E0,6.97248E-2,0E0,2.197206E-1,0E0,6.263596E-1,0E0,2.953428E-2,0E0,2.509824E-1,5.381596E-2,9.546584E-2,0E0,0E0,0E0,0E0,0E0,0E0,0E0,0E0,0E0,0E0,0E0,0E0],"parents":[2147483647,0,0,1,1,2,2,3,3,4,4,6,6,7,7,8,8,10,10,12,12,13,13,14,14,16,16,17,17,20,20,22,22,24,24,26,26,28,28,29,29,30,30],"right_children":[2,4,6,8,10,-1,12,14,16,-1,18,-1,20,22,24,-1,26,28,-1,-1,30,-1,32,-1,34,-1,36,-1,38,40,42,-1,-1,-1,-1,-1,-1,-1,-1,-1,-1,-1,-1],"split_conditions":[2.4253562E-1,2.085144E-1,3.7796447E-1,2.3570226E-1,3.0151135E-1,-2.035114E-2,3.3333334E-1,7.5593895E-1,2.8867513E-1,2.165321E-2,3.5355338E-1,-1.4821634E-2,2.581989E-1,3.0151135E-1,3.3333334E-1,1.8283665E-3,2.773501E-1,9.701525E-1,2.131982E-2,-1.4669875E-2,2.5E-1,-1.8760325E-2,3.1622776E-1,3.9406937E-2,4.3759498E-1,1.0670709E-2,2.5E-1,1.4527111E-2,2.236068E-1,2.6726124E-1,3.0151135E-1,-1.6793033E-2,2.0091407E-2,-4.4147373E-4,6.6874065E-3,3.339061E-2,1.4169185E-2,-1.6384121E-2,-1.6442131E-3,7.028576E-3,2.5756082E-2,9.724675E-3,2.7120858E-2],"split_indices":[10600,1932,46059,309,52912,0,8777,690,289,0,4570,0,210,158,49349,0,94,10054,0,0,43,0,43147,0,2309,0,309,0,242,23,63438,0,0,0,0,0,0,0,0,0,0,0,0],"split_type":[0,0,0,0,0,0,0,0,0,0,0,0,0,0,0,0,0,0,0,0,0,0,0,0,0,0,0,0,0,0,0,0,0,0,0,0,0,0,0,0,0,0,0],"sum_hessian":[5.938E3,5.885E3,5.3E1,5.81E3,7.5E1,2E0,5.1E1,5.798E3,1.2E1,2E0,7.3E1,1E0,5E1,2.4E1,5.774E3,1E0,1.1E1,7.1E1,2E0,1E0,4.9E1,1E0,2.3E1,3E0,5.771E3,3E0,8E0,3E0,6.8E1,1.1E1,3.8E1,1E0,2.2E1,5.646E3,1.25E2,4E0,4E0,5.3E1,1.5E1,3E0,8E0,3.5E1,3E0],"tree_param":{"num_deleted":"0","num_feature":"128104","num_nodes":"43","size_leaf_vector":"1"}},{"base_weights":[-2.5161E-3,-3.214417E-3,1.772126E-1,-2.8551666E-2,-2.7838254E-3,-1.2777112E-1,2.1234299E-1,-2.6369572E-2,-2.341055E-3,-3.7020654E-3,-1.5463605E-2,-9.9486955E-2,2.5040334E-1,2.0475212E-1,-2.8685073E-3,1.1220351E-3,-1.6045079E-2,-1.5463605E-2,2.8149644E-1,5.3778946E-2,2.3801383E-1,-3.2286602E-3,3.000183E-1,9.069086E-3,3.136115E-1,1.4370482E-3,8.600217E-3,1.9649162E-3,2.5607888E-2,-3.605975E-4,2.7412409E-2,3.2764252E-2,6.7136586E-3,4.999459E-4,3.3529814E-2],"categories":[],"categories_nodes":[],"categories_segments":[],"categories_sizes":[],"default_left":[1,0,0,0,0,0,0,0,0,0,0,0,0,0,1,0,0,0,0,1,0,1,1,0,0,0,0,0,0,0,0,0,0,0,0],"id":21,"left_children":[1,3,5,-1,7,9,11,-1,13,-1,-1,15,17,19,21,-1,-1,-1,23,25,27,29,31,-1,33,-1,-1,-1,-1,-1,-1,-1,-1,-1,-1],"loss_changes":[7.458338E-1,7.1833605E-1,2.7355796E-1,0E0,6.818989E-1,1.5892796E-3,2.7414745E-1,0E0,6.4494556E-1,0E0,0E0,2.204774E-2,2.8281403E-1,6.25242E-2,6.4293724E-1,0E0,0E0,0E0,8.185756E-2,3.8435794E-3,4.230547E-2,6.162219E-1,2.3035407E-2,0E0,9.871495E-2,0E0,0E0,0E0,0E0,0E0,0E0,0E0,0E0,0E0,0E0],"parents":[2147483647,0,0,1,1,2,2,4,4,5,5,6,6,8,8,11,11,12,12,13,13,14,14,18,18,19,19,20,20,21,21,22,22,24,24],"right_children":[2,4,6,-1,8,10,12,-1,14,-1,-1,16,18,20,22,-1,-1,-1,24,26,28,30,32,-1,34,-1,-1,-1,-1,-1,-1,-1,-1,-1,-1],"split_conditions":[2.8867513E-1,6.666767E-1,3.1622776E-1,-2.8551666E-2,6.666767E-1,3.0151135E-1,3.1622776E-1,-2.6369572E-2,8.165066E-1,-3.7020654E-3,-1.5463605E-2,3.3333334E-1,3.3333334E-1,3.5355338E-1,2.4253562E-1,1.1220351E-3,-1.6045079E-2,-1.5463605E-2,3.5355338E-1,2.581989E-1,3.5355338E-1,2.773501E-1,3.3333334E-1,9.069086E-3,3.1622776E-1,1.4370482E-3,8.600217E-3,1.9649162E-3,2.5607888E-2,-3.605975E-4,2.7412409E-2,3.2764252E-2,6.7136586E-3,4.999459E-4,3.3529814E-2],"split_indices":[1040,88,12203,0,6803,6,45841,0,993,0,0,14,303,1779,57469,0,0,0,7223,218,269,552,22,0,129,0,0,0,0,0,0,0,0,0,0],"split_type":[0,0,0,0,0,0,0,0,0,0,0,0,0,0,0,0,0,0,0,0,0,0,0,0,0,0,0,0,0,0,0,0,0,0,0],"sum_hessian":[5.937E3,5.915E3,2.2E1,8E0,5.907E3,2E0,2E1,9E0,5.898E3,1E0,1E0,2E0,1.8E1,1.4E1,5.884E3,1E0,1E0,1E0,1.7E1,3E0,1.1E1,5.878E3,6E0,3E0,1.4E1,2E0,1E0,1E0,1E1,5.871E3,7E0,5E0,1E0,1E0,1.3E1],"tree_param":{"num_deleted":"0","num_feature":"128104","num_nodes":"35","size_leaf_vector":"1"}},{"base_weights":[-1.6433774E-3,-1.1628782E-1,-5.70561E-4,2.0090766E-2,-1.3204817E-1,-1.203984E-3,1.8505092E-1,5.879976E-2,-1.5315317E-1,6.592477E-2,-2.834479E-3,-1.478153E-2,2.1034995E-1,-1.478153E-2,1.2968584E-2,1.19296815E-2,-1.6759221E-1,-1.4329368E-1,7.9795316E-2,5.2135464E-2,-4.927868E-3,4.2152088E-2,2.2765839E-1,1.5218471E-2,-1.7808026E-1,1.7236803E-2,-2.042974E-1,-2.4202054E-2,8.922866E-2,-2.4738459E-2,5.9152283E-2,-5.2655716E-3,3.0590522E-1,5.21847E-3,1.104343E-3,4.738362E-3,2.4853612E-1,5.5411938E-3,-1.9022902E-2,7.941644E-3,-2.5617315E-2,-1.9837838E-2,1.0010613E-2,4.1808456E-5,7.7480674E-3,-5.60367E-4,3.0570496E-2,3.4196623E-2,6.280011E-3,1.1801303E-3,2.646028E-2],"categories":[],"categories_nodes":[],"categories_segments":[],"categories_sizes":[],"default_left":[0,0,1,0,0,0,0,0,0,0,0,0,0,0,0,0,0,0,0,0,1,0,0,0,0,0,0,0,0,0,0,1,1,0,0,0,0,0,0,0,0,0,0,0,0,0,0,0,0,0,0],"id":22,"left_children":[1,3,5,-1,7,9,11,13,15,17,19,-1,21,-1,-1,-1,23,25,27,29,31,33,35,-1,37,-1,39,-1,41,-1,43,45,47,-1,-1,-1,49,-1,-1,-1,-1,-1,-1,-1,-1,-1,-1,-1,-1,-1,-1],"loss_changes":[7.2964776E-1,3.0148065E-1,6.9145745E-1,0E0,2.2248107E-1,6.415821E-1,1.9951683E-1,1.07046336E-1,2.0882142E-1,4.1480857E-1,6.5870726E-1,0E0,4.57173E-2,0E0,0E0,0E0,1.8137741E-1,2.0852317E-1,4.1928488E-1,4.5598578E-1,5.803071E-1,3.6000554E-4,5.2206814E-2,0E0,1.3818967E-1,0E0,1.380873E-1,0E0,4.202988E-1,0E0,2.2172731E-1,5.808172E-1,3.1124175E-2,0E0,0E0,0E0,5.393052E-2,0E0,0E0,0E0,0E0,0E0,0E0,0E0,0E0,0E0,0E0,0E0,0E0,0E0,0E0],"parents":[2147483647,0,0,1,1,2,2,4,4,5,5,6,6,7,7,8,8,9,9,10,10,12,12,16,16,17,17,18,18,19,19,20,20,21,21,22,22,24,24,26,26,28,28,30,30,31,31,32,32,36,36],"right_children":[2,4,6,-1,8,10,12,14,16,18,20,-1,22,-1,-1,-1,24,26,28,30,32,34,36,-1,38,-1,40,-1,42,-1,44,46,48,-1,-1,-1,50,-1,-1,-1,-1,-1,-1,-1,-1,-1,-1,-1,-1,-1,-1],"split_conditions":[2.8867513E-1,2.5E-1,2.2941573E-1,2.0090766E-2,2.581989E-1,3.5355338E-1,2.6726124E-1,2.085144E-1,2.773501E-1,3.3333334E-1,4.082483E-1,-1.478153E-2,2.4253562E-1,-1.478153E-2,1.2968584E-2,1.19296815E-2,2.773501E-1,3.3333334E-1,3.3333334E-1,2.3570226E-1,5.163978E-1,4.8507124E-1,2.581989E-1,1.5218471E-2,1.796053E-1,1.7236803E-2,3.0151135E-1,-2.4202054E-2,3.3333334E-1,-2.4738459E-2,2.773501E-1,2.773501E-1,2.581989E-1,5.21847E-3,1.104343E-3,4.738362E-3,3.0151135E-1,5.5411938E-3,-1.9022902E-2,7.941644E-3,-2.5617315E-2,-1.9837838E-2,1.0010613E-2,4.1808456E-5,7.7480674E-3,-5.60367E-4,3.0570496E-2,3.4196623E-2,6.280011E-3,1.1801303E-3,2.646028E-2],"split_indices":[4041,8162,623,0,413,47503,651,396,7854,2383,1779,0,406,0,0,0,7,151,315,460,242,43,35346,0,10833,0,95,0,2783,0,43,1147,24,0,0,0,203,0,0,0,0,0,0,0,0,0,0,0,0,0,0],"split_type":[0,0,0,0,0,0,0,0,0,0,0,0,0,0,0,0,0,0,0,0,0,0,0,0,0,0,0,0,0,0,0,0,0,0,0,0,0,0,0,0,0,0,0,0,0,0,0,0,0,0,0],"sum_hessian":[5.932E3,5.4E1,5.878E3,2E0,5.2E1,5.859E3,1.9E1,5E0,4.7E1,1.38E2,5.721E3,1E0,1.8E1,1E0,4E0,2E0,4.5E1,8E0,1.3E2,2.09E2,5.512E3,2E0,1.6E1,1E0,4.4E1,1E0,7E0,3E0,1.27E2,4E0,2.05E2,5.507E3,5E0,1E0,1E0,2E0,1.4E1,2E0,4.2E1,1E0,6E0,4E0,1.23E2,4.9E1,1.56E2,5.502E3,5E0,4E0,1E0,1E0,1.3E1],"tree_param":{"num_deleted":"0","num_feature":"128104","num_nodes":"51","size_leaf_vector":"1"}},{"base_weights":[-9.1672126E-5,6.7232543E-4,-1.6292903E-1,3.22466E-2,3.4842233E-4,1.0525054E-2,-1.7675976E-1,-1.0500795E-3,7.546658E-2,1.037685E-2,-1.9154042E-1,6.911351E-2,-2.5677406E-3,8.306462E-2,-1.4474808E-2,-2.0256384E-1,4.202259E-3,7.910856E-2,-1.8459055E-1,-3.0837937E-3,2.0842332E-1,1.06028914E-1,1.1945804E-2,3.127496E-3,-2.1361025E-1,-2.4970178E-2,8.679774E-3,-2.2884473E-2,-3.7868918E-4,8.127035E-3,-4.3708674E-4,2.4909126E-2,4.4480697E-3,-1.0833822E-2,1.1578787E-2,-1.563591E-3,1.7444964E-2,3.0681044E-3,-2.2556556E-2],"categories":[],"categories_nodes":[],"categories_segments":[],"categories_sizes":[],"default_left":[1,0,0,0,1,0,0,0,1,0,1,1,1,1,0,0,0,0,1,0,1,0,1,0,0,0,0,0,0,0,0,0,0,0,0,0,0,0,0],"id":23,"left_children":[1,3,5,-1,7,-1,9,11,13,-1,15,17,19,21,-1,23,-1,25,27,29,31,33,35,-1,37,-1,-1,-1,-1,-1,-1,-1,-1,-1,-1,-1,-1,-1,-1],"loss_changes":[7.4593157E-1,6.219322E-1,1.2245947E-1,0E0,6.2650955E-1,0E0,1.3182837E-1,6.236445E-1,1.9440216E-1,0E0,7.545358E-2,3.2904023E-1,6.247576E-1,1.7185187E-1,0E0,7.125759E-2,0E0,3.250671E-1,3.914E-2,6.212669E-1,8.2261145E-2,1.7990428E-1,1.2374531E-1,0E0,7.7014446E-2,0E0,0E0,0E0,0E0,0E0,0E0,0E0,0E0,0E0,0E0,0E0,0E0,0E0,0E0],"parents":[2147483647,0,0,1,1,2,2,4,4,6,6,7,7,8,8,10,10,11,11,12,12,13,13,15,15,17,17,18,18,19,19,20,20,21,21,22,22,24,24],"right_children":[2,4,6,-1,8,-1,10,12,14,-1,16,18,20,22,-1,24,-1,26,28,30,32,34,36,-1,38,-1,-1,-1,-1,-1,-1,-1,-1,-1,-1,-1,-1,-1,-1],"split_conditions":[2.4253562E-1,2.6726124E-1,6.030327E-1,3.22466E-2,1.7407766E-1,1.0525054E-2,2.8867513E-1,3.5355338E-1,2.773501E-1,1.037685E-2,3.7796447E-1,2.8867513E-1,2.5E-1,1.9611613E-1,-1.4474808E-2,3.0151135E-1,4.202259E-3,3.5355338E-1,3.0151135E-1,3.1622776E-1,2.5E-1,7.5593895E-1,2.8867513E-1,3.127496E-3,3.0151135E-1,-2.4970178E-2,8.679774E-3,-2.2884473E-2,-3.7868918E-4,8.127035E-3,-4.3708674E-4,2.4909126E-2,4.4480697E-3,-1.0833822E-2,1.1578787E-2,-1.563591E-3,1.7444964E-2,3.0681044E-3,-2.2556556E-2],"split_indices":[32444,24612,7565,0,75136,0,49,45841,1406,0,129,932,17976,526,0,272,0,21920,53,47503,3877,30784,70539,0,141,0,0,0,0,0,0,0,0,0,0,0,0,0,0],"split_type":[0,0,0,0,0,0,0,0,0,0,0,0,0,0,0,0,0,0,0,0,0,0,0,0,0,0,0,0,0,0,0,0,0,0,0,0,0,0,0],"sum_hessian":[5.994E3,5.967E3,2.7E1,5E0,5.962E3,1E0,2.6E1,5.854E3,1.08E2,1E0,2.5E1,1.23E2,5.731E3,1.05E2,3E0,2.4E1,1E0,1.19E2,4E0,5.718E3,1.3E1,7.9E1,2.6E1,1E0,2.3E1,2E0,1.17E2,3E0,1E0,8.5E1,5.633E3,1E1,3E0,3E0,7.6E1,2.3E1,3E0,1E0,2.2E1],"tree_param":{"num_deleted":"0","num_feature":"128104","num_nodes":"39","size_leaf_vector":"1"}},{"base_weights":[-8.3757404E-5,8.8078243E-4,-1.3932833E-1,-1.2738106E-1,1.8190806E-3,-1.5097648E-1,1.6329885E-2,1.8465964E-2,-1.4710644E-1,1.5411021E-2,-6.4123184E-3,1.44794015E-2,-1.62273E-1,1.6760558E-2,-1.675431E-1,1.4642191E-2,4.3710545E-2,-8.4318165E-3,7.29068E-2,1.1664383E-2,-1.726825E-1,8.6057074E-2,-1.8357708E-1,2.4308947E-1,1.3599508E-2,-9.480393E-3,1.4693403E-1,8.747658E-2,-1.9518867E-2,5.5525113E-2,-1.8690306E-1,2.3992748E-3,1.0509287E-2,3.843217E-3,-1.973614E-2,1.5106589E-3,2.667424E-2,2.802079E-2,1.274464E-3,3.196916E-2,-9.942125E-4,-1.4731658E-2,1.661326E-2,9.84865E-3,-1.656008E-2,6.6643837E-3,1.6643837E-3,-1.996587E-2,1.996178E-3],"categories":[],"categories_nodes":[],"categories_segments":[],"categories_sizes":[],"default_left":[1,0,1,0,0,0,0,0,0,1,1,0,0,0,0,0,0,1,1,0,0,0,0,0,0,0,0,1,0,0,1,0,0,0,0,0,0,0,0,0,0,0,0,0,0,0,0,0,0],"id":24,"left_children":[1,3,5,7,9,11,-1,-1,13,15,17,-1,19,-1,21,23,-1,25,27,-1,29,31,33,35,37,39,41,43,-1,45,47,-1,-1,-1,-1,-1,-1,-1,-1,-1,-1,-1,-1,-1,-1,-1,-1,-1,-1],"loss_changes":[8.004578E-1,7.1257055E-1,1.6918123E-1,2.91835E-1,6.576216E-1,1.5714324E-1,0E0,0E0,2.9177922E-1,7.12376E-1,5.8705133E-1,0E0,1.3337433E-1,0E0,1.743809E-1,5.240644E-1,0E0,5.8315504E-1,3.725287E-1,0E0,1.3369691E-1,1.0228641E-3,1.20814085E-1,4.989499E-2,4.989823E-1,5.424366E-1,1.6005468E-1,2.5872284E-1,0E0,1.877211E-4,9.89784E-2,0E0,0E0,0E0,0E0,0E0,0E0,0E0,0E0,0E0,0E0,0E0,0E0,0E0,0E0,0E0,0E0,0E0,0E0],"parents":[2147483647,0,0,1,1,2,2,3,3,4,4,5,5,8,8,9,9,10,10,12,12,14,14,15,15,17,17,18,18,20,20,21,21,22,22,23,23,24,24,25,25,26,26,27,27,29,29,30,30],"right_children":[2,4,6,8,10,12,-1,-1,14,16,18,-1,20,-1,22,24,-1,26,28,-1,30,32,34,36,38,40,42,44,-1,46,48,-1,-1,-1,-1,-1,-1,-1,-1,-1,-1,-1,-1,-1,-1,-1,-1,-1,-1],"split_conditions":[1.8257418E-1,2.773501E-1,2.581989E-1,2.773501E-1,2.8867513E-1,2.773501E-1,1.6329885E-2,1.8465964E-2,2.2941573E-1,2.6726124E-1,3.1622776E-1,1.44794015E-2,5.773603E-1,1.6760558E-2,3.0151135E-1,2.6726124E-1,4.3710545E-2,3.0151135E-1,3.3333334E-1,1.1664383E-2,6.3246554E-1,2.182179E-1,2.6726124E-1,2.182179E-1,2.773501E-1,7.5593895E-1,6.3246554E-1,3.5355338E-1,-1.9518867E-2,3.1234753E-1,2.5E-1,2.3992748E-3,1.0509287E-2,3.843217E-3,-1.973614E-2,1.5106589E-3,2.667424E-2,2.802079E-2,1.274464E-3,3.196916E-2,-9.942125E-4,-1.4731658E-2,1.661326E-2,9.84865E-3,-1.656008E-2,6.6643837E-3,1.6643837E-3,-1.996587E-2,1.996178E-3],"split_indices":[70478,129,1022,158,24,7,0,0,171,80771,45841,0,1624,0,7688,3106,0,50,2000,0,106148,15,399,203,3453,12331,898,11946,0,22,4039,0,0,0,0,0,0,0,0,0,0,0,0,0,0,0,0,0,0],"split_type":[0,0,0,0,0,0,0,0,0,0,0,0,0,0,0,0,0,0,0,0,0,0,0,0,0,0,0,0,0,0,0,0,0,0,0,0,0,0,0,0,0,0,0,0,0,0,0,0,0],"sum_hessian":[5.958E3,5.918E3,4E1,4.2E1,5.876E3,3.9E1,1E0,2E0,4E1,2.216E3,3.66E3,1E0,3.8E1,2E0,3.8E1,2.213E3,3E0,3.57E3,9E1,1E0,3.7E1,2E0,3.6E1,9E0,2.204E3,3.547E3,2.3E1,8.6E1,4E0,2E0,3.5E1,1E0,1E0,2E0,3.4E1,1E0,8E0,6E0,2.198E3,4E0,3.543E3,1E0,2.2E1,8.3E1,3E0,1E0,1E0,3.3E1,2E0],"tree_param":{"num_deleted":"0","num_feature":"128104","num_nodes":"49","size_leaf_vector":"1"}},{"base_weights":[1.998624E-3,8.944603E-4,1.07022226E-1,-3.2003096E-4,9.6498944E-2,-1.3875124E-1,1.3101554E-1,2.4116259E-4,-1.8141188E-1,-2.035391E-2,1.07660264E-1,-2.2079637E-2,1.6892701E-3,-2.1156497E-2,1.4731964E-1,1.12475194E-1,-6.5457064E-4,-2.0422205E-1,1.0318053E-2,1.3599879E-1,-3.1414475E-2,1.6361046E-1,-1.8959118E-2,-2.0593084E-2,1.3162844E-1,3.0903894E-2,-9.771105E-4,3.1550676E-3,-2.2092977E-1,1.5051045E-1,-1.8989278E-2,-5.9673883E-2,1.538492E-2,1.8778849E-1,-1.0605635E-1,1.4157114E-2,-1.4795381E-2,-5.6503584E-5,-2.3782229E-2,1.968053E-3,-2.382825E-2,-1.6159896E-2,1.588211E-2,1.538492E-2,-9.307137E-3,-1.6436225E-2,1.9854916E-2,-1.477845E-2,3.0428157E-3],"categories":[],"categories_nodes":[],"categories_segments":[],"categories_sizes":[],"default_left":[1,1,0,1,0,0,0,0,1,0,0,0,0,0,1,0,0,0,0,1,1,1,0,0,1,0,1,0,0,0,0,0,0,0,0,0,0,0,0,0,0,0,0,0,0,0,0,0,0],"id":25,"left_children":[1,3,5,7,9,11,13,15,17,-1,19,-1,-1,-1,21,23,25,27,-1,29,31,33,-1,-1,35,-1,37,-1,39,41,-1,43,-1,45,47,-1,-1,-1,-1,-1,-1,-1,-1,-1,-1,-1,-1,-1,-1],"loss_changes":[6.910453E-1,6.8496853E-1,3.837875E-1,5.92126E-1,2.6972586E-1,8.034883E-2,3.4953958E-1,5.840626E-1,1.3792056E-1,0E0,2.880367E-1,0E0,0E0,0E0,3.3288932E-1,3.076378E-1,5.760591E-1,7.39373E-2,0E0,3.1233454E-1,7.724152E-2,3.6547673E-1,0E0,0E0,1.4325726E-1,0E0,5.6193185E-1,0E0,7.149339E-2,1.7610776E-1,0E0,9.989254E-2,0E0,2.1831393E-1,3.2973047E-2,0E0,0E0,0E0,0E0,0E0,0E0,0E0,0E0,0E0,0E0,0E0,0E0,0E0,0E0],"parents":[2147483647,0,0,1,1,2,2,3,3,4,4,5,5,6,6,7,7,8,8,10,10,14,14,15,15,16,16,17,17,19,19,20,20,21,21,24,24,26,26,28,28,29,29,31,31,33,33,34,34],"right_children":[2,4,6,8,10,12,14,16,18,-1,20,-1,-1,-1,22,24,26,28,-1,30,32,34,-1,-1,36,-1,38,-1,40,42,-1,44,-1,46,48,-1,-1,-1,-1,-1,-1,-1,-1,-1,-1,-1,-1,-1,-1],"split_conditions":[2.5E-1,2.236068E-1,3.3333334E-1,2.3570226E-1,2.4253562E-1,3.3333334E-1,7.071168E-1,3.3333334E-1,3.1622776E-1,-2.035391E-2,3.1622776E-1,-2.2079637E-2,1.6892701E-3,-2.1156497E-2,4.082483E-1,2.2941573E-1,2.0412415E-1,2.4253562E-1,1.0318053E-2,2.581989E-1,3.7796447E-1,3.5355338E-1,-1.8959118E-2,-2.0593084E-2,2.773501E-1,3.0903894E-2,2.2941573E-1,3.1550676E-3,3.0151135E-1,5.773603E-1,-1.8989278E-2,7.071168E-1,1.538492E-2,4.082483E-1,3.7796447E-1,1.4157114E-2,-1.4795381E-2,-5.6503584E-5,-2.3782229E-2,1.968053E-3,-2.382825E-2,-1.6159896E-2,1.588211E-2,1.538492E-2,-9.307137E-3,-1.6436225E-2,1.9854916E-2,-1.477845E-2,3.0428157E-3],"split_indices":[5083,41918,2255,11015,554,24,4334,911,40,0,24,0,0,0,375,4448,4892,7,0,10101,24,24,0,0,7,0,4418,0,377,2592,0,3990,0,260,24,0,0,0,0,0,0,0,0,0,0,0,0,0,0],"split_type":[0,0,0,0,0,0,0,0,0,0,0,0,0,0,0,0,0,0,0,0,0,0,0,0,0,0,0,0,0,0,0,0,0,0,0,0,0,0,0,0,0,0,0,0,0,0,0,0,0],"sum_hessian":[5.959E3,5.898E3,6.1E1,5.825E3,7.3E1,5E0,5.6E1,5.808E3,1.7E1,2E0,7.1E1,3E0,2E0,2E0,5.4E1,4.5E1,5.763E3,1.6E1,1E0,5.9E1,1.2E1,5.2E1,2E0,2E0,4.3E1,5E0,5.758E3,1E0,1.5E1,5.7E1,2E0,1.1E1,1E0,4.8E1,4E0,4.2E1,1E0,5.749E3,9E0,1E0,1.4E1,1E0,5.6E1,1E0,1E1,1E0,4.7E1,3E0,1E0],"tree_param":{"num_deleted":"0","num_feature":"128104","num_nodes":"49","size_leaf_vector":"1"}},{"base_weights":[-9.828631E-4,1.2240702E-3,-5.3972952E-2,2.4646844E-3,-7.8132756E-2,1.6048732E-1,-5.9263892E-2,3.343799E-1,2.169158E-3,-8.9693666E-2,1.3171707E-1,4.2727636E-3,1.7549373E-1,-6.2760696E-2,2.2974478E-2,7.538024E-3,3.8028475E-2,3.0530667E-1,1.8450799E-3,1.6624222E-2,-9.796335E-2,2.8557272E-3,1.9097118E-2,4.705859E-3,1.9583788E-2,-6.6887535E-2,1.8815938E-2,6.9998326E-3,3.3836868E-2,2.4182852E-3,-1.6722693E-1,1.6002784E-2,-1.06413476E-1,1.231705E-1,-7.257906E-2,-2.1899654E-2,2.853475E-4,5.207445E-3,-1.8230338E-2,2.0822622E-2,-1.1303204E-2,3.864482E-3,1.4925182E-2,6.8185083E-3,-7.954051E-3],"categories":[],"categories_nodes":[],"categories_segments":[],"categories_sizes":[],"default_left":[1,1,0,0,1,0,1,0,0,0,0,0,0,1,0,0,0,0,1,0,0,0,0,0,0,0,0,0,0,0,0,0,0,0,0,0,0,0,0,0,0,0,0,0,0],"id":26,"left_children":[1,3,5,7,9,11,13,15,17,19,21,-1,23,25,-1,-1,-1,27,29,-1,31,-1,-1,-1,-1,33,-1,-1,-1,35,37,-1,39,41,43,-1,-1,-1,-1,-1,-1,-1,-1,-1,-1],"loss_changes":[6.961262E-1,5.6284124E-1,2.795688E-1,5.513237E-1,2.2530699E-1,3.1044632E-3,2.4989039E-1,3.0780733E-2,5.5193955E-1,1.940723E-1,2.510959E-2,0E0,3.848672E-3,2.5178766E-1,0E0,0E0,0E0,2.2993386E-2,5.449585E-1,0E0,1.9579387E-1,0E0,0E0,0E0,0E0,2.555716E-1,0E0,0E0,0E0,5.403227E-1,7.231271E-2,0E0,1.901331E-1,9.663969E-3,2.229662E-1,0E0,0E0,0E0,0E0,0E0,0E0,0E0,0E0,0E0,0E0],"parents":[2147483647,0,0,1,1,2,2,3,3,4,4,5,5,6,6,7,7,8,8,9,9,10,10,12,12,13,13,17,17,18,18,20,20,25,25,29,29,30,30,32,32,33,33,34,34],"right_children":[2,4,6,8,10,12,14,16,18,20,22,-1,24,26,-1,-1,-1,28,30,-1,32,-1,-1,-1,-1,34,-1,-1,-1,36,38,-1,40,42,44,-1,-1,-1,-1,-1,-1,-1,-1,-1,-1],"split_conditions":[2.182179E-1,2.2941573E-1,3.3333334E-1,7.071168E-1,2.8867513E-1,2.6726124E-1,2.581989E-1,3.7796447E-1,7.5593895E-1,2.581989E-1,3.5355338E-1,4.2727636E-3,4.364358E-1,2.773501E-1,2.2974478E-2,7.538024E-3,3.8028475E-2,3.7796447E-1,2.5E-1,1.6624222E-2,7.071168E-1,2.8557272E-3,1.9097118E-2,4.705859E-3,1.9583788E-2,3.0151135E-1,1.8815938E-2,6.9998326E-3,3.3836868E-2,2.4253562E-1,2.581989E-1,1.6002784E-2,2.773501E-1,2.8867513E-1,4.5883146E-1,-2.1899654E-2,2.853475E-4,5.207445E-3,-1.8230338E-2,2.0822622E-2,-1.1303204E-2,3.864482E-3,1.4925182E-2,6.8185083E-3,-7.954051E-3],"split_indices":[13844,15796,2122,8692,1626,423,2487,6511,72751,40,40,0,1296,12347,0,0,0,306,4098,0,6351,0,0,0,0,3141,0,0,0,23437,413,0,307,5044,787,0,0,0,0,0,0,0,0,0,0],"split_type":[0,0,0,0,0,0,0,0,0,0,0,0,0,0,0,0,0,0,0,0,0,0,0,0,0,0,0,0,0,0,0,0,0,0,0,0,0,0,0,0,0,0,0,0,0],"sum_hessian":[5.951E3,5.714E3,2.37E2,5.627E3,8.7E1,5E0,2.32E2,4E0,5.623E3,8.3E1,4E0,1E0,4E0,2.3E2,2E0,1E0,3E0,5E0,5.618E3,2E0,8.1E1,2E0,2E0,1E0,3E0,2.27E2,3E0,1E0,4E0,5.6E3,1.8E1,2E0,7.9E1,6E0,2.21E2,1E1,5.59E3,1E0,1.7E1,1E0,7.8E1,2E0,4E0,1E1,2.11E2],"tree_param":{"num_deleted":"0","num_feature":"128104","num_nodes":"45","size_leaf_vector":"1"}},{"base_weights":[8.800721E-4,2.1903981E-1,3.7392296E-4,2.8479853E-1,-1.655664E-2,-7.6119395E-5,2.468813E-1,5.7252436E-3,3.29003E-2,4.3374825E-2,-9.817552E-3,1.4190625E-1,-7.6258363E-4,2.988833E-1,-1.3656928E-2,5.1824483E-3,1.323776E-3,-1.6564751E-2,1.708231E-1,-1.569602E-3,1.137177E-1,3.258802E-2,2.7955547E-3,2.1899617E-1,1.9005792E-3,2.613951E-1,-1.9229043E-3,-1.2759236E-2,1.28973E-1,2.4369126E-2,-1.3745283E-2,1.0683839E-2,-1.736293E-2,2.9314695E-2,1.9566105E-3,1.3145613E-2,-2.621017E-4,1.5856145E-2,-9.200975E-4],"categories":[],"categories_nodes":[],"categories_segments":[],"categories_sizes":[],"default_left":[0,1,1,0,0,0,1,0,0,0,0,0,1,1,0,0,0,0,0,0,0,0,0,1,0,1,0,0,1,0,0,0,0,0,0,0,0,0,0],"id":27,"left_children":[1,3,5,7,9,11,13,-1,-1,15,-1,17,19,21,-1,-1,-1,-1,23,25,27,-1,-1,29,31,33,35,-1,37,-1,-1,-1,-1,-1,-1,-1,-1,-1,-1],"loss_changes":[6.67857E-1,2.2161067E-1,6.696452E-1,9.180778E-2,2.3824502E-2,5.8743715E-1,2.601604E-1,0E0,0E0,7.790374E-5,0E0,2.8620756E-1,5.543199E-1,6.403196E-2,0E0,0E0,0E0,0E0,2.1929675E-1,5.539437E-1,1.710689E-1,0E0,0E0,2.1834946E-1,1.4748831E-1,5.5692434E-2,5.5437034E-1,0E0,1.6499305E-1,0E0,0E0,0E0,0E0,0E0,0E0,0E0,0E0,0E0,0E0],"parents":[2147483647,0,0,1,1,2,2,3,3,4,4,5,5,6,6,9,9,11,11,12,12,13,13,18,18,19,19,20,20,23,23,24,24,25,25,26,26,28,28],"right_children":[2,4,6,8,10,12,14,-1,-1,16,-1,18,20,22,-1,-1,-1,-1,24,26,28,-1,-1,30,32,34,36,-1,38,-1,-1,-1,-1,-1,-1,-1,-1,-1,-1],"split_conditions":[2.773501E-1,2.948839E-1,2.3570226E-1,1.5617377E-1,1.6222142E-1,2.6726124E-1,3.0151135E-1,5.7252436E-3,3.29003E-2,1.6222142E-1,-9.817552E-3,2.773501E-1,3.3333334E-1,3.0151135E-1,-1.3656928E-2,5.1824483E-3,1.323776E-3,-1.6564751E-2,2.6490647E-1,3.1622776E-1,3.7796447E-1,3.258802E-2,2.7955547E-3,4.5883146E-1,2.6726124E-1,3.0151135E-1,4.082483E-1,-1.2759236E-2,3.7796447E-1,2.4369126E-2,-1.3745283E-2,1.0683839E-2,-1.736293E-2,2.9314695E-2,1.9566105E-3,1.3145613E-2,-2.621017E-4,1.5856145E-2,-9.200975E-4],"split_indices":[8278,17,10655,10318,7,40260,306,0,0,4,0,17098,41867,347,0,0,0,0,22,9299,43013,0,0,242,24,241,2987,0,24,0,0,0,0,0,0,0,0,0,0],"split_type":[0,0,0,0,0,0,0,0,0,0,0,0,0,0,0,0,0,0,0,0,0,0,0,0,0,0,0,0,0,0,0,0,0,0,0,0,0,0,0],"sum_hessian":[6.048E3,1.3E1,6.035E3,1E1,3E0,6.025E3,1E1,2E0,8E0,2E0,1E0,2.8E1,5.997E3,9E0,1E0,1E0,1E0,2E0,2.6E1,5.956E3,4.1E1,8E0,1E0,2E1,6E0,7E0,5.949E3,2E0,3.9E1,1.9E1,1E0,4E0,2E0,6E0,1E0,3E1,5.919E3,3.2E1,7E0],"tree_param":{"num_deleted":"0","num_feature":"128104","num_nodes":"39","size_leaf_vector":"1"}},{"base_weights":[8.4645965E-4,3.631538E-4,2.0643264E-1,-8.98397E-2,1.4509811E-3,2.4535501E-1,-1.4977914E-2,2.6969716E-2,-9.8828755E-2,-8.745853E-5,6.2373795E-2,-1.4680284E-2,2.902684E-1,1.4541141E-2,-1.119352E-1,1.6527312E-1,-6.362382E-4,7.045928E-2,-2.4025442E-2,-1.4589178E-2,3.431822E-1,1.7017333E-2,-1.2323351E-1,-1.594754E-2,1.9217445E-1,2.7247798E-1,-9.7041606E-4,-1.7013319E-1,7.866582E-2,2.0288378E-4,3.770947E-1,-1.3810247E-2,8.28145E-3,-1.4793718E-2,2.2088319E-2,1.3444428E-2,3.423922E-2,3.2224335E-2,-1.253023E-4,1.9779324E-3,-2.2255614E-2,-2.1199903E-2,8.449912E-3,1.3882226E-2,4.1931E-2],"categories":[],"categories_nodes":[],"categories_segments":[],"categories_sizes":[],"default_left":[1,0,1,0,1,0,0,0,0,0,1,0,0,0,0,0,0,0,0,0,0,0,1,0,0,1,0,0,0,0,0,0,0,0,0,0,0,0,0,0,0,0,0,0,0],"id":28,"left_children":[1,3,5,7,9,11,-1,-1,13,15,17,-1,19,-1,21,23,25,27,-1,-1,29,-1,31,-1,33,35,37,39,41,-1,43,-1,-1,-1,-1,-1,-1,-1,-1,-1,-1,-1,-1,-1,-1],"loss_changes":[5.9311014E-1,5.846617E-1,2.3085362E-1,2.5611854E-1,5.517708E-1,2.7158302E-1,0E0,0E0,2.4035507E-1,5.212624E-1,3.7172806E-1,0E0,3.270142E-1,0E0,2.345236E-1,1.966343E-1,5.22778E-1,2.9375315E-1,0E0,0E0,1.2649786E-1,0E0,2.1057868E-1,0E0,2.0843208E-1,2.1520972E-2,5.227911E-1,5.418089E-2,2.518975E-1,0E0,4.237783E-2,0E0,0E0,0E0,0E0,0E0,0E0,0E0,0E0,0E0,0E0,0E0,0E0,0E0,0E0],"parents":[2147483647,0,0,1,1,2,2,3,3,4,4,5,5,8,8,9,9,10,10,12,12,14,14,15,15,16,16,17,17,20,20,22,22,24,24,25,25,26,26,27,27,28,28,30,30],"right_children":[2,4,6,8,10,12,-1,-1,14,16,18,-1,20,-1,22,24,26,28,-1,-1,30,-1,32,-1,34,36,38,40,42,-1,44,-1,-1,-1,-1,-1,-1,-1,-1,-1,-1,-1,-1,-1,-1],"split_conditions":[2.6726124E-1,3.7796447E-1,2.8867513E-1,3.3333334E-1,2.4253562E-1,3.0151135E-1,-1.4977914E-2,2.6969716E-2,3.5355338E-1,3.7796447E-1,2.773501E-1,-1.4680284E-2,3.3333334E-1,1.4541141E-2,3.5355338E-1,3.1622776E-1,3.0151135E-1,2.6726124E-1,-2.4025442E-2,-1.4589178E-2,3.5355338E-1,1.7017333E-2,3.0151135E-1,-1.594754E-2,2.773501E-1,2.581989E-1,2.773501E-1,2.5E-1,3.0151135E-1,2.0288378E-4,3.1622776E-1,-1.3810247E-2,8.28145E-3,-1.4793718E-2,2.2088319E-2,1.3444428E-2,3.423922E-2,3.2224335E-2,-1.253023E-4,1.9779324E-3,-2.2255614E-2,-2.1199903E-2,8.449912E-3,1.3882226E-2,4.1931E-2],"split_indices":[80771,119782,1485,3384,1779,51,0,0,124926,1781,935,0,303,0,28590,43147,57469,4137,0,0,39,0,118728,0,48,545,82661,40,3920,0,16424,0,0,0,0,0,0,0,0,0,0,0,0,0,0],"split_type":[0,0,0,0,0,0,0,0,0,0,0,0,0,0,0,0,0,0,0,0,0,0,0,0,0,0,0,0,0,0,0,0,0,0,0,0,0,0,0,0,0,0,0,0,0],"sum_hessian":[5.969E3,5.956E3,1.3E1,7E1,5.886E3,1.2E1,1E0,1E0,6.9E1,5.742E3,1.44E2,1E0,1.1E1,3E0,6.6E1,1.8E1,5.724E3,1.41E2,3E0,1E0,1E1,2E0,6.4E1,1E0,1.7E1,6E0,5.718E3,4E0,1.37E2,1E0,9E0,6E1,4E0,1E0,1.6E1,3E0,3E0,4E0,5.714E3,1E0,3E0,2E0,1.35E2,2E0,7E0],"tree_param":{"num_deleted":"0","num_feature":"128104","num_nodes":"45","size_leaf_vector":"1"}},{"base_weights":[-6.7558826E-4,-2.2412355E-3,6.738838E-2,2.9573891E-2,-2.5993073E-3,5.910207E-2,3.219178E-2,5.699559E-2,-4.35939E-3,3.0207762E-2,5.104735E-2,6.694658E-2,-2.2118045E-2,-4.6275673E-3,3.755304E-2,3.9057396E-2,2.0524147E-1,7.728955E-2,-1.4181682E-1,3.2294553E-2,-4.9168407E-3,3.3691984E-2,3.3877086E-2,-2.552548E-2,2.7482137E-1,-2.2822171E-2,8.482084E-3,2.512759E-3,-2.016529E-2,-2.2838898E-2,-4.51953E-4,2.7376851E-2,2.7248207E-3,-4.6164246E-4,-3.3671798E-3,2.9836863E-2,6.6768974E-3],"categories":[],"categories_nodes":[],"categories_segments":[],"categories_sizes":[],"default_left":[1,0,1,0,0,0,0,1,1,0,1,1,0,0,0,1,0,0,0,0,0,0,0,0,1,0,0,0,0,0,0,0,0,0,0,0,0],"id":29,"left_children":[1,3,5,-1,7,9,-1,11,13,-1,15,17,-1,19,-1,21,23,25,27,-1,29,31,-1,33,35,-1,-1,-1,-1,-1,-1,-1,-1,-1,-1,-1,-1],"loss_changes":[6.3506025E-1,6.222861E-1,2.635945E-1,0E0,6.106148E-1,2.4095994E-1,0E0,4.7708458E-1,5.776522E-1,0E0,2.2862771E-1,3.6075687E-1,0E0,5.3697175E-1,0E0,1.8155657E-1,1.5152565E-1,3.7599635E-1,8.498146E-2,0E0,5.0026363E-1,1.7663318E-1,0E0,3.5555195E-4,1.4371693E-2,0E0,0E0,0E0,0E0,0E0,0E0,0E0,0E0,0E0,0E0,0E0,0E0],"parents":[2147483647,0,0,1,1,2,2,4,4,5,5,7,7,8,8,10,10,11,11,13,13,15,15,16,16,17,17,18,18,20,20,21,21,23,23,24,24],"right_children":[2,4,6,-1,8,10,-1,12,14,-1,16,18,-1,20,-1,22,24,26,28,-1,30,32,-1,34,36,-1,-1,-1,-1,-1,-1,-1,-1,-1,-1,-1,-1],"split_conditions":[1.2700012E-1,5.164078E-1,2.6726124E-1,2.9573891E-2,4.472136E-1,6.030327E-1,3.219178E-2,2.5E-1,3.0151135E-1,3.0207762E-2,2.085144E-1,3.0151135E-1,-2.2118045E-2,7.5593895E-1,3.755304E-2,3.3333334E-1,9.4281906E-1,6.666767E-1,7.071168E-1,3.2294553E-2,7.5593895E-1,2.0412415E-1,3.3877086E-2,2.4253562E-1,3.1622776E-1,-2.2822171E-2,8.482084E-3,2.512759E-3,-2.016529E-2,-2.2838898E-2,-4.51953E-4,2.7376851E-2,2.7248207E-3,-4.6164246E-4,-3.3671798E-3,2.9836863E-2,6.6768974E-3],"split_indices":[949,1477,4044,0,47503,21785,0,306,77944,0,11307,1540,0,93567,0,4813,4440,4276,4672,0,16097,4892,0,24,522,0,0,0,0,0,0,0,0,0,0,0,0],"split_type":[0,0,0,0,0,0,0,0,0,0,0,0,0,0,0,0,0,0,0,0,0,0,0,0,0,0,0,0,0,0,0,0,0,0,0,0,0],"sum_hessian":[5.957E3,5.824E3,1.33E2,6E0,5.818E3,1.3E2,3E0,1.66E2,5.652E3,3E0,1.27E2,1.61E2,5E0,5.649E3,3E0,1.19E2,8E0,1.54E2,7E0,4E0,5.645E3,1.18E2,1E0,2E0,6E0,3E0,1.51E2,2E0,5E0,9E0,5.636E3,2E0,1.16E2,1E0,1E0,5E0,1E0],"tree_param":{"num_deleted":"0","num_feature":"128104","num_nodes":"37","size_leaf_vector":"1"}},{"base_weights":[-9.700005E-4,5.8479745E-2,-2.8187502E-3,-5.570703E-2,7.701717E-2,-3.4203955E-3,1.7279205E-1,-7.566669E-2,2.2164224E-2,8.428105E-2,-2.2189638E-2,-2.892234E-2,-3.0273567E-3,3.0034077E-1,-1.6472008E-2,1.5801756E-2,-1.0285739E-1,8.9679435E-2,-2.1733101E-2,3.899957E-2,-3.2968165E-3,-7.8787206E-4,3.2907698E-1,-1.6260613E-2,2.212052E-2,8.654463E-3,-1.2501685E-1,-1.4409655E-1,9.697133E-2,-4.311436E-3,8.953681E-2,1.998578E-3,3.579875E-1,-1.168964E-2,5.8679562E-2,7.9982765E-3,-1.5080537E-2,-2.2664702E-2,9.305264E-3,-2.066944E-2,1.0254686E-2,-4.6961659E-4,2.4209548E-2,-1.46770375E-2,9.969066E-3,6.992865E-3,3.822242E-2,-1.0209712E-2,1.0249186E-2],"categories":[],"categories_nodes":[],"categories_segments":[],"categories_sizes":[],"default_left":[0,0,1,1,1,0,0,