{"learner":{"attributes":{"scikit_learn":"{\"_estimator_type\": \"classifier\"}"},"feature_names":[],"feature_types":[],"gradient_booster":{"model":{"gbtree_model_param":{"num_parallel_tree":"1","num_trees":"200"},"iteration_indptr":[0,1,2,3,4,5,6,7,8,9,10,11,12,13,14,15,16,17,18,19,20,21,22,23,24,25,26,27,28,29,30,31,32,33,34,35,36,37,38,39,40,41,42,43,44,45,46,47,48,49,50,51,52,53,54,55,56,57,58,59,60,61,62,63,64,65,66,67,68,69,70,71,72,73,74,75,76,77,78,79,80,81,82,83,84,85,86,87,88,89,90,91,92,93,94,95,96,97,98,99,100,101,102,103,104,105,106,107,108,109,110,111,112,113,114,115,116,117,118,119,120,121,122,123,124,125,126,127,128,129,130,131,132,133,134,135,136,137,138,139,140,141,142,143,144,145,146,147,148,149,150,151,152,153,154,155,156,157,158,159,160,161,162,163,164,165,166,167,168,169,170,171,172,173,174,175,176,177,178,179,180,181,182,183,184,185,186,187,188,189,190,191,192,193,194,195,196,197,198,199,200],"tree_info":[0,0,0,0,0,0,0,0,0,0,0,0,0,0,0,0,0,0,0,0,0,0,0,0,0,0,0,0,0,0,0,0,0,0,0,0,0,0,0,0,0,0,0,0,0,0,0,0,0,0,0,0,0,0,0,0,0,0,0,0,0,0,0,0,0,0,0,0,0,0,0,0,0,0,0,0,0,0,0,0,0,0,0,0,0,0,0,0,0,0,0,0,0,0,0,0,0,0,0,0,0,0,0,0,0,0,0,0,0,0,0,0,0,0,0,0,0,0,0,0,0,0,0,0,0,0,0,0,0,0,0,0,0,0,0,0,0,0,0,0,0,0,0,0,0,0,0,0,0,0,0,0,0,0,0,0,0,0,0,0,0,0,0,0,0,0,0,0,0,0,0,0,0,0,0,0,0,0,0,0,0,0,0,0,0,0,0,0,0,0,0,0,0,0,0,0,0,0,0,0],"trees":[{"base_weights":[3.526798E-3,-1.2375107E-1,9.179915E-3,-6.428546E-3,4.448181E-1,-1.2563492E-2,1.0530726E0,-1.1846762E-1,5.1776487E-1,1.3535245E-1,-1.6883193E-2,1.5443048E-3,1.2813632E-1,-7.307889E-1,6.135201E-1,1.3535245E-1,-2.1224238E-2,-1.1846762E-1,1.5443048E-3,-5.2913297E-2,6.6971684E-1,7.359691E-2,-2.916971E-3,7.224073E-2,-6.52429E-2],"categories":[],"categories_nodes":[],"categories_segments":[],"categories_sizes":[],"default_left":[0,0,1,1,0,0,0,0,0,0,0,0,0,0,0,0,0,0,0,0,1,0,0,0,0],"id":0,"left_children":[1,-1,3,5,7,9,11,-1,13,-1,15,-1,-1,17,19,-1,21,-1,-1,-1,23,-1,-1,-1,-1],"loss_changes":[1.0442025E1,0E0,1.0073162E1,9.313167E0,6.704294E0,8.423141E0,1.9341955E0,0E0,6.395275E0,0E0,8.476397E0,0E0,0E0,1.3729475E0,3.3558598E0,0E0,8.5435915E0,0E0,0E0,0E0,3.6057167E0,0E0,0E0,0E0,0E0],"parents":[2147483647,0,0,2,2,3,3,4,4,5,5,6,6,8,8,10,10,13,13,14,14,16,16,20,20],"right_children":[2,-1,4,6,8,10,12,-1,14,-1,16,-1,-1,18,20,-1,22,-1,-1,-1,24,-1,-1,-1,-1],"split_conditions":[3.5355338E-1,-1.2375107E-1,2.0412415E-1,3.1622776E-1,3.1622776E-1,2.6726124E-1,3.7796447E-1,-1.1846762E-1,2.6726124E-1,1.3535245E-1,5.163978E-1,1.5443048E-3,1.2813632E-1,4.472136E-1,2.773501E-1,1.3535245E-1,3.1622776E-1,-1.1846762E-1,1.5443048E-3,-5.2913297E-2,2.581989E-1,7.359691E-2,-2.916971E-3,7.224073E-2,-6.52429E-2],"split_indices":[170,0,1779,17724,1171,91,8,0,9823,0,2188,0,0,43,731,0,380,0,0,0,340,0,0,0,0],"split_type":[0,0,0,0,0,0,0,0,0,0,0,0,0,0,0,0,0,0,0,0,0,0,0,0,0],"sum_hessian":[1.4857539E3,5.7490478E0,1.4800049E3,1.4297632E3,5.024168E1,1.4225144E3,7.2487993E0,1.4997516E0,4.874193E1,3.4994204E0,1.419015E3,1.4997516E0,5.7490478E0,2.9995031E0,4.5742424E1,3.4994204E0,1.4155156E3,1.4997516E0,1.4997516E0,1.7497102E0,4.3992714E1,1.3747724E1,1.4017678E3,4.274292E1,1.249793E0],"tree_param":{"num_deleted":"0","num_feature":"128104","num_nodes":"25","size_leaf_vector":"1"}},{"base_weights":[-5.6540696E-3,-4.0051156E-1,9.709315E-3,1.0216465E0,-5.00291E-1,8.597596E-1,2.5623194E-3,1.2911291E-1,2.381673E-2,-5.989041E-1,9.5448864E-1,-3.1427484E-2,1.125995E0,1.3473882E-1,-1.6858978E-3,-6.871056E-1,1.019241E-1,2.381673E-2,1.21734135E-1,-2.0632783E-2,1.339907E0,-7.4676657E-3,9.628487E-1,1.1271576E-1,-7.593439E-1,4.1724276E-2,1.4732368E-1,1.0909636E0,-1.2517456E-2,1.1630437E0,1.7193469E-3,-8.3249025E-2,4.8144307E-2,2.381673E-2,1.2486716E-1,-4.02707E-4,-6.792915E-2,1.3226861E-1,2.381673E-2],"categories":[],"categories_nodes":[],"categories_segments":[],"categories_sizes":[],"default_left":[0,0,0,0,1,0,0,0,0,1,0,0,0,0,1,0,0,0,0,0,0,0,0,0,1,0,0,0,1,1,0,0,0,0,0,0,0,0,0],"id":1,"left_children":[1,3,5,7,9,11,13,-1,-1,15,17,-1,19,-1,21,23,-1,-1,-1,-1,25,27,29,-1,31,-1,-1,33,35,37,-1,-1,-1,-1,-1,-1,-1,-1,-1],"loss_changes":[9.069038E0,8.456035E0,8.742261E0,5.369015E-1,8.173515E0,4.103999E0,8.162581E0,0E0,0E0,7.8707047E0,4.16039E-1,0E0,3.1259336E0,0E0,7.9531646E0,7.1782436E0,0E0,0E0,0E0,0E0,4.615202E-1,7.8754835E0,1.588779E0,0E0,4.6656113E0,0E0,0E0,5.764713E-1,7.990003E0,7.1825504E-1,0E0,0E0,0E0,0E0,0E0,0E0,0E0,0E0,0E0],"parents":[2147483647,0,0,1,1,2,2,3,3,4,4,5,5,6,6,9,9,10,10,12,12,14,14,15,15,20,20,21,21,22,22,24,24,27,27,28,28,29,29],"right_children":[2,4,6,8,10,12,14,-1,-1,16,18,-1,20,-1,22,24,-1,-1,-1,-1,26,28,30,-1,32,-1,-1,34,36,38,-1,-1,-1,-1,-1,-1,-1,-1,-1],"split_conditions":[4.170288E-1,2.182179E-1,3.380617E-1,2.085144E-1,2.236068E-1,2.8005603E-1,3.5355338E-1,1.2911291E-1,2.381673E-2,1.796053E-1,3.0151135E-1,-3.1427484E-2,2.182179E-1,1.3473882E-1,2.8867513E-1,2.3570226E-1,1.019241E-1,2.381673E-2,1.21734135E-1,-2.0632783E-2,2.773501E-1,3.3333334E-1,3.5355338E-1,1.1271576E-1,2.5E-1,4.1724276E-2,1.4732368E-1,2.5E-1,2.5E-1,3.3333334E-1,1.7193469E-3,-8.3249025E-2,4.8144307E-2,2.381673E-2,1.2486716E-1,-4.02707E-4,-6.792915E-2,1.3226861E-1,2.381673E-2],"split_indices":[526,1406,520,1028,87070,949,8341,0,0,4602,5411,0,1028,0,42449,5323,0,0,0,0,21264,985,24,0,522,0,0,423,3700,119782,0,0,0,0,0,0,0,0,0],"split_type":[0,0,0,0,0,0,0,0,0,0,0,0,0,0,0,0,0,0,0,0,0,0,0,0,0,0,0,0,0,0,0,0,0,0,0,0,0,0,0],"sum_hessian":[1.493334E3,5.498871E1,1.4383452E3,2.9993842E0,5.1989326E1,1.0997742E1,1.4273475E3,1.7496407E0,1.2497435E0,4.923989E1,2.7494354E0,1.9995894E0,8.998153E0,3.4990978E0,1.4238484E3,4.72403E1,1.9995894E0,1.2497435E0,1.4996921E0,1.2497435E0,7.7484093E0,1.4163506E3,7.4978576E0,1.2497435E0,4.599056E1,1.4996921E0,6.248717E0,5.4974747E0,1.410853E3,5.9981656E0,1.4996921E0,4.374102E1,2.2495382E0,1.2497435E0,4.247731E0,1.3941072E3,1.6745863E1,4.748422E0,1.2497435E0],"tree_param":{"num_deleted":"0","num_feature":"128104","num_nodes":"39","size_leaf_vector":"1"}},{"base_weights":[6.2512383E-3,-1.2513492E0,1.089362E-2,-2.0879108E-2,-1.5088432E-1,9.263255E-1,4.6993694E-3,-5.2703578E-2,1.2985014E0,-1.5706944E-3,9.263255E-1,-2.061047E-2,1.5966217E-1,6.3746436E-3,-7.730342E-1,1.1910887E-1,4.2331553E-1,-1.3150275E-1,1.0685206E-2,-1.104119E0,2.448608E-1,-5.2703578E-2,1.09719835E-1,1.488204E-1,6.856899E-4,-1.2562142E-1,-1.6335053E-2,9.277051E-2,-5.2703578E-2],"categories":[],"categories_nodes":[],"categories_segments":[],"categories_sizes":[],"default_left":[0,0,0,0,0,0,1,0,0,1,1,0,0,0,1,0,1,0,0,1,0,0,0,0,0,0,0,0,0],"id":2,"left_children":[1,3,5,-1,-1,7,9,-1,11,13,15,-1,-1,17,19,-1,21,-1,23,25,27,-1,-1,-1,-1,-1,-1,-1,-1],"loss_changes":[8.729273E0,1.1612282E0,8.435205E0,0E0,0E0,6.092388E0,8.5501175E0,0E0,4.0289545E0,9.017515E0,8.273258E-1,0E0,0E0,8.309438E0,5.324504E0,0E0,3.7798493E0,0E0,8.206351E0,1.439971E0,2.8604276E0,0E0,0E0,0E0,0E0,0E0,0E0,0E0,0E0],"parents":[2147483647,0,0,1,1,2,2,5,5,6,6,8,8,9,9,10,10,13,13,14,14,16,16,18,18,19,19,20,20],"right_children":[2,4,6,-1,-1,8,10,-1,12,14,16,-1,-1,18,20,-1,22,-1,24,26,28,-1,-1,-1,-1,-1,-1,-1,-1],"split_conditions":[6.3246554E-1,2.3570226E-1,2.4253562E-1,-2.0879108E-2,-1.5088432E-1,2.236068E-1,1.9611613E-1,-5.2703578E-2,2.4253562E-1,2.4253562E-1,2.6726124E-1,-2.061047E-2,1.5966217E-1,3.1622776E-1,2.8867513E-1,1.1910887E-1,2.773501E-1,-1.3150275E-1,3.1622776E-1,2.6726124E-1,3.5355338E-1,-5.2703578E-2,1.09719835E-1,1.488204E-1,6.856899E-4,-1.2562142E-1,-1.6335053E-2,9.277051E-2,-5.2703578E-2],"split_indices":[7582,14529,6467,0,0,4211,13778,0,4120,58129,545,0,0,11195,790,0,24,0,260,474,24,0,0,0,0,0,0,0,0],"split_type":[0,0,0,0,0,0,0,0,0,0,0,0,0,0,0,0,0,0,0,0,0,0,0,0,0,0,0,0,0],"sum_hessian":[1.4918489E3,4.499153E0,1.4873497E3,1.2497876E0,3.2493656E0,8.998101E0,1.4783517E3,1.7496307E0,7.2484703E0,1.4693535E3,8.998101E0,1.2497363E0,5.998734E0,1.4553564E3,1.39970455E1,4.998945E0,3.999156E0,3.7434115E0,1.451613E3,1.0497785E1,3.4992614E0,1.7496307E0,2.2495253E0,2.7494197E0,1.4488636E3,8.748154E0,1.7496307E0,1.7496307E0,1.7496307E0],"tree_param":{"num_deleted":"0","num_feature":"128104","num_nodes":"29","size_leaf_vector":"1"}},{"base_weights":[1.0876314E-2,1.4538443E-2,-1.4460759E-1,9.189089E-1,8.880431E-3,-1.2042507E-2,1.2654893E-1,-1.461489E-1,1.2604922E-2,6.575277E-2,-6.762616E-2,1.1172035E0,7.922631E-3,1.3645266E-1,5.8734363E-1,1.0808066E0,3.1647151E-3,-2.9395461E-2,1.14351444E-1,1.427711E-1,5.070157E-2,9.7493635E-4,-7.642868E-2],"categories":[],"categories_nodes":[],"categories_segments":[],"categories_sizes":[],"default_left":[1,0,0,0,0,0,0,0,0,0,0,1,0,0,1,1,1,0,0,0,0,0,0],"id":3,"left_children":[1,3,-1,5,7,9,-1,-1,11,-1,-1,13,15,-1,17,19,21,-1,-1,-1,-1,-1,-1],"loss_changes":[7.9788337E0,7.609534E0,0E0,2.9985251E0,8.1260605E0,2.0007973E0,0E0,0E0,7.634021E0,0E0,0E0,1.5020847E-2,7.513214E0,0E0,2.1685371E0,5.696182E-1,7.4207706E0,0E0,0E0,0E0,0E0,0E0,0E0],"parents":[2147483647,0,0,1,1,3,3,4,4,5,5,8,8,11,11,12,12,14,14,15,15,16,16],"right_children":[2,4,-1,6,8,10,-1,-1,12,-1,-1,14,16,-1,18,20,22,-1,-1,-1,-1,-1,-1],"split_conditions":[3.3333334E-1,2.3570226E-1,-1.4460759E-1,5E-1,3.1622776E-1,2.3570226E-1,1.2654893E-1,-1.461489E-1,3.3333334E-1,6.575277E-2,-6.762616E-2,2.236068E-1,3.0151135E-1,1.3645266E-1,2.3570226E-1,2.3570226E-1,2.3570226E-1,-2.9395461E-2,1.14351444E-1,1.427711E-1,5.070157E-2,9.7493635E-4,-7.642868E-2],"split_indices":[380,623,0,2309,24652,94,0,0,985,0,0,2282,10212,0,14529,24,1948,0,0,0,0,0,0],"split_type":[0,0,0,0,0,0,0,0,0,0,0,0,0,0,0,0,0,0,0,0,0,0,0],"sum_hessian":[1.4904703E3,1.4877208E3,2.7494466E0,8.246216E0,1.4794746E3,2.4989703E0,5.747246E0,2.7491632E0,1.4767255E3,1.2494891E0,1.2494811E0,5.230358E0,1.4714951E3,2.4919367E0,2.7384214E0,5.4983025E0,1.4659968E3,1.241937E0,1.4964845E0,2.4991512E0,2.9991515E0,1.4545046E3,1.149219E1],"tree_param":{"num_deleted":"0","num_feature":"128104","num_nodes":"23","size_leaf_vector":"1"}},{"base_weights":[-1.9388646E-2,-2.7461592E-2,8.68798E-1,-3.38672E-2,8.3209753E-1,1.1547344E0,-2.7717495E-1,1.5112245E-1,-3.8052265E-2,9.8660594E-1,-2.0702451E-2,1.3085378E0,3.0823827E-2,-6.524985E-2,2.2148391E-2,5.7496023E-1,-4.7228202E-2,-2.011287E-2,1.1849548E0,2.3746626E-2,1.4508414E-1,-6.5151535E-2,6.8163097E-1,-5.16355E-2,1.2354054E0,1.5787072E-1,5.418477E-1,-3.9624505E-2,7.876564E-2,-5.637209E-3,1.0469835E-1,2.3746626E-2,1.5049069E-1,-3.2502502E-2,1.2903143E-1],"categories":[],"categories_nodes":[],"categories_segments":[],"categories_sizes":[],"default_left":[1,1,1,0,1,1,1,0,0,0,0,0,0,0,0,0,1,0,1,0,0,0,0,1,0,0,0,0,0,0,0,0,0,0,0],"id":4,"left_children":[1,3,5,7,9,11,13,-1,15,17,-1,19,-1,-1,-1,21,23,-1,25,-1,-1,-1,27,29,31,-1,33,-1,-1,-1,-1,-1,-1,-1,-1],"loss_changes":[1.0733123E1,8.182996E0,4.738344E0,9.569993E0,1.9694953E0,1.0268078E0,7.9938114E-1,0E0,8.285083E0,2.53411E0,0E0,1.0253391E0,0E0,0E0,0E0,3.2866158E0,8.245633E0,0E0,1.2958755E0,0E0,0E0,0E0,2.6522894E0,7.569847E0,9.8639727E-1,0E0,3.5005434E0,0E0,0E0,0E0,0E0,0E0,0E0,0E0,0E0],"parents":[2147483647,0,0,1,1,2,2,3,3,4,4,5,5,6,6,8,8,9,9,11,11,15,15,16,16,18,18,22,22,23,23,24,24,26,26],"right_children":[2,4,6,8,10,12,14,-1,16,18,-1,20,-1,-1,-1,22,24,-1,26,-1,-1,-1,28,30,32,-1,34,-1,-1,-1,-1,-1,-1,-1,-1],"split_conditions":[2.236068E-1,1.7677669E-1,2.8867513E-1,2.6726124E-1,2.5E-1,2.6726124E-1,3.0151135E-1,1.5112245E-1,3.1622776E-1,2.2941573E-1,-2.0702451E-2,3.1622776E-1,3.0823827E-2,-6.524985E-2,2.2148391E-2,2.3570226E-1,3.1622776E-1,-2.011287E-2,2.5E-1,2.3746626E-2,1.4508414E-1,-6.5151535E-2,2.773501E-1,4.364358E-1,7.5593895E-1,1.5787072E-1,2.6726124E-1,-3.9624505E-2,7.876564E-2,-5.637209E-3,1.0469835E-1,2.3746626E-2,1.5049069E-1,-3.2502502E-2,1.2903143E-1],"split_indices":[17724,9983,8,6489,15476,8628,8628,0,41918,4211,0,1197,0,0,0,419,50560,0,22,0,0,0,218,43,12354,0,9983,0,0,0,0,0,0,0,0],"split_type":[0,0,0,0,0,0,0,0,0,0,0,0,0,0,0,0,0,0,0,0,0,0,0,0,0,0,0,0,0,0,0,0,0,0,0],"sum_hessian":[1.4925623E3,1.4800785E3,1.2483715E1,1.4700837E3,9.994759E0,9.984737E0,2.4989777E0,2.9984052E0,1.4670853E3,8.744993E0,1.2497655E0,7.9876065E0,1.9971311E0,1.2497935E0,1.2491841E0,2.0727001E1,1.4463584E3,1.2494049E0,7.4955883E0,1.2497655E0,6.737841E0,1.2497655E0,1.9477236E1,1.4423619E3,3.996402E0,3.7467623E0,3.7488263E0,1.4991641E0,1.7978071E1,1.4371146E3,5.2472878E0,1.2497655E0,2.7466364E0,1.9991546E0,1.7496717E0],"tree_param":{"num_deleted":"0","num_feature":"128104","num_nodes":"35","size_leaf_vector":"1"}},{"base_weights":[-1.5599146E-2,-1.9996302E-2,1.23788774E-1,1.2495496E-1,-2.4007091E-2,1.3154961E-1,-2.7822236E-2,-4.4003442E-2,2.8048548E-1,-4.9590997E-2,8.869224E-1,-1.18981756E-1,3.3222386E-1,9.772038E-2,-5.4684333E-3,1.0351632E-1,2.0151807E-2,3.8081322E-2,-1.18037485E-1],"categories":[],"categories_nodes":[],"categories_segments":[],"categories_sizes":[],"default_left":[1,0,0,0,0,0,1,1,0,0,0,0,1,0,0,0,0,0,0],"id":5,"left_children":[1,3,-1,-1,5,-1,7,9,11,13,15,-1,17,-1,-1,-1,-1,-1,-1],"loss_changes":[8.274712E0,7.6298323E0,0E0,0E0,7.645062E0,0E0,7.423546E0,7.390486E0,6.040995E0,7.40067E0,6.529579E-1,0E0,5.776146E0,0E0,0E0,0E0,0E0,0E0,0E0],"parents":[2147483647,0,0,1,1,4,4,6,6,7,7,8,8,9,9,10,10,12,12],"right_children":[2,4,-1,-1,6,-1,8,10,12,14,16,-1,18,-1,-1,-1,-1,-1,-1],"split_conditions":[1.6903085E-1,2.4253562E-1,1.23788774E-1,1.2495496E-1,2.6726124E-1,1.3154961E-1,2.085144E-1,2.8867513E-1,3.7796447E-1,2.8867513E-1,3.5355338E-1,-1.18981756E-1,3.1622776E-1,9.772038E-2,-5.4684333E-3,1.0351632E-1,2.0151807E-2,3.8081322E-2,-1.18037485E-1],"split_indices":[3931,985,0,0,415,0,86932,42449,170,15986,24,0,126,0,0,0,0,0,0],"split_type":[0,0,0,0,0,0,0,0,0,0,0,0,0,0,0,0,0,0,0],"sum_hessian":[1.4957875E3,1.4915393E3,4.248182E0,3.7192786E0,1.4878201E3,3.249093E0,1.4845709E3,1.4113547E3,7.32162E1,1.4038752E3,7.479536E0,1.7410886E0,7.147511E1,5.9873714E0,1.3978878E3,5.7299542E0,1.749582E0,6.9975525E1,1.499591E0],"tree_param":{"num_deleted":"0","num_feature":"128104","num_nodes":"19","size_leaf_vector":"1"}},{"base_weights":[2.661834E-2,2.0601232E-2,1.1368923E0,1.483545E-1,1.6872473E-2,1.4266355E-1,4.2834768E-1,2.320016E-2,-8.096425E-2,-2.0087624E-2,8.232813E-2,2.7550252E-2,-1.1936846E0,3.2893073E-2,-8.9109325E-1,-1.4584233E-1,-1.9235164E-2,8.9671545E-2,2.6457726E-3,-1.06321834E-1,-1.4432959E-2],"categories":[],"categories_nodes":[],"categories_segments":[],"categories_sizes":[],"default_left":[1,0,1,0,1,0,0,1,0,0,0,1,1,0,1,0,0,0,0,0,0],"id":6,"left_children":[1,3,5,-1,7,-1,9,11,-1,-1,-1,13,15,17,19,-1,-1,-1,-1,-1,-1],"loss_changes":[9.905929E0,8.04447E0,1.0298405E0,0E0,7.7410097E0,0E0,1.0970058E0,7.794831E0,0E0,0E0,0E0,7.2052865E0,1.1100287E0,8.06219E0,9.3778706E-1,0E0,0E0,0E0,0E0,0E0,0E0],"parents":[2147483647,0,0,1,1,2,2,4,4,6,6,7,7,11,11,12,12,13,13,14,14],"right_children":[2,4,6,-1,8,-1,10,12,-1,-1,-1,14,16,18,20,-1,-1,-1,-1,-1,-1],"split_conditions":[1.5811388E-1,3.1622776E-1,2.581989E-1,1.483545E-1,3.0151135E-1,1.4266355E-1,2.773501E-1,2.581989E-1,-8.096425E-2,-2.0087624E-2,8.232813E-2,2.4253562E-1,2.773501E-1,2.5E-1,2.8867513E-1,-1.4584233E-1,-1.9235164E-2,8.9671545E-2,2.6457726E-3,-1.06321834E-1,-1.4432959E-2],"split_indices":[16160,90,22,0,6653,0,22,943,0,0,0,606,2282,382,2282,0,0,0,0,0,0],"split_type":[0,0,0,0,0,0,0,0,0,0,0,0,0,0,0,0,0,0,0,0,0],"sum_hessian":[1.485288E3,1.4782949E3,6.993033E0,2.7493453E0,1.4755455E3,4.244052E0,2.748981E0,1.4652993E3,1.0246202E1,1.2495369E0,1.4994442E0,1.4610538E3,4.245581E0,1.4535641E3,7.4897184E0,2.9967895E0,1.2487917E0,9.725747E0,1.4438383E3,5.7423654E0,1.7473531E0],"tree_param":{"num_deleted":"0","num_feature":"128104","num_nodes":"21","size_leaf_vector":"1"}},{"base_weights":[-4.024883E-3,1.485298E-3,-1.0677353E-1,-4.2626816E-1,1.5526412E-2,-5.705784E-1,7.8590953E-1,2.3031043E-2,-7.0423317E-1,1.1433239E-1,-6.489576E-1,-2.4419038E-2,1.4426231E-1,2.654656E-2,-1.4235541E-1,-9.563033E-1,1.586496E-1,-7.295973E-1,1.0965729E-1,3.0740248E-2,-1.1778156E-1,-1.2245389E0,2.561459E-2,-3.6393717E-2,5.7579856E-2,2.4968658E-2,-8.5815266E-2,3.5217374E-3,-1.0849688E-1,-3.4081426E-2,-1.64623E-1,2.4218334E-2,-2.0234047E-2],"categories":[],"categories_nodes":[],"categories_segments":[],"categories_sizes":[],"default_left":[1,0,0,1,1,0,1,1,1,0,1,0,0,1,0,1,0,0,0,1,0,1,1,0,0,0,0,0,0,0,0,0,0],"id":7,"left_children":[1,3,-1,5,7,9,11,13,15,-1,17,-1,-1,19,-1,21,23,25,-1,27,-1,29,31,-1,-1,-1,-1,-1,-1,-1,-1,-1,-1],"loss_changes":[8.810633E0,8.992917E0,0E0,8.772792E0,7.846276E0,6.532284E0,4.0615363E0,7.3385763E0,3.4121614E0,0E0,6.691761E0,0E0,0E0,7.2744474E0,0E0,3.124402E0,1.1353167E0,5.3266087E0,0E0,7.1768703E0,0E0,2.8838701E0,2.2175163E-1,0E0,0E0,0E0,0E0,0E0,0E0,0E0,0E0,0E0,0E0],"parents":[2147483647,0,0,1,1,3,3,4,4,5,5,6,6,7,7,8,8,10,10,13,13,15,15,16,16,17,17,19,19,21,21,22,22],"right_children":[2,4,-1,6,8,10,12,14,16,-1,18,-1,-1,20,-1,22,24,26,-1,28,-1,30,32,-1,-1,-1,-1,-1,-1,-1,-1,-1,-1],"split_conditions":[2.236068E-1,3.086067E-1,-1.0677353E-1,1.2598816E-1,2.5400025E-1,2.773501E-1,1.3483997E-1,2.182179E-1,2.581989E-1,1.1433239E-1,2.2941573E-1,-2.4419038E-2,1.4426231E-1,2.8867513E-1,-1.4235541E-1,2.773501E-1,3.0151135E-1,3.0151135E-1,1.0965729E-1,2.1320072E-1,-1.1778156E-1,1.8569534E-1,3.0151135E-1,-3.6393717E-2,5.7579856E-2,2.4968658E-2,-8.5815266E-2,3.5217374E-3,-1.0849688E-1,-3.4081426E-2,-1.64623E-1,2.4218334E-2,-2.0234047E-2],"split_indices":[56,526,0,17,4039,57308,1028,4891,9007,0,1452,0,0,87070,0,545,242,55777,0,41734,0,24,22,0,0,0,0,0,0,0,0,0,0],"split_type":[0,0,0,0,0,0,0,0,0,0,0,0,0,0,0,0,0,0,0,0,0,0,0,0,0,0,0,0,0,0,0,0,0],"sum_hessian":[1.5019333E3,1.4951866E3,6.74669E0,4.658695E1,1.4485997E3,4.210377E1,4.483176E0,1.4346096E3,1.3990069E1,1.2470783E0,4.0856693E1,1.9899567E0,2.4932194E0,1.432111E3,2.4986935E0,1.0743386E1,3.2466834E0,3.960887E1,1.2478232E0,1.4281127E3,3.9983304E0,8.244189E0,2.4991968E0,1.4978279E0,1.7488555E0,4.486934E0,3.5121937E1,1.4233694E3,4.7432733E0,3.247247E0,4.9969425E0,1.2495984E0,1.2495984E0],"tree_param":{"num_deleted":"0","num_feature":"128104","num_nodes":"33","size_leaf_vector":"1"}},{"base_weights":[6.8474994E-3,1.3341903E-3,1.0680985E0,-1.3300887E-1,5.363053E-3,1.2630153E0,3.3878535E-2,9.0201795E-3,-1.4432333E-1,2.3813313E-2,1.494421E-1,-5.784408E-3,3.5034424E-1,1.1159599E0,-1.0513462E-2,-8.103068E-2,3.9270848E-1,1.739369E-2,1.3262634E-1,1.3191055E-1,-1.4499611E-3,-5.739181E-2,4.3144893E-2],"categories":[],"categories_nodes":[],"categories_segments":[],"categories_sizes":[],"default_left":[1,0,1,0,1,0,0,1,0,0,0,0,0,0,0,0,0,0,0,0,0,0,0],"id":8,"left_children":[1,3,5,-1,7,9,-1,11,-1,-1,-1,13,15,17,19,-1,21,-1,-1,-1,-1,-1,-1],"loss_changes":[8.755274E0,7.999034E0,6.7148685E-1,0E0,7.887424E0,1.0045185E0,0E0,7.4990635E0,0E0,0E0,0E0,7.5601325E0,3.3516264E0,9.546094E-1,7.5343843E0,0E0,2.5017061E0,0E0,0E0,0E0,0E0,0E0,0E0],"parents":[2147483647,0,0,1,1,2,2,4,4,5,5,7,7,11,11,12,12,13,13,14,14,16,16],"right_children":[2,4,6,-1,8,10,-1,12,-1,-1,-1,14,16,18,20,-1,22,-1,-1,-1,-1,-1,-1],"split_conditions":[2.182179E-1,3.1622776E-1,2.581989E-1,-1.3300887E-1,3.0151135E-1,3.3333334E-1,3.3878535E-2,2.5E-1,-1.4432333E-1,2.3813313E-2,1.494421E-1,2.8867513E-1,2.773501E-1,2.2941573E-1,3.3333334E-1,-8.103068E-2,3.380617E-1,1.739369E-2,1.3262634E-1,1.3191055E-1,-1.4499611E-3,-5.739181E-2,4.3144893E-2],"split_indices":[415,1003,14529,0,7546,1625,0,43,0,0,0,6489,972,22,12533,0,754,0,0,0,0,0,0],"split_type":[0,0,0,0,0,0,0,0,0,0,0,0,0,0,0,0,0,0,0,0,0,0,0],"sum_hessian":[1.4956145E3,1.488881E3,6.733634E0,3.4987698E0,1.4853822E3,4.7360787E0,1.9975549E0,1.4826329E3,2.7492814E0,1.2461276E0,3.4899511E0,1.4219407E3,6.0692192E1,4.9829884E0,1.4169576E3,1.4989307E0,5.919326E1,1.2428601E0,3.740128E0,3.2491508E0,1.4137085E3,1.7486098E0,5.7444653E1],"tree_param":{"num_deleted":"0","num_feature":"128104","num_nodes":"23","size_leaf_vector":"1"}},{"base_weights":[-2.4808025E-2,-2.0883324E-2,-1.4035222E-1,1.0181205E0,-2.5763106E-2,1.218453E-1,3.4408648E-2,-3.1004343E-2,8.6787534E-1,9.6272236E-1,-3.568622E-2,-5.773893E-3,1.06773E0,1.355499E-1,-9.2223287E-4,-3.0127976E-2,-9.660881E-1,1.4812735E-1,2.8539544E-2,-3.5315068E-3,8.653052E-2,-1.0815141E-1,-1.5156019E-2],"categories":[],"categories_nodes":[],"categories_segments":[],"categories_sizes":[],"default_left":[1,0,0,1,1,0,0,0,0,1,1,0,1,0,0,1,1,0,0,0,0,0,0],"id":9,"left_children":[1,3,-1,5,7,-1,-1,9,11,13,15,-1,17,-1,-1,19,21,-1,-1,-1,-1,-1,-1],"loss_changes":[8.053193E0,7.5831356E0,0E0,5.2490234E-1,6.9799156E0,0E0,0E0,6.9051704E0,1.66926E0,2.6698952E0,7.5771847E0,0E0,1.9061623E0,0E0,0E0,6.8263717E0,6.542692E-1,0E0,0E0,0E0,0E0,0E0,0E0],"parents":[2147483647,0,0,1,1,3,3,4,4,7,7,8,8,9,9,10,10,12,12,15,15,16,16],"right_children":[2,4,-1,6,8,-1,-1,10,12,14,16,-1,18,-1,-1,20,22,-1,-1,-1,-1,-1,-1],"split_conditions":[3.3333334E-1,3.1622776E-1,-1.4035222E-1,2.5E-1,2.581989E-1,1.218453E-1,3.4408648E-2,2.6726124E-1,3.7796447E-1,2.1320072E-1,2.4253562E-1,-5.773893E-3,2.8867513E-1,1.355499E-1,-9.2223287E-4,1.5811388E-1,2.773501E-1,1.4812735E-1,2.8539544E-2,-3.5315068E-3,8.653052E-2,-1.0815141E-1,-1.5156019E-2],"split_indices":[380,11857,0,242,42449,0,0,2472,116001,382,606,0,1513,0,0,16160,14529,0,0,0,0,0,0],"split_type":[0,0,0,0,0,0,0,0,0,0,0,0,0,0,0,0,0,0,0,0,0,0,0],"sum_hessian":[1.4927062E3,1.4894812E3,3.2248676E0,5.992145E0,1.4834891E3,3.9965975E0,1.9955477E0,1.4757988E3,7.6903343E0,5.9609537E0,1.4698378E3,1.4918802E0,6.1984544E0,3.9642985E0,1.9966552E0,1.4621354E3,7.7024493E0,3.4705262E0,2.7279282E0,1.4546693E3,7.4660864E0,6.4593244E0,1.2431248E0],"tree_param":{"num_deleted":"0","num_feature":"128104","num_nodes":"23","size_leaf_vector":"1"}},{"base_weights":[6.3311337E-3,1.8429395E-3,1.1578636E0,-1.926023E-3,1.3070129E-1,4.2893607E-2,1.3139047E-1,-8.160387E-3,7.577623E-1,3.8808236E-1,-2.0586472E-2,-2.0153254E-2,8.8813597E-1,-7.756466E-2,5.988544E-1,-1.2082311E-1,-1.616041E-2,1.521221E-1,1.1223388E0,-9.062028E-2,1.8797051E-2,4.2094782E-2,1.4302474E-1,-1.0773309E-3,-9.054316E-2,2.239161E-3,2.2863036E-2,2.0598454E-2,1.2613367E-1],"categories":[],"categories_nodes":[],"categories_segments":[],"categories_sizes":[],"default_left":[1,1,0,1,0,0,0,0,0,0,0,0,0,0,1,0,1,0,0,0,0,0,0,0,0,0,0,0,0],"id":10,"left_children":[1,3,5,7,-1,-1,-1,9,11,13,15,-1,17,19,21,-1,23,25,27,-1,-1,-1,-1,-1,-1,-1,-1,-1,-1],"loss_changes":[7.645301E0,7.257936E0,8.966446E-2,6.9763575E0,0E0,0E0,0E0,7.2001004E0,1.6785045E0,4.410461E0,7.430294E0,0E0,1.6806192E0,3.4137387E0,3.9423695E0,0E0,6.7592864E0,3.2094933E-2,7.579794E-1,0E0,0E0,0E0,0E0,0E0,0E0,0E0,0E0,0E0,0E0],"parents":[2147483647,0,0,1,1,2,2,3,3,7,7,8,8,9,9,10,10,12,12,13,13,14,14,16,16,17,17,18,18],"right_children":[2,4,6,8,-1,-1,-1,10,12,14,16,-1,18,20,22,-1,24,26,28,-1,-1,-1,-1,-1,-1,-1,-1,-1,-1],"split_conditions":[2.773501E-1,2.6726124E-1,3.3333334E-1,3.1622776E-1,1.3070129E-1,4.2893607E-2,1.3139047E-1,5.345225E-1,3.5355338E-1,3.2879797E-1,2.5E-1,-2.0153254E-2,4.082483E-1,3.3333334E-1,2.5E-1,-1.2082311E-1,3.5355338E-1,4.082483E-1,4.082483E-1,-9.062028E-2,1.8797051E-2,4.2094782E-2,1.4302474E-1,-1.0773309E-3,-9.054316E-2,2.239161E-3,2.2863036E-2,2.0598454E-2,1.2613367E-1],"split_indices":[1206,23200,13844,8628,0,0,0,28,34226,1197,1197,0,8,322,117,0,306,121905,118791,0,0,0,0,0,0,0,0,0,0],"split_type":[0,0,0,0,0,0,0,0,0,0,0,0,0,0,0,0,0,0,0,0,0,0,0,0,0,0,0,0,0],"sum_hessian":[1.4786804E3,1.4739373E3,4.743193E0,1.4706888E3,3.24841E0,1.4973522E0,3.2458408E0,1.4596991E3,1.0989727E1,4.3464752E1,1.4162344E3,1.249565E0,9.740162E0,1.3740541E1,2.972421E1,4.248521E0,1.4119858E3,2.7493844E0,6.9907775E0,2.749043E0,1.0991499E1,2.5725603E1,3.9986079E0,1.4044897E3,7.49612E0,1.499478E0,1.2499065E0,1.247626E0,5.743151E0],"tree_param":{"num_deleted":"0","num_feature":"128104","num_nodes":"29","size_leaf_vector":"1"}},{"base_weights":[1.7410317E-2,2.1808872E-2,-1.3560772E-1,2.8146096E-2,-8.6941594E-1,2.3123318E-2,1.1131492E0,-1.0553291E0,2.8068168E-2,2.6758296E-2,-1.401364E-1,1.4395155E-1,-1.764629E-3,-1.249823E0,-1.4197667E-2,-1.23444036E-1,3.0821592E-2,-4.8334118E-2,-1.3982412E-1,3.561103E-3,-9.665968E-2],"categories":[],"categories_nodes":[],"categories_segments":[],"categories_sizes":[],"default_left":[1,1,0,1,1,1,1,1,0,0,0,0,0,0,0,0,1,0,0,0,0],"id":11,"left_children":[1,3,-1,5,7,9,11,13,-1,15,-1,-1,-1,17,-1,-1,19,-1,-1,-1,-1],"loss_changes":[8.980281E0,8.371072E0,0E0,7.976427E0,2.5339332E0,7.6108966E0,2.514636E0,1.4602823E0,0E0,7.519349E0,0E0,0E0,0E0,1.7425251E-1,0E0,0E0,6.9906163E0,0E0,0E0,0E0,0E0],"parents":[2147483647,0,0,1,1,3,3,4,4,5,5,6,6,7,7,9,9,13,13,16,16],"right_children":[2,4,-1,6,8,10,12,14,-1,16,-1,-1,-1,18,-1,-1,20,-1,-1,-1,-1],"split_conditions":[2.773501E-1,3.0151135E-1,-1.3560772E-1,2.8867513E-1,3.1622776E-1,2.581989E-1,3.0151135E-1,3.0151135E-1,2.8068168E-2,6.3246554E-1,-1.401364E-1,1.4395155E-1,-1.764629E-3,3.5355338E-1,-1.4197667E-2,-1.23444036E-1,3.0151135E-1,-4.8334118E-2,-1.3982412E-1,3.561103E-3,-9.665968E-2],"split_indices":[167,1029,0,206,526,25923,86932,949,0,7582,0,0,0,57308,0,0,566,0,0,0,0],"split_type":[0,0,0,0,0,0,0,0,0,0,0,0,0,0,0,0,0,0,0,0,0],"sum_hessian":[1.4805718E3,1.4768263E3,3.7453713E0,1.4673608E3,9.46553E0,1.461616E3,5.74491E0,8.219284E0,1.2462461E0,1.4588744E3,2.7415113E0,4.246335E0,1.4985745E0,6.4725876E0,1.7466964E0,3.7126374E0,1.4551617E3,1.7405281E0,4.7320595E0,1.4491674E3,5.9943676E0],"tree_param":{"num_deleted":"0","num_feature":"128104","num_nodes":"21","size_leaf_vector":"1"}},{"base_weights":[-7.7419714E-3,-1.1068301E0,-2.5719935E-3,-1.2733569E0,-1.8903835E-2,1.5862304E-3,-1.3045156E-1,-1.4999637E-1,-3.7917178E-2,-1.04866855E-1,6.5393797E-3,1.0177945E-2,-1.4282693E-1,5.509425E-3,1.1107751E0,1.1541122E-1,1.7936224E-4,3.1221895E-2,1.2958673E-1],"categories":[],"categories_nodes":[],"categories_segments":[],"categories_sizes":[],"default_left":[0,1,1,1,0,0,0,0,0,0,1,1,0,0,0,0,0,0,0],"id":12,"left_children":[1,3,5,7,-1,9,-1,-1,-1,-1,11,13,-1,15,17,-1,-1,-1,-1],"loss_changes":[8.48545E0,8.2785416E-1,8.056856E0,5.950422E-1,0E0,7.727218E0,0E0,0E0,0E0,0E0,7.731284E0,7.574596E0,0E0,6.2724977E0,5.1577234E-1,0E0,0E0,0E0,0E0],"parents":[2147483647,0,0,1,1,2,2,3,3,5,5,10,10,11,11,13,13,14,14],"right_children":[2,4,6,8,-1,10,-1,-1,-1,-1,12,14,-1,16,18,-1,-1,-1,-1],"split_conditions":[3.0151135E-1,2.5E-1,1.3736056E-1,1.9611613E-1,-1.8903835E-2,2.5E-1,-1.3045156E-1,-1.4999637E-1,-3.7917178E-2,-1.04866855E-1,2.3570226E-1,2.8867513E-1,-1.4282693E-1,7.3030674E-1,3.1622776E-1,1.1541122E-1,1.7936224E-4,3.1221895E-2,1.2958673E-1],"split_indices":[19896,545,2992,4120,0,1197,0,0,0,0,1056,206,0,35396,86932,0,0,0,0],"split_type":[0,0,0,0,0,0,0,0,0,0,0,0,0,0,0,0,0,0,0],"sum_hessian":[1.4928239E3,5.9915395E0,1.4868323E3,4.7434583E0,1.2480808E0,1.4830942E3,3.7380118E0,3.2439134E0,1.4995451E0,5.972541E0,1.4771217E3,1.4743757E3,2.7459977E0,1.4691489E3,5.226839E0,3.7391315E0,1.4654098E3,1.489107E0,3.7377317E0],"tree_param":{"num_deleted":"0","num_feature":"128104","num_nodes":"19","size_leaf_vector":"1"}},{"base_weights":[2.0222751E-2,-8.5713506E-1,2.5515081E-2,-2.959173E-1,-1.2017907E-1,2.9242339E-2,-1.2159445E-1,-8.28659E-2,6.6387005E-2,2.2319445E-2,6.628573E-1,9.077223E-1,1.7312E-2,8.2413393E-1,-3.1029586E-2,-1.2635968E-3,1.1140652E0,2.2276398E-2,-1.0171199E-1,2.2862716E-2,8.9045227E-1,2.2414556E-2,1.275558E-1,1.8653866E-3,1.2566885E-1,9.630622E-2,3.4553E-2],"categories":[],"categories_nodes":[],"categories_segments":[],"categories_sizes":[],"default_left":[0,0,1,0,0,1,0,0,0,0,1,0,1,0,0,0,0,1,0,0,1,0,0,0,0,0,0],"id":13,"left_children":[1,3,5,7,-1,9,-1,-1,-1,11,13,15,17,19,-1,-1,21,23,-1,-1,25,-1,-1,-1,-1,-1,-1],"loss_changes":[6.958704E0,1.3826189E0,6.9114904E0,2.9767256E0,0E0,6.488104E0,0E0,0E0,0E0,6.4906464E0,2.764975E0,1.5776901E0,7.5216603E0,3.4886646E-1,0E0,0E0,6.822748E-1,6.4796576E0,0E0,0E0,1.5158272E-1,0E0,0E0,0E0,0E0,0E0,0E0],"parents":[2147483647,0,0,1,1,2,2,3,3,5,5,9,9,10,10,11,11,12,12,13,13,16,16,17,17,20,20],"right_children":[2,4,6,8,-1,10,-1,-1,-1,12,14,16,18,20,-1,-1,22,24,-1,-1,26,-1,-1,-1,-1,-1,-1],"split_conditions":[3.0151135E-1,2.3570226E-1,2.773501E-1,2.236068E-1,-1.2017907E-1,3.3333334E-1,-1.2159445E-1,-8.28659E-2,6.6387005E-2,2.581989E-1,3.7796447E-1,2.5E-1,2.2941573E-1,4.5883146E-1,-3.1029586E-2,-1.2635968E-3,2.0412415E-1,1.9245009E-1,-1.0171199E-1,2.2862716E-2,3.5355338E-1,2.2414556E-2,1.275558E-1,1.8653866E-3,1.2566885E-1,9.630622E-2,3.4553E-2],"split_indices":[810,24,167,24,0,13844,0,0,0,911,1625,1779,21483,1308,0,0,24,1452,0,0,14529,0,0,0,0,0,0],"split_type":[0,0,0,0,0,0,0,0,0,0,0,0,0,0,0,0,0,0,0,0,0,0,0,0,0,0,0],"sum_hessian":[1.4929557E3,7.9865956E0,1.4849691E3,3.7457752E0,4.240821E0,1.4814976E3,3.4714813E0,2.4966187E0,1.2491565E0,1.4665096E3,1.4987894E1,7.233466E0,1.4592762E3,1.2988495E1,1.9993997E0,1.4966537E0,5.7368126E0,1.4532802E3,5.99605E0,1.7471693E0,1.1241325E1,1.2479328E0,4.4888797E0,1.4500399E3,3.240206E0,9.242448E0,1.9988776E0],"tree_param":{"num_deleted":"0","num_feature":"128104","num_nodes":"27","size_leaf_vector":"1"}},{"base_weights":[-6.580905E-3,-1.3338561E-2,7.847585E-1,-1.7109446E-2,1.3079177E-1,1.2262659E0,-6.0303545E-1,-2.2766463E-2,8.645895E-1,1.3398492E0,2.4047175E-2,-1.0531855E-1,4.301013E-3,-2.8269315E-2,8.808878E-2,1.3108954E-1,5.946832E-1,2.434817E-2,1.4899348E-1,-1.2611452E-1,-2.4269527E-2,3.7289798E-1,7.868876E-2,-1.9753198E-3,-1.0827406E-1,5.7883054E-2,8.250624E-4],"categories":[],"categories_nodes":[],"categories_segments":[],"categories_sizes":[],"default_left":[1,1,1,1,0,1,0,1,0,0,0,0,0,0,0,0,0,0,0,0,1,0,0,0,0,0,0],"id":14,"left_children":[1,3,5,7,-1,9,11,13,15,17,-1,-1,-1,19,-1,-1,21,-1,-1,-1,23,25,-1,-1,-1,-1,-1],"loss_changes":[8.032393E0,7.437941E0,8.532295E0,7.4272037E0,0E0,7.95084E-1,1.1329437E0,7.3677425E0,3.6403608E-1,1.0735321E0,0E0,0E0,0E0,7.211757E0,0E0,0E0,3.6777735E-2,0E0,0E0,0E0,6.981614E0,4.0801722E-1,0E0,0E0,0E0,0E0,0E0],"parents":[2147483647,0,0,1,1,2,2,3,3,5,5,6,6,7,7,8,8,9,9,13,13,16,16,20,20,21,21],"right_children":[2,4,6,8,-1,10,12,14,16,18,-1,-1,-1,20,-1,-1,22,-1,-1,-1,24,26,-1,-1,-1,-1,-1],"split_conditions":[1.928473E-1,2.5E-1,2.1320072E-1,2.1320072E-1,1.3079177E-1,2.1320072E-1,2.6726124E-1,2.182179E-1,2.5400025E-1,2.7472112E-1,2.4047175E-2,-1.0531855E-1,4.301013E-3,3.1622776E-1,8.808878E-2,1.3108954E-1,3.1622776E-1,2.434817E-2,1.4899348E-1,-1.2611452E-1,2E-1,2.948839E-1,7.868876E-2,-1.9753198E-3,-1.0827406E-1,5.7883054E-2,8.250624E-4],"split_indices":[668,335,1029,70478,0,55777,24,91,22,522,0,0,0,1003,0,0,24,0,0,0,25923,22,0,0,0,0,0],"split_type":[0,0,0,0,0,0,0,0,0,0,0,0,0,0,0,0,0,0,0,0,0,0,0,0,0,0,0],"sum_hessian":[1.4990985E3,1.4873801E3,1.1718364E1,1.4841315E3,3.248682E0,8.978402E0,2.7399614E0,1.475638E3,8.493578E0,7.728738E0,1.2496641E0,1.2433914E0,1.4965701E0,1.4676692E3,7.968733E0,1.7473612E0,6.746217E0,1.246367E0,6.482371E0,3.7297378E0,1.4639395E3,4.4971066E0,2.2491102E0,1.4587339E3,5.205525E0,2.4986417E0,1.9984647E0],"tree_param":{"num_deleted":"0","num_feature":"128104","num_nodes":"27","size_leaf_vector":"1"}},{"base_weights":[5.386403E-3,1.1960359E0,5.94882E-4,8.559713E-3,1.4662324E-1,1.09308E0,-4.221799E-3,2.5512973E-2,1.2438388E-1,-1.2171634E-1,3.5097855E-5,5.696469E-3,-8.961445E-1,7.8616577E-4,1.0257764E0,-1.1046495E0,2.4157358E-2,1.3528244E-1,-2.9032593E-4,1.1580833E-1,2.3188043E-2,-1.4277415E-1,-2.8170083E-2],"categories":[],"categories_nodes":[],"categories_segments":[],"categories_sizes":[],"default_left":[0,0,0,0,0,0,0,0,0,0,1,1,1,0,0,1,0,0,0,0,0,0,0],"id":15,"left_children":[1,3,5,-1,-1,7,9,-1,-1,-1,11,13,15,17,19,21,-1,-1,-1,-1,-1,-1,-1],"loss_changes":[8.462096E0,1.6582689E0,7.784449E0,0E0,0E0,5.0298643E-1,7.605462E0,0E0,0E0,0E0,7.4572453E0,7.3150897E0,2.4556475E0,7.2597413E0,4.6633673E-1,1.718854E0,0E0,0E0,0E0,0E0,0E0,0E0,0E0],"parents":[2147483647,0,0,1,1,2,2,5,5,6,6,10,10,11,11,12,12,13,13,14,14,15,15],"right_children":[2,4,6,-1,-1,8,10,-1,-1,-1,12,14,16,18,20,22,-1,-1,-1,-1,-1,-1,-1],"split_conditions":[2.8867513E-1,2.3570226E-1,2.773501E-1,8.559713E-3,1.4662324E-1,2.1320072E-1,6.3246554E-1,2.5512973E-2,1.2438388E-1,-1.2171634E-1,2.5E-1,2.5E-1,2.182179E-1,3.5355338E-1,3.3333334E-1,2.8867513E-1,2.4157358E-2,1.3528244E-1,-2.9032593E-4,1.1580833E-1,2.3188043E-2,-1.4277415E-1,-2.8170083E-2],"split_indices":[15986,9007,118453,0,0,177,7582,0,0,0,5564,2141,3877,8341,2141,22,0,0,0,0,0,0,0],"split_type":[0,0,0,0,0,0,0,0,0,0,0,0,0,0,0,0,0,0,0,0,0,0,0],"sum_hessian":[1.4823961E3,4.9451933E0,1.4774509E3,1.2254989E0,3.7196944E0,5.493608E0,1.4719573E3,1.2481909E0,4.245417E0,4.1513886E0,1.4678059E3,1.459579E3,8.2268505E0,1.4535828E3,5.996262E0,6.9772277E0,1.2496225E0,2.9605868E0,1.4506222E3,4.746498E0,1.2497638E0,4.482483E0,2.4947448E0],"tree_param":{"num_deleted":"0","num_feature":"128104","num_nodes":"23","size_leaf_vector":"1"}},{"base_weights":[7.7791354E-3,3.2762394E-3,1.3436528E-1,1.20437285E-2,-6.3090736E-1,1.8741025E-2,-8.0066293E-1,4.2110726E-2,-7.375975E-1,3.1099726E-2,-4.3323353E-1,2.6117232E-2,-1.0213202E0,-8.0482835E-1,2.1033539E-3,1.0651795E0,2.5772842E-2,-5.9965557E-1,2.5665236E-1,-2.0278491E-2,2.4341749E-2,1.0071151E-3,-1.2153857E0,-8.674313E-1,-1.5954519E-2,-1.4155938E-2,1.3392319E-1,-9.781399E-2,3.109376E-3,-7.00887E-2,8.594961E-2,-7.468101E-2,5.8945145E-2,-1.530423E-1,-5.7695728E-2,-3.8455732E-2,-1.00202136E-1],"categories":[],"categories_nodes":[],"categories_segments":[],"categories_sizes":[],"default_left":[1,1,0,1,0,1,0,0,1,0,0,1,0,1,0,0,0,1,0,0,0,0,1,0,0,0,0,0,0,0,0,0,0,0,0,0,0],"id":16,"left_children":[1,3,-1,5,7,9,11,-1,13,15,17,19,21,23,-1,25,27,29,31,-1,-1,-1,33,35,-1,-1,-1,-1,-1,-1,-1,-1,-1,-1,-1,-1,-1],"loss_changes":[8.936456E0,8.249825E0,0E0,7.9787273E0,2.5815182E0,8.1249075E0,2.2125344E0,0E0,9.7238445E-1,7.763826E0,4.599129E0,2.2341093E-1,1.9102182E0,5.577841E-1,0E0,2.5786467E0,7.5526805E0,5.2542152E0,3.1869369E0,0E0,0E0,0E0,7.2382736E-1,6.2098217E-1,0E0,0E0,0E0,0E0,0E0,0E0,0E0,0E0,0E0,0E0,0E0,0E0,0E0],"parents":[2147483647,0,0,1,1,3,3,4,4,5,5,6,6,8,8,9,9,10,10,11,11,12,12,13,13,15,15,16,16,17,17,18,18,22,22,23,23],"right_children":[2,4,-1,6,8,10,12,-1,14,16,18,20,22,24,-1,26,28,30,32,-1,-1,-1,34,36,-1,-1,-1,-1,-1,-1,-1,-1,-1,-1,-1,-1,-1],"split_conditions":[3.1622776E-1,2.4253562E-1,1.3436528E-1,1.9245009E-1,3.7796447E-1,2.3249528E-1,3.0151135E-1,4.2110726E-2,2.6726124E-1,1.9245009E-1,3.2444283E-1,2.6726124E-1,2.581989E-1,3.3333334E-1,2.1033539E-3,1.2403473E-1,1.490712E-1,2.5E-1,1.5249857E-1,-2.0278491E-2,2.4341749E-2,1.0071151E-3,2.3570226E-1,2.8867513E-1,-1.5954519E-2,-1.4155938E-2,1.3392319E-1,-9.781399E-2,3.109376E-3,-7.00887E-2,8.594961E-2,-7.468101E-2,5.8945145E-2,-1.530423E-1,-5.7695728E-2,-3.8455732E-2,-1.00202136E-1],"split_indices":[50560,15796,0,57659,225,526,15724,0,40,17,526,413,10259,1968,0,520,24,2993,24,0,0,0,22,24,0,0,0,0,0,0,0,0,0,0,0,0,0],"split_type":[0,0,0,0,0,0,0,0,0,0,0,0,0,0,0,0,0,0,0,0,0,0,0,0,0,0,0,0,0,0,0,0,0,0,0,0,0],"sum_hessian":[1.4853529E3,1.481362E3,3.9908488E0,1.4621294E3,1.92327E1,1.4511478E3,1.0981579E1,1.4995393E0,1.7733162E1,1.4134304E3,3.771736E1,2.499152E0,8.482427E0,1.6233622E1,1.4995393E0,6.2240567E0,1.4072064E3,3.0492426E1,7.2249365E0,1.249616E0,1.2495359E0,1.4934355E0,6.9889913E0,1.4484159E1,1.7494625E0,1.2413707E0,4.982686E0,6.4552026E0,1.4007512E3,2.9000149E1,1.492278E0,1.4895597E0,5.735377E0,3.7442102E0,3.2447808E0,3.997919E0,1.048624E1],"tree_param":{"num_deleted":"0","num_feature":"128104","num_nodes":"37","size_leaf_vector":"1"}},{"base_weights":[-3.433344E-3,5.809209E-1,-1.2017854E-2,7.535594E-1,-4.3308902E-1,1.0569392E0,-1.6573539E-2,-4.2030748E-2,8.806692E-1,-1.5050166E-3,-7.049916E-2,1.6336715E-2,1.2481725E-1,9.744326E-1,-2.1360151E-2,1.0409145E0,-1.2576028E-2,2.9948086E-2,1.1843128E0,-1.4296365E-1,-1.7691819E-2,-9.005828E-4,1.1330916E0,2.1281542E-2,1.4509623E-1,-4.2331788E-1,-6.5627843E-3,1.21071E-1,1.9730978E-2,1.208648E-1,-5.2223194E-2,-1.4761975E-3,6.646199E-2],"categories":[],"categories_nodes":[],"categories_segments":[],"categories_sizes":[],"default_left":[0,1,0,0,0,0,0,0,1,0,0,0,0,0,0,0,0,0,0,0,0,0,1,0,0,0,1,0,0,0,0,0,0],"id":17,"left_children":[1,3,5,7,9,11,13,-1,15,-1,-1,-1,-1,17,19,21,-1,-1,23,-1,25,-1,27,-1,-1,29,31,-1,-1,-1,-1,-1,-1],"loss_changes":[7.4074407E0,4.0688825E0,7.1025195E0,3.1504612E0,4.1510427E-1,8.537588E-1,6.8974905E0,0E0,2.894535E0,0E0,0E0,0E0,0E0,6.354966E-1,7.4328804E0,1.451252E0,0E0,0E0,9.847536E-1,0E0,6.5020328E0,0E0,7.5593185E-1,0E0,0E0,6.8401613E0,7.733458E0,0E0,0E0,0E0,0E0,0E0,0E0],"parents":[2147483647,0,0,1,1,2,2,3,3,4,4,5,5,6,6,8,8,13,13,14,14,15,15,18,18,20,20,22,22,25,25,26,26],"right_children":[2,4,6,8,10,12,14,-1,16,-1,-1,-1,-1,18,20,22,-1,-1,24,-1,26,-1,28,-1,-1,30,32,-1,-1,-1,-1,-1,-1],"split_conditions":[3.1622776E-1,4.170288E-1,2.8867513E-1,2.773501E-1,4.8507124E-1,2.2941573E-1,3.7796447E-1,-4.2030748E-2,2.581989E-1,-1.5050166E-3,-7.049916E-2,1.6336715E-2,1.2481725E-1,2.085144E-1,2.773501E-1,2.773501E-1,-1.2576028E-2,2.9948086E-2,3.0151135E-1,-1.4296365E-1,4.472136E-1,-9.005828E-4,4.7140452E-1,2.1281542E-2,1.4509623E-1,3.7796447E-1,2.5E-1,1.21071E-1,1.9730978E-2,1.208648E-1,-5.2223194E-2,-1.4761975E-3,6.646199E-2],"split_indices":[35346,43,6489,2309,43,50560,1233,0,21483,0,0,0,0,24,513,8341,0,0,43,0,34226,0,2309,0,0,72942,8628,0,0,0,0,0,0],"split_type":[0,0,0,0,0,0,0,0,0,0,0,0,0,0,0,0,0,0,0,0,0,0,0,0,0,0,0,0,0,0,0,0,0],"sum_hessian":[1.4742546E3,2.0378862E1,1.4538759E3,1.7633545E1,2.7453172E0,5.1895213E0,1.4486863E3,1.4974886E0,1.6136057E1,1.497825E0,1.2474922E0,1.2417061E0,3.9478154E0,5.989854E0,1.4426964E3,1.3890175E1,2.2458823E0,1.996439E0,3.993415E0,2.7382958E0,1.4399581E3,1.193878E0,1.2696297E1,1.2472731E0,2.746142E0,3.7463623E1,1.4024945E3,1.1452567E1,1.2437296E0,1.4997839E0,3.596384E1,1.3865345E3,1.5959949E1],"tree_param":{"num_deleted":"0","num_feature":"128104","num_nodes":"33","size_leaf_vector":"1"}},{"base_weights":[-5.723976E-3,1.0479419E0,-1.1869136E-2,-2.0496408E-2,1.2853566E0,-1.5846707E-2,1.3082063E-1,1.473169E-1,3.1665716E-2,-2.0061078E-2,1.2387075E0,-1.4506109E-2,-9.953051E-1,1.4722076E-1,4.1683983E-2,-7.958626E-1,-8.814695E-3,-1.2209467E-1,-8.400383E-3,-1.038691E-1,4.212098E-2,-1.8513756E-4,-6.306382E-2],"categories":[],"categories_nodes":[],"categories_segments":[],"categories_sizes":[],"default_left":[0,0,1,0,1,1,0,0,0,1,1,0,1,0,0,1,1,0,0,0,0,0,0],"id":18,"left_children":[1,3,5,-1,7,9,-1,-1,-1,11,13,15,17,-1,-1,19,21,-1,-1,-1,-1,-1,-1],"loss_changes":[9.710149E0,2.8500195E0,7.8444395E0,0E0,8.88525E-1,7.884443E0,0E0,0E0,0E0,8.017213E0,3.4449482E-1,6.5530996E0,1.6209984E0,0E0,0E0,3.5868554E0,6.3444433E0,0E0,0E0,0E0,0E0,0E0,0E0],"parents":[2147483647,0,0,1,1,2,2,4,4,5,5,9,9,10,10,11,11,12,12,15,15,16,16],"right_children":[2,4,6,-1,8,10,-1,-1,-1,12,14,16,18,-1,-1,20,22,-1,-1,-1,-1,-1,-1],"split_conditions":[2.3570226E-1,2.3570226E-1,2.236068E-1,-2.0496408E-2,1.3130644E-1,2.4253562E-1,1.3082063E-1,1.473169E-1,3.1665716E-2,2.4253562E-1,2.581989E-1,2E-1,2.773501E-1,1.4722076E-1,4.1683983E-2,1.6012815E-1,3.0151135E-1,-1.2209467E-1,-8.400383E-3,-1.038691E-1,4.212098E-2,-1.8513756E-4,-6.306382E-2],"split_indices":[1406,3293,22081,0,22,3242,0,0,0,606,14529,67398,14529,0,0,249,432,0,0,0,0,0,0],"split_type":[0,0,0,0,0,0,0,0,0,0,0,0,0,0,0,0,0,0,0,0,0,0,0],"sum_hessian":[1.4967286E3,7.69556E0,1.4890331E3,1.2477113E0,6.447849E0,1.4855449E3,3.4881585E0,4.9645486E0,1.4833003E0,1.481552E3,3.9929042E0,1.47417E3,7.3819647E0,2.4932532E0,1.499651E0,9.6562605E0,1.4645138E3,5.6445656E0,1.737399E0,8.172302E0,1.4839591E0,1.4492874E3,1.5226468E1],"tree_param":{"num_deleted":"0","num_feature":"128104","num_nodes":"23","size_leaf_vector":"1"}},{"base_weights":[1.1295122E-2,7.108294E-3,1.3158762E-1,-1.2132201E-1,1.1181168E-2,-1.2030994E-1,1.52914515E-2,-1.4082114E-1,1.8668685E-2,-6.365088E-1,2.5399862E-2,2.4092762E-2,-7.338931E-2,-3.252281E-2,3.8097047E-3],"categories":[],"categories_nodes":[],"categories_segments":[],"categories_sizes":[],"default_left":[1,0,0,0,0,0,0,0,0,0,0,0,0,0,0],"id":19,"left_children":[1,3,-1,-1,5,-1,7,-1,9,11,13,-1,-1,-1,-1],"loss_changes":[8.094921E0,7.369525E0,0E0,0E0,7.385504E0,0E0,7.103292E0,0E0,6.4971776E0,1.4570909E0,6.4926815E0,0E0,0E0,0E0,0E0],"parents":[2147483647,0,0,1,1,4,4,6,6,8,8,9,9,10,10],"right_children":[2,4,-1,-1,6,-1,8,-1,10,12,14,-1,-1,-1,-1],"split_conditions":[2.8867513E-1,3.1622776E-1,1.3158762E-1,-1.2132201E-1,3.0151135E-1,-1.2030994E-1,3.3333334E-1,-1.4082114E-1,3.0151135E-1,3.0151135E-1,3.2444283E-1,2.4092762E-2,-7.338931E-2,-3.252281E-2,3.8097047E-3],"split_indices":[1206,1003,0,0,406,0,254,0,100,6640,526,0,0,0,0],"split_type":[0,0,0,0,0,0,0,0,0,0,0,0,0,0,0],"sum_hessian":[1.4827407E3,1.4789995E3,3.7411454E0,3.932234E0,1.4750673E3,3.992114E0,1.4710752E3,2.4972868E0,1.4685779E3,1.3983019E1,1.4545948E3,1.2496473E0,1.2733372E1,4.997378E1,1.4046211E3],"tree_param":{"num_deleted":"0","num_feature":"128104","num_nodes":"15","size_leaf_vector":"1"}},{"base_weights":[-1.01047335E-2,8.983837E-1,-1.5604615E-2,-6.57366E-2,1.2359567E0,-1.9589389E-2,1.1611294E-1,1.4076042E-1,1.9380229E-2,9.124489E-1,-2.4191838E-2,1.4268611E-1,3.4141418E-1,8.7831783E-1,-2.880978E-2,8.2241155E-2,-1.3362551E-2,3.184519E-2,9.647321E-2,-3.5723697E-2,5.425244E-1,-4.001957E-3,8.888634E-2,-2.984172E-2,7.932674E-2],"categories":[],"categories_nodes":[],"categories_segments":[],"categories_sizes":[],"default_left":[0,0,1,0,1,0,0,0,0,0,0,0,0,0,1,0,0,0,0,1,0,0,0,0,0],"id":20,"left_children":[1,3,5,-1,7,9,-1,-1,-1,11,13,-1,15,17,19,-1,-1,-1,-1,21,23,-1,-1,-1,-1],"loss_changes":[7.4140816E0,5.501841E0,6.9301248E0,0E0,1.1017866E0,6.32405E0,0E0,0E0,0E0,1.6409626E0,6.122137E0,0E0,1.1947637E0,5.460739E-2,5.772332E0,0E0,0E0,0E0,0E0,5.7547617E0,3.9215665E0,0E0,0E0,0E0,0E0],"parents":[2147483647,0,0,1,1,2,2,4,4,5,5,9,9,10,10,12,12,13,13,14,14,19,19,20,20],"right_children":[2,4,6,-1,8,10,-1,-1,-1,12,14,-1,16,18,20,-1,-1,-1,-1,22,24,-1,-1,-1,-1],"split_conditions":[2.4253562E-1,5.163978E-1,2.4253562E-1,-6.57366E-2,1.9611613E-1,3.7796447E-1,1.1611294E-1,1.4076042E-1,1.9380229E-2,3.7796447E-1,4.472136E-1,1.4268611E-1,2.5E-1,2.773501E-1,3.3333334E-1,8.2241155E-2,-1.3362551E-2,3.184519E-2,9.647321E-2,2.2941573E-1,4.472136E-1,-4.001957E-3,8.888634E-2,-2.984172E-2,7.932674E-2],"split_indices":[6467,9727,3242,0,3607,155,0,0,0,86932,90,0,24,24,13844,0,0,0,0,415,1625,0,0,0,0],"split_type":[0,0,0,0,0,0,0,0,0,0,0,0,0,0,0,0,0,0,0,0,0,0,0,0,0],"sum_hessian":[1.480026E3,7.929077E0,1.4720969E3,1.244822E0,6.684255E0,1.4681089E3,3.9881034E0,5.4379354E0,1.2463199E0,6.244711E0,1.4618641E3,2.4967785E0,3.7479322E0,6.478806E0,1.4553854E3,1.4989427E0,2.2489896E0,1.4927387E0,4.9860673E0,1.43891E3,1.6475286E1,1.4332078E3,5.70234E0,3.7404466E0,1.2734839E1],"tree_param":{"num_deleted":"0","num_feature":"128104","num_nodes":"25","size_leaf_vector":"1"}},{"base_weights":[8.623631E-3,4.3594893E-3,1.2754714E-1,1.0284536E0,-3.1885135E-4,1.8125707E-2,1.1886939E-1,-1.1542749E-1,3.7929728E-3,-1.2360504E-3,9.3562835E-1,9.2210114E-1,-6.1537367E-3,-1.835087E-3,1.1624674E-1,3.8376745E-2,1.1415147E-1,8.947353E-2,-1.10846E-3],"categories":[],"categories_nodes":[],"categories_segments":[],"categories_sizes":[],"default_left":[1,0,0,0,0,0,0,0,1,0,0,0,0,0,0,0,0,0,0],"id":21,"left_children":[1,3,-1,5,7,-1,-1,-1,9,11,13,15,17,-1,-1,-1,-1,-1,-1],"loss_changes":[7.991667E0,7.074099E0,0E0,6.96064E-1,6.9828258E0,0E0,0E0,0E0,6.873557E0,6.63343E0,1.7251458E0,4.7609234E-1,6.4639297E0,0E0,0E0,0E0,0E0,0E0,0E0],"parents":[2147483647,0,0,1,1,3,3,4,4,8,8,9,9,10,10,11,11,12,12],"right_children":[2,4,-1,6,8,-1,-1,-1,10,12,14,16,18,-1,-1,-1,-1,-1,-1],"split_conditions":[2.4253562E-1,3.1622776E-1,1.2754714E-1,2.4253562E-1,3.3333334E-1,1.8125707E-2,1.1886939E-1,-1.1542749E-1,3.1622776E-1,3.5355338E-1,3.5355338E-1,2.6726124E-1,2.3570226E-1,-1.835087E-3,1.1624674E-1,3.8376745E-2,1.1415147E-1,8.947353E-2,-1.10846E-3],"split_indices":[3242,11857,0,4120,1968,0,0,0,17724,2141,8,24,1406,0,0,0,0,0,0],"split_type":[0,0,0,0,0,0,0,0,0,0,0,0,0,0,0,0,0,0,0],"sum_hessian":[1.4794147E3,1.4754519E3,3.9628503E0,5.714472E0,1.4697374E3,1.2479051E0,4.4665666E0,4.225261E0,1.4655121E3,1.4586387E3,6.873455E0,6.7394676E0,1.4518992E3,1.4969753E0,5.3764796E0,2.7475014E0,3.9919662E0,6.921147E0,1.444978E3],"tree_param":{"num_deleted":"0","num_feature":"128104","num_nodes":"19","size_leaf_vector":"1"}},{"base_weights":[1.6224464E-2,2.1015655E-2,-1.16577186E-1,2.480435E-2,-1.385619E-1,2.0341106E-2,1.068301E0,2.4996184E-2,-9.957793E-1,2.5520956E-2,1.220333E0,2.0207107E-2,9.526844E-1,-3.1577148E-2,-1.1281838E-1,1.4315793E-1,4.3577228E-2,1.0847801E-1,1.6057466E-3,1.218996E-1,-2.0787654E-2],"categories":[],"categories_nodes":[],"categories_segments":[],"categories_sizes":[],"default_left":[1,1,0,1,0,1,0,1,0,0,0,0,1,0,0,0,0,0,0,0,0],"id":22,"left_children":[1,3,-1,5,-1,7,9,11,13,-1,15,17,19,-1,-1,-1,-1,-1,-1,-1,-1],"loss_changes":[8.399423E0,7.888986E0,0E0,6.828697E0,0E0,6.9574976E0,4.6054363E-1,6.4668484E0,2.4773693E-1,0E0,2.0431185E-1,6.4033213E0,2.564104E0,0E0,0E0,0E0,0E0,0E0,0E0,0E0,0E0],"parents":[2147483647,0,0,1,1,3,3,5,5,6,6,7,7,8,8,10,10,11,11,12,12],"right_children":[2,4,-1,6,-1,8,10,12,14,-1,16,18,20,-1,-1,-1,-1,-1,-1,-1,-1],"split_conditions":[2.3570226E-1,2.581989E-1,-1.16577186E-1,2.8867513E-1,-1.385619E-1,3.0151135E-1,3.3333334E-1,2.4253562E-1,3.1622776E-1,2.5520956E-2,3.3333334E-1,2.8867513E-1,2.773501E-1,-3.1577148E-2,-1.1281838E-1,1.4315793E-1,4.3577228E-2,1.0847801E-1,1.6057466E-3,1.218996E-1,-2.0787654E-2],"split_indices":[460,943,0,203,0,566,45841,9727,566,0,24,6489,24,0,0,0,0,0,0,0,0],"split_type":[0,0,0,0,0,0,0,0,0,0,0,0,0,0,0,0,0,0,0,0,0],"sum_hessian":[1.4778405E3,1.4728525E3,4.987948E0,1.4698759E3,2.9766657E0,1.4646309E3,5.245026E0,1.4589226E3,5.7082534E0,1.2481856E0,3.9968402E0,1.4524463E3,6.476293E0,1.4819752E0,4.2262783E0,2.4992247E0,1.4976156E0,4.6284246E0,1.4478179E3,5.226604E0,1.2496889E0],"tree_param":{"num_deleted":"0","num_feature":"128104","num_nodes":"21","size_leaf_vector":"1"}},{"base_weights":[-1.4544342E-2,-1.2187808E0,-9.712501E-3,-3.1384837E-2,-1.4495903E-1,-1.6262965E-2,7.3881775E-1,-6.420425E-1,-8.870615E-3,-6.57962E-2,9.4388556E-1,-7.739251E-1,4.46369E-2,-4.9610115E-3,-1.1481587E-1,1.0552065E0,1.976969E-2,-2.0375526E-2,-8.090468E-1,-9.153139E-1,-1.2400084E-4,1.4323667E-2,1.167007E0,-8.46708E-2,-2.279198E-2,-1.1656817E-1,2.146213E-2,4.921514E-4,-8.834162E-2,1.4144534E-1,5.725813E-2],"categories":[],"categories_nodes":[],"categories_segments":[],"categories_sizes":[],"default_left":[0,0,1,0,0,0,0,1,1,0,0,0,0,0,0,0,0,0,1,1,1,0,1,0,0,0,0,0,0,0,0],"id":23,"left_children":[1,3,5,-1,-1,7,9,11,13,-1,15,17,-1,19,-1,21,-1,-1,23,25,27,-1,29,-1,-1,-1,-1,-1,-1,-1,-1],"loss_changes":[8.681537E0,7.9045486E-1,7.31332E0,0E0,0E0,6.827545E0,4.3273916E0,2.818952E0,6.501446E0,0E0,7.6275444E-1,1.5025711E-1,0E0,6.4152694E0,0E0,8.4684086E-1,0E0,0E0,1.2405014E-1,2.4285212E0,6.4674916E0,0E0,4.7261047E-1,0E0,0E0,0E0,0E0,0E0,0E0,0E0,0E0],"parents":[2147483647,0,0,1,1,2,2,5,5,6,6,7,7,8,8,10,10,11,11,13,13,15,15,18,18,19,19,20,20,22,22],"right_children":[2,4,6,-1,-1,8,10,12,14,-1,16,18,-1,20,-1,22,-1,-1,24,26,28,-1,30,-1,-1,-1,-1,-1,-1,-1,-1],"split_conditions":[3.0151135E-1,2.581989E-1,2.773501E-1,-3.1384837E-2,-1.4495903E-1,3.5355338E-1,3.1622776E-1,2.085144E-1,2.6726124E-1,-6.57962E-2,3.5355338E-1,2.4253562E-1,4.46369E-2,2.8867513E-1,-1.1481587E-1,2.236068E-1,1.976969E-2,-2.0375526E-2,2.6726124E-1,2.5E-1,3.1622776E-1,1.4323667E-2,2.8867513E-1,-8.46708E-2,-2.279198E-2,-1.1656817E-1,2.146213E-2,4.921514E-4,-8.834162E-2,1.4144534E-1,5.725813E-2],"split_indices":[19896,242,3877,0,0,431,16601,6327,3239,0,545,1748,0,727,0,11022,0,0,86932,423,153,0,22,0,0,0,0,0,0,0,0],"split_type":[0,0,0,0,0,0,0,0,0,0,0,0,0,0,0,0,0,0,0,0,0,0,0,0,0,0,0,0,0,0,0],"sum_hessian":[1.493046E3,4.9626746E0,1.4880834E3,1.4880943E0,3.4745805E0,1.4761438E3,1.193961E1,1.6231804E1,1.459912E3,1.245771E0,1.0693839E1,1.4735274E1,1.4965289E0,1.4559202E3,3.9918094E0,8.94521E0,1.7486285E0,1.2496536E0,1.3485621E1,6.7000566E0,1.4492201E3,1.2259744E0,7.719236E0,1.2235654E1,1.2499671E0,5.458862E0,1.241195E0,1.4419778E3,7.2423925E0,4.476315E0,3.2429209E0],"tree_param":{"num_deleted":"0","num_feature":"128104","num_nodes":"31","size_leaf_vector":"1"}},{"base_weights":[-6.203059E-3,1.4203848E-1,-9.783531E-3,-1.3159508E-2,1.4218752E-1,5.863415E-1,-2.1314029E-2,7.845966E-1,-1.11791685E-1,-1.1536994E-1,-1.7192928E-2,-6.272025E-2,9.237984E-1,1.0064576E0,-2.167589E-2,-1.9492779E-2,1.0236248E-1,1.147904E-1,3.9384227E-2,-2.6543639E-3,8.6254515E-2],"categories":[],"categories_nodes":[],"categories_segments":[],"categories_sizes":[],"default_left":[0,0,1,0,0,1,0,0,0,0,0,0,0,0,1,0,0,0,0,0,0],"id":24,"left_children":[1,-1,3,5,-1,7,9,11,-1,-1,13,-1,15,17,19,-1,-1,-1,-1,-1,-1],"loss_changes":[7.5983176E0,0E0,7.1822085E0,7.2458987E0,0E0,7.5979233E0,6.796971E0,4.1966486E0,0E0,0E0,6.7054935E0,0E0,2.1157637E0,1.0002756E-1,6.2686186E0,0E0,0E0,0E0,0E0,0E0,0E0],"parents":[2147483647,0,0,2,2,3,3,5,5,6,6,7,7,10,10,12,12,13,13,14,14],"right_children":[2,-1,4,6,-1,8,10,12,-1,-1,14,-1,16,18,20,-1,-1,-1,-1,-1,-1],"split_conditions":[3.1622776E-1,1.4203848E-1,2.5E-1,3.0151135E-1,1.4218752E-1,1.3018891E-1,6.3246554E-1,2.6726124E-1,-1.11791685E-1,-1.1536994E-1,3.3333334E-1,-6.272025E-2,2.5E-1,2.5E-1,2.8867513E-1,-1.9492779E-2,1.0236248E-1,1.147904E-1,3.9384227E-2,-2.6543639E-3,8.6254515E-2],"split_indices":[27372,0,3260,1903,0,1452,7582,1480,0,0,985,0,21264,985,790,0,0,0,0,0,0],"split_type":[0,0,0,0,0,0,0,0,0,0,0,0,0,0,0,0,0,0,0,0,0],"sum_hessian":[1.4838538E3,2.7242193E0,1.4811295E3,1.4786335E3,2.4959393E0,1.889123E1,1.4597423E3,1.7406025E1,1.4852045E0,4.2816863E0,1.4554607E3,1.2475483E0,1.6158478E1,5.371677E0,1.450089E3,1.2456921E0,1.4912786E1,3.6541865E0,1.7174902E0,1.4431145E3,6.9745426E0],"tree_param":{"num_deleted":"0","num_feature":"128104","num_nodes":"21","size_leaf_vector":"1"}},{"base_weights":[-2.8303931E-3,-1.671189E-2,4.5863953E-1,-2.0898547E-2,1.4183883E-1,-8.4900373E-1,5.8534104E-1,-2.4803702E-2,1.3101546E-1,-2.8103516E-2,-9.913449E-2,6.795619E-1,-3.7348685E-1,-2.1021055E-2,-1.3877149E-1,7.9672813E-1,-4.1011575E-1,-8.790139E-2,3.329669E-2,-2.4833614E-2,1.2689735E-1,-6.829252E-2,8.7475085E-1,-7.2122365E-2,-4.0129065E-3,9.653843E-2,-2.9424415E-3,-1.6128954E-2,9.388376E-2],"categories":[],"categories_nodes":[],"categories_segments":[],"categories_sizes":[],"default_left":[1,1,0,1,0,0,1,1,0,0,0,1,1,1,0,0,1,0,0,0,0,0,0,0,0,0,0,0,0],"id":25,"left_children":[1,3,5,7,-1,9,11,13,-1,-1,-1,15,17,19,-1,21,23,-1,-1,25,-1,-1,27,-1,-1,-1,-1,-1,-1],"loss_changes":[9.518804E0,8.695698E0,7.6864357E0,7.513127E0,0E0,6.428027E-2,3.8812437E0,7.3735657E0,0E0,0E0,0E0,5.039751E0,1.806185E0,7.0790534E0,0E0,4.4845276E0,4.5956838E-1,0E0,0E0,6.5277367E0,0E0,0E0,2.3041592E0,0E0,0E0,0E0,0E0,0E0,0E0],"parents":[2147483647,0,0,1,1,2,2,3,3,5,5,6,6,7,7,11,11,12,12,13,13,15,15,16,16,19,19,22,22],"right_children":[2,4,6,8,-1,10,12,14,-1,-1,-1,16,18,20,-1,22,24,-1,-1,26,-1,-1,28,-1,-1,-1,-1,-1,-1],"split_conditions":[2.236068E-1,2.773501E-1,2.8867513E-1,1.6012815E-1,1.4183883E-1,2.773501E-1,2.4253562E-1,2.3249528E-1,1.3101546E-1,-2.8103516E-2,-9.913449E-2,2.3570226E-1,2.773501E-1,3.7796447E-1,-1.3877149E-1,3.5355338E-1,2.581989E-1,-8.790139E-2,3.329669E-2,2.6726124E-1,1.2689735E-1,-6.829252E-2,2.8867513E-1,-7.2122365E-2,-4.0129065E-3,9.653843E-2,-2.9424415E-3,-1.6128954E-2,9.388376E-2],"split_indices":[1779,13778,650,10795,0,43,4448,7197,0,0,0,10212,43,2106,0,665,24,0,0,2472,0,0,67799,0,0,0,0,0,0],"split_type":[0,0,0,0,0,0,0,0,0,0,0,0,0,0,0,0,0,0,0,0,0,0,0,0,0,0,0,0,0],"sum_hessian":[1.4837482E3,1.4413545E3,4.2393665E1,1.4381444E3,3.2100987E0,3.2412279E0,3.9152435E1,1.4349159E3,3.2285123E0,1.245564E0,1.9956639E0,3.5914494E1,3.237943E0,1.431957E3,2.9588542E0,3.2670483E1,3.2440116E0,1.744992E0,1.4929509E0,1.4287152E3,3.241796E0,1.2481008E0,3.142238E1,1.2465289E0,1.9974828E0,5.627365E0,1.4230879E3,1.7421225E0,2.9680258E1],"tree_param":{"num_deleted":"0","num_feature":"128104","num_nodes":"29","size_leaf_vector":"1"}},{"base_weights":[-1.5850736E-2,-1.0886835E-2,-1.1006858E-1,1.4099748E-1,-1.4487269E-2,-1.8085707E-2,1.3299826E-1,2.823531E-1,-3.404553E-2,-1.1839839E-1,3.3863854E-1,-3.970813E-2,8.248119E-1,3.914029E-2,-1.0122528E-1,1.2254856E-1,-4.332294E-3,-1.9487942E-3,1.14234306E-1],"categories":[],"categories_nodes":[],"categories_segments":[],"categories_sizes":[],"default_left":[1,0,0,0,1,0,0,0,1,0,1,0,0,0,0,0,0,0,0],"id":26,"left_children":[1,3,-1,-1,5,7,-1,9,11,-1,13,15,17,-1,-1,-1,-1,-1,-1],"loss_changes":[7.971372E0,7.575169E0,0E0,0E0,7.1553845E0,7.063365E0,0E0,6.534164E0,6.8306065E0,0E0,5.5526943E0,6.408183E0,2.4890518E0,0E0,0E0,0E0,0E0,0E0,0E0],"parents":[2147483647,0,0,1,1,4,4,5,5,7,7,8,8,10,10,11,11,12,12],"right_children":[2,4,-1,-1,6,8,-1,10,12,-1,14,16,18,-1,-1,-1,-1,-1,-1],"split_conditions":[2.4253562E-1,4.082483E-1,-1.1006858E-1,1.4099748E-1,2.773501E-1,4.082483E-1,1.3299826E-1,3.7796447E-1,4.2640144E-1,-1.1839839E-1,2E-1,2.236068E-1,2.6726124E-1,3.914029E-2,-1.0122528E-1,1.2254856E-1,-4.332294E-3,-1.9487942E-3,1.14234306E-1],"split_indices":[92,72942,0,0,13778,86932,0,170,43,0,123,460,35346,0,0,0,0,0,0],"split_type":[0,0,0,0,0,0,0,0,0,0,0,0,0,0,0,0,0,0,0],"sum_hessian":[1.481513E3,1.4757703E3,5.742676E0,2.7428179E0,1.4730273E3,1.4700793E3,2.9480805E0,7.331197E1,1.3967673E3,1.9694296E0,7.1342545E1,1.388566E3,8.201298E0,6.93443E1,1.9982493E0,2.9929912E0,1.385573E3,2.4979632E0,5.703335E0],"tree_param":{"num_deleted":"0","num_feature":"128104","num_nodes":"19","size_leaf_vector":"1"}},{"base_weights":[-1.4330915E-2,-9.747572E-3,-1.0065379E0,-1.7151397E-2,5.991276E-1,-1.2452714E-2,-1.17677085E-1,9.9535453E-1,-2.157246E-2,-7.4515454E-2,7.844751E-1,1.2561138E-1,3.2828722E-2,5.183387E-1,-2.991461E-2,9.466542E-1,-6.584586E-2,1.18822515E-1,3.4481955E-1,-3.3529304E-2,1.2165617E-1,1.2208927E0,2.0232558E-2,-2.2687865E-2,5.6985337E-2,-1.3786082E-1,-3.0267006E-3,1.4017579E-1,-7.955233E-4,-4.024544E-2,6.1805725E-2],"categories":[],"categories_nodes":[],"categories_segments":[],"categories_sizes":[],"default_left":[1,1,0,0,0,0,0,1,0,0,1,0,0,0,1,0,0,0,1,0,0,1,0,0,0,0,0,0,0,0,0],"id":27,"left_children":[1,3,5,7,9,-1,-1,11,13,-1,15,-1,-1,17,19,21,-1,-1,23,25,-1,27,29,-1,-1,-1,-1,-1,-1,-1,-1],"loss_changes":[6.8392415E0,6.7729917E0,8.917732E-1,6.660381E0,5.0819693E0,0E0,0E0,7.1287394E-1,6.6708164E0,0E0,4.4495306E0,0E0,0E0,2.210064E0,6.6014366E0,3.8137732E0,0E0,0E0,2.6135523E0,6.333502E0,0E0,2.5983849E0,1.3777034E0,0E0,0E0,0E0,0E0,0E0,0E0,0E0,0E0],"parents":[2147483647,0,0,1,1,2,2,3,3,4,4,7,7,8,8,10,10,13,13,14,14,15,15,18,18,19,19,21,21,22,22],"right_children":[2,4,6,8,10,-1,-1,12,14,-1,16,-1,-1,18,20,22,-1,-1,24,26,-1,28,30,-1,-1,-1,-1,-1,-1,-1,-1],"split_conditions":[1.45865E-1,1.5430336E-1,2.8867513E-1,3.3333334E-1,1.796053E-1,-1.2452714E-2,-1.17677085E-1,2.2941573E-1,3.1622776E-1,-7.4515454E-2,1.7677669E-1,1.2561138E-1,3.2828722E-2,2.0412415E-1,2.6726124E-1,2.6726124E-1,-6.584586E-2,1.18822515E-1,2.3570226E-1,3.5355338E-1,1.2165617E-1,2.4253562E-1,2.773501E-1,-2.2687865E-2,5.6985337E-2,-1.3786082E-1,-3.0267006E-3,1.4017579E-1,-7.955233E-4,-4.024544E-2,6.1805725E-2],"split_indices":[6555,520,22,985,526,0,0,14529,41918,0,13885,0,0,24,23200,520,0,0,24,97443,0,22,24,0,0,0,0,0,0,0,0],"split_type":[0,0,0,0,0,0,0,0,0,0,0,0,0,0,0,0,0,0,0,0,0,0,0,0,0,0,0,0,0,0,0],"sum_hessian":[1.5050725E3,1.4991572E3,5.9152956E0,1.4821069E3,1.7050352E1,1.2371073E0,4.6781883E0,5.468981E0,1.476638E3,1.7000413E0,1.535031E1,3.2970946E0,2.171886E0,2.1538109E1,1.4550999E3,1.4108516E1,1.2417945E0,3.2280643E0,1.8310043E1,1.4518627E3,3.2371986E0,1.0640783E1,3.467733E0,5.1692843E0,1.3140759E1,2.4927378E0,1.4493699E3,9.152922E0,1.4878612E0,2.2228718E0,1.244861E0],"tree_param":{"num_deleted":"0","num_feature":"128104","num_nodes":"31","size_leaf_vector":"1"}},{"base_weights":[-7.7978387E-3,-8.230539E-1,-2.1644877E-3,1.9674739E-2,-9.861418E-1,4.592679E-1,-1.1546063E-2,-1.3197349E-1,-5.3115034E-1,-2.3240605E-1,7.996268E-1,-7.403398E-3,-1.15231E0,-3.6232737E-3,-9.667947E-2,-6.08586E-1,2.1977614E-1,8.977308E-1,-1.4187996E-2,-4.084742E-3,-1.3060986E-1,-1.4181821E-1,-1.6732015E-2,2.6837697E-2,-2.762101E-2,2.6009846E-2,-8.9201725E-1,5.345264E-1,-3.7173677E-2,2.1100556E-2,9.578562E-1,-9.0765744E-1,6.308918E-4,-1.6938463E-2,-1.10106625E-1,-1.9685978E-2,9.3852066E-2,1.067002E-1,3.4747463E-2,-1.1396523E-1,-3.7176307E-2,-5.9409857E-2,7.941411E-4],"categories":[],"categories_nodes":[],"categories_segments":[],"categories_sizes":[],"default_left":[0,0,0,0,0,0,1,0,0,1,1,1,1,1,0,0,0,0,0,0,0,0,0,0,0,0,0,0,0,0,1,0,0,0,0,0,0,0,0,0,0,0,0],"id":28,"left_children":[1,3,5,-1,7,9,11,-1,13,15,17,19,21,23,-1,25,27,29,-1,31,-1,-1,-1,-1,-1,-1,33,35,-1,-1,37,39,41,-1,-1,-1,-1,-1,-1,-1,-1,-1,-1],"loss_changes":[6.8230233E0,1.8896732E0,6.398493E0,0E0,6.5837574E-1,7.1194663E0,6.8362684E0,0E0,1.2517807E0,1.917795E0,1.9713926E0,6.218858E0,1.1334743E0,3.3172673E-1,0E0,1.7069461E0,1.2222373E0,5.500574E-1,0E0,6.142586E0,0E0,0E0,0E0,0E0,0E0,0E0,5.299301E-1,1.3661959E0,0E0,0E0,7.2634125E-1,5.068307E-1,6.2437487E0,0E0,0E0,0E0,0E0,0E0,0E0,0E0,0E0,0E0,0E0],"parents":[2147483647,0,0,1,1,2,2,4,4,5,5,6,6,8,8,9,9,10,10,11,11,12,12,13,13,15,15,16,16,17,17,19,19,26,26,27,27,30,30,31,31,32,32],"right_children":[2,4,6,-1,8,10,12,-1,14,16,18,20,22,24,-1,26,28,30,-1,32,-1,-1,-1,-1,-1,-1,34,36,-1,-1,38,40,42,-1,-1,-1,-1,-1,-1,-1,-1,-1,-1],"split_conditions":[2.4253562E-1,2.4253562E-1,3.3333334E-1,1.9674739E-2,4E-1,3.1622776E-1,2.6726124E-1,-1.3197349E-1,2.236068E-1,2.773501E-1,2.6726124E-1,2.4253562E-1,3.3333334E-1,2.182179E-1,-9.667947E-2,2.8867513E-1,3.0151135E-1,2.581989E-1,-1.4187996E-2,3.5355338E-1,-1.3060986E-1,-1.4181821E-1,-1.6732015E-2,2.6837697E-2,-2.762101E-2,2.6009846E-2,3.1622776E-1,2.8867513E-1,-3.7173677E-2,2.1100556E-2,3.0151135E-1,2.8867513E-1,3.5355338E-1,-1.6938463E-2,-1.10106625E-1,-1.9685978E-2,9.3852066E-2,1.067002E-1,3.4747463E-2,-1.1396523E-1,-3.7176307E-2,-5.9409857E-2,7.941411E-4],"split_indices":[4120,9462,306,0,3877,5840,3597,0,24,24,121,11195,7917,4211,0,151,24,24,0,95,0,0,0,0,0,0,20824,9394,0,0,375,24,431,0,0,0,0,0,0,0,0,0,0],"split_type":[0,0,0,0,0,0,0,0,0,0,0,0,0,0,0,0,0,0,0,0,0,0,0,0,0,0,0,0,0,0,0,0,0,0,0,0,0,0,0,0,0,0,0],"sum_hessian":[1.4850364E3,9.195283E0,1.4758411E3,1.2393212E0,7.955961E0,2.8452488E1,1.4473885E3,3.493793E0,4.462168E0,9.488081E0,1.8964407E1,1.4431543E3,4.234301E0,2.4743116E0,1.9878566E0,4.990495E0,4.4975853E0,1.7216919E1,1.7474881E0,1.4404764E3,2.677815E0,2.987981E0,1.2463199E0,1.2462187E0,1.228093E0,1.2479606E0,3.7425346E0,2.9984298E0,1.4991559E0,1.749084E0,1.5467834E1,6.4845247E0,1.433992E3,1.2459264E0,2.4966083E0,1.2493457E0,1.749084E0,1.2486894E1,2.9809408E0,3.7391624E0,2.745362E0,1.6438171E1,1.4175538E3],"tree_param":{"num_deleted":"0","num_feature":"128104","num_nodes":"43","size_leaf_vector":"1"}},{"base_weights":[6.6367625E-3,1.3514255E-2,-7.906732E-1,7.2200703E-3,8.3183587E-1,-9.5978624E-1,-1.2873092E-1,-3.4546724E-3,4.6035987E-1,-2.7480869E-2,9.9732316E-1,-1.0653498E0,-4.129284E-2,4.1430384E-2,-6.738645E-2,1.085837E0,-7.820726E-3,-6.557282E-2,5.2363235E-1,3.43543E-1,1.3756032E-1,-1.19524255E-1,-2.1704808E-2,1.5961297E-2,1.305605E-1,-1.1693045E-2,1.22346975E-1,-4.2417992E-2,6.0817087E-1,9.627917E-3,5.1032525E-2,-9.998775E-2,-7.3266076E-4,7.855488E-2,1.3937125E-2],"categories":[],"categories_nodes":[],"categories_segments":[],"categories_sizes":[],"default_left":[1,1,1,1,0,0,1,0,0,0,0,0,0,0,0,1,1,0,0,0,0,0,0,0,0,0,0,0,0,0,0,0,0,0,0],"id":29,"left_children":[1,3,5,7,9,11,13,15,17,-1,19,21,-1,-1,-1,23,25,-1,27,29,-1,-1,-1,-1,-1,31,-1,-1,33,-1,-1,-1,-1,-1,-1],"loss_changes":[8.142359E0,7.57185E0,1.2980142E0,7.0687485E0,2.32904E0,1.350584E-1,1.3860427E0,6.8017507E0,2.7184362E0,0E0,1.9949331E0,5.907335E-1,0E0,0E0,0E0,9.537997E-1,6.8023133E0,0E0,2.8528376E0,1.5664393E-1,0E0,0E0,0E0,0E0,0E0,6.1206245E0,0E0,0E0,2.3970861E0,0E0,0E0,0E0,0E0,0E0,0E0],"parents":[2147483647,0,0,1,1,2,2,3,3,4,4,5,5,6,6,7,7,8,8,10,10,11,11,15,15,16,16,18,18,19,19,25,25,28,28],"right_children":[2,4,6,8,10,12,14,16,18,-1,20,22,-1,-1,-1,24,26,-1,28,30,-1,-1,-1,-1,-1,32,-1,-1,34,-1,-1,-1,-1,-1,-1],"split_conditions":[2.236068E-1,2.2941573E-1,2.4253562E-1,3.3333334E-1,2.773501E-1,4.8507124E-1,2.6726124E-1,3.3333334E-1,4.082483E-1,-2.7480869E-2,3.3333334E-1,3.5355338E-1,-4.129284E-2,4.1430384E-2,-6.738645E-2,2.1320072E-1,3.7796447E-1,-6.557282E-2,3.7796447E-1,2.8867513E-1,1.3756032E-1,-1.19524255E-1,-2.1704808E-2,1.5961297E-2,1.305605E-1,3.3333334E-1,1.22346975E-1,-4.2417992E-2,3.5355338E-1,9.627917E-3,5.1032525E-2,-9.998775E-2,-7.3266076E-4,7.855488E-2,1.3937125E-2],"split_indices":[86723,1113,22524,1197,118453,242,22,3806,159,0,86932,22,0,0,0,22,2106,0,34226,1113,0,0,0,0,0,377,0,0,24,0,0,0,0,0,0],"split_type":[0,0,0,0,0,0,0,0,0,0,0,0,0,0,0,0,0,0,0,0,0,0,0,0,0,0,0,0,0,0,0,0,0,0,0],"sum_hessian":[1.4819368E3,1.4702377E3,1.169903E1,1.4600167E3,1.0221009E1,8.959979E0,2.7390509E0,1.4273838E3,3.2632908E1,1.2436808E0,8.977328E0,6.715511E0,2.2444687E0,1.4923962E0,1.2466545E0,4.709484E0,1.4226743E3,1.2483954E0,3.1384512E1,3.9898512E0,4.9874773E0,5.469095E0,1.2464156E0,1.2341926E0,3.4752913E0,1.4192015E3,3.4727817E0,2.2410595E0,2.9143452E1,2.242499E0,1.7473522E0,5.24038E0,1.4139612E3,2.0653288E1,8.490165E0],"tree_param":{"num_deleted":"0","num_feature":"128104","num_nodes":"35","size_leaf_vector":"1"}},{"base_weights":[-1.0174056E-2,-5.1451437E-3,-1.0562633E0,-9.078968E-3,1.3022846E-1,-1.8944576E-2,-1.2054558E-1,-2.4629615E-2,2.9166833E-1,-1.9562233E-2,-1.3342339E-1,-1.0570042E0,3.6867285E-1,-2.4308298E-2,1.0176334E0,-1.304881E-1,-2.5135309E-2,-9.956619E-2,4.2321038E-1,-2.7658136E-3,1.3374707E-1,1.1810862E-1,1.8068057E-2,4.6688706E-2,-1.06882215E-1],"categories":[],"categories_nodes":[],"categories_segments":[],"categories_sizes":[],"default_left":[1,1,0,1,0,0,0,1,0,1,0,0,0,1,1,0,0,0,1,0,0,0,0,0,0],"id":30,"left_children":[1,3,5,7,-1,-1,-1,9,11,13,-1,15,17,19,21,-1,-1,-1,23,-1,-1,-1,-1,-1,-1],"loss_changes":[7.8915443E0,7.700662E0,6.997824E-1,6.982471E0,0E0,0E0,0E0,9.39113E0,8.013073E0,6.988249E0,0E0,5.154333E-1,5.6433992E0,6.4650955E0,6.712823E-1,0E0,0E0,0E0,4.9424753E0,0E0,0E0,0E0,0E0,0E0,0E0],"parents":[2147483647,0,0,1,1,2,2,3,3,7,7,8,8,9,9,11,11,12,12,13,13,14,14,18,18],"right_children":[2,4,6,8,-1,-1,-1,10,12,14,-1,16,18,20,22,-1,-1,-1,24,-1,-1,-1,-1,-1,-1],"split_conditions":[2.2941573E-1,3.3333334E-1,3.3333334E-1,2.773501E-1,1.3022846E-1,-1.8944576E-2,-1.2054558E-1,2.5E-1,6.666767E-1,2.085144E-1,-1.3342339E-1,3.3333334E-1,3.0151135E-1,2.0412415E-1,2.581989E-1,-1.304881E-1,-2.5135309E-2,-9.956619E-2,2.8867513E-1,-2.7658136E-3,1.3374707E-1,1.1810862E-1,1.8068057E-2,4.6688706E-2,-1.06882215E-1],"split_indices":[8957,46951,83558,545,0,0,0,5564,35120,70478,0,9007,6467,27372,242,0,0,0,16601,0,0,0,0,0,0],"split_type":[0,0,0,0,0,0,0,0,0,0,0,0,0,0,0,0,0,0,0,0,0,0,0,0,0],"sum_hessian":[1.5001295E3,1.4939525E3,6.177026E0,1.4904609E3,3.4914777E0,1.2403454E0,4.936681E0,1.4180562E3,7.240488E1,1.4136013E3,4.454849E0,3.223384E0,6.9181496E1,1.4081344E3,5.466864E0,1.9911132E0,1.2322708E0,1.9958544E0,6.718564E1,1.4056564E3,2.4780827E0,4.2296586E0,1.2372054E0,6.5942375E1,1.2432698E0],"tree_param":{"num_deleted":"0","num_feature":"128104","num_nodes":"25","size_leaf_vector":"1"}},{"base_weights":[2.8638221E-2,9.803936E-1,2.2814235E-2,-2.5095468E-2,1.3013272E0,1.9758428E-2,1.3206027E-1,3.6119677E-2,1.4748962E-1,1.4644061E-2,7.7903104E-1,-1.1068012E0,1.8229669E-2,1.000085E0,-6.758557E-3,-3.838188E-2,-1.3188031E-1,2.1854851E-2,-1.0191988E0,1.3673765E-2,1.1399788E0,1.1255323E-1,1.8455746E-3,-1.3046937E-1,-5.539152E-3,1.3859873E-1,5.7032894E-2],"categories":[],"categories_nodes":[],"categories_segments":[],"categories_sizes":[],"default_left":[0,1,1,0,0,1,0,0,0,0,1,1,1,0,0,0,0,0,0,0,1,0,0,0,0,0,0],"id":31,"left_children":[1,3,5,-1,7,9,-1,-1,-1,11,13,15,17,19,-1,-1,-1,21,23,-1,25,-1,-1,-1,-1,-1,-1],"loss_changes":[8.2684E0,3.9120913E0,5.8735867E0,0E0,6.680813E-1,5.755775E0,0E0,0E0,0E0,5.956253E0,1.9236846E0,2.1745014E-1,5.5602436E0,8.0160046E-1,0E0,0E0,0E0,5.487864E0,1.3444443E0,0E0,1.4648914E-1,0E0,0E0,0E0,0E0,0E0,0E0],"parents":[2147483647,0,0,1,1,2,2,4,4,5,5,9,9,10,10,11,11,12,12,13,13,17,17,18,18,20,20],"right_children":[2,4,6,-1,8,10,-1,-1,-1,12,14,16,18,20,-1,-1,-1,22,24,-1,26,-1,-1,-1,-1,-1,-1],"split_conditions":[2.4253562E-1,1.5617377E-1,2.5E-1,-2.5095468E-2,2.3570226E-1,2.1320072E-1,1.3206027E-1,3.6119677E-2,1.4748962E-1,2.8867513E-1,3.0151135E-1,2.085144E-1,2.773501E-1,3.3333334E-1,-6.758557E-3,-3.838188E-2,-1.3188031E-1,3.0151135E-1,3.3333334E-1,1.3673765E-2,2.773501E-1,1.1255323E-1,1.8455746E-3,-1.3046937E-1,-5.539152E-3,1.3859873E-1,5.7032894E-2],"split_indices":[6467,22,3260,0,4211,70478,0,0,0,4098,545,1932,167,14742,0,0,0,2151,24,0,22,0,0,0,0,0,0],"split_type":[0,0,0,0,0,0,0,0,0,0,0,0,0,0,0,0,0,0,0,0,0,0,0,0,0,0,0],"sum_hessian":[1.4947157E3,8.0731E0,1.4866426E3,1.7141914E0,6.3589087E0,1.4841631E3,2.4794252E0,1.4712005E0,4.887708E0,1.4752454E3,8.917784E0,3.7211754E0,1.4715242E3,6.927675E0,1.9901084E0,1.4810059E0,2.2401695E0,1.4673755E3,4.148653E0,1.2417448E0,5.6859303E0,3.4917488E0,1.4638838E3,2.9277275E0,1.2209257E0,2.9701803E0,2.71575E0],"tree_param":{"num_deleted":"0","num_feature":"128104","num_nodes":"27","size_leaf_vector":"1"}},{"base_weights":[1.3986508E-3,-3.948793E-3,9.995324E-1,9.534065E-1,-8.790747E-3,1.6698936E-2,1.1281213E0,1.1754053E0,1.4642589E-2,-4.2030723E-3,-9.546603E-1,1.847908E-2,1.3102171E-1,3.31894E-2,1.3971041E-1,-1.0714939E0,-1.8588676E-4,3.9493002E-2,-1.3001104E-1,2.7992044E-2,-1.5332472E-1,5.520838E-1,-7.865937E-3,-1.0398065E-2,7.751012E-2,-1.4021328E-3,7.169788E-2],"categories":[],"categories_nodes":[],"categories_segments":[],"categories_sizes":[],"default_left":[1,0,0,1,1,0,0,0,0,0,0,0,0,0,0,0,0,0,0,0,0,0,1,0,0,0,0],"id":32,"left_children":[1,3,5,7,9,-1,11,13,-1,15,17,-1,-1,-1,-1,19,21,-1,-1,-1,-1,23,25,-1,-1,-1,-1],"loss_changes":[7.9072075E0,6.8402324E0,6.567669E-1,1.1581893E0,6.3635144E0,0E0,9.026995E-1,5.987444E-1,0E0,6.265201E0,3.8135219E0,0E0,0E0,0E0,0E0,3.848483E0,6.183456E0,0E0,0E0,0E0,0E0,3.0062041E0,6.425272E0,0E0,0E0,0E0,0E0],"parents":[2147483647,0,0,1,1,2,2,3,3,4,4,6,6,7,7,9,9,10,10,15,15,16,16,21,21,22,22],"right_children":[2,4,6,8,10,-1,12,14,-1,16,18,-1,-1,-1,-1,20,22,-1,-1,-1,-1,24,26,-1,-1,-1,-1],"split_conditions":[2.236068E-1,2.3570226E-1,2.6726124E-1,2.1320072E-1,1.45865E-1,1.6698936E-2,3.1622776E-1,2.182179E-1,1.4642589E-2,2.085144E-1,3.0151135E-1,1.847908E-2,1.3102171E-1,3.31894E-2,1.3971041E-1,1.9611613E-1,3.1622776E-1,3.9493002E-2,-1.3001104E-1,2.7992044E-2,-1.5332472E-1,2.8867513E-1,3.5355338E-1,-1.0398065E-2,7.751012E-2,-1.4021328E-3,7.169788E-2],"split_indices":[9983,382,5564,693,6555,0,95631,13844,0,850,3660,0,0,0,0,684,35346,0,0,0,0,23,43,0,0,0,0],"split_type":[0,0,0,0,0,0,0,0,0,0,0,0,0,0,0,0,0,0,0,0,0,0,0,0,0,0,0],"sum_hessian":[1.4797147E3,1.4728202E3,6.894505E0,6.425672E0,1.4663945E3,1.22994E0,5.664565E0,4.681307E0,1.7443656E0,1.4603162E3,6.0784106E0,1.2425337E0,4.4220314E0,1.4940078E0,3.1872988E0,4.479463E0,1.4558367E3,1.2095921E0,4.8688183E0,1.2410547E0,3.2384083E0,1.8995445E1,1.4368412E3,4.9544325E0,1.4041014E1,1.4257147E3,1.1126529E1],"tree_param":{"num_deleted":"0","num_feature":"128104","num_nodes":"27","size_leaf_vector":"1"}},{"base_weights":[-1.4081599E-2,-9.63693E-3,-1.1129522E0,-9.651564E-2,-4.6525337E-3,-1.2811355E-1,-3.6483437E-2,-1.14544325E-1,-8.000794E-4,4.0298537E-3,-8.887875E-1,-1.0491118E0,7.978554E-3,-1.1019404E0,1.4868329E-2,-1.7400945E-2,-1.2633055E-1,-1.3527203E-1,1.0998212E-3,-2.8777907E-2,-1.23414E-1],"categories":[],"categories_nodes":[],"categories_segments":[],"categories_sizes":[],"default_left":[1,0,1,0,0,0,0,0,1,0,1,0,0,0,0,0,0,0,0,0,0],"id":33,"left_children":[1,3,5,-1,7,-1,-1,-1,9,11,13,15,17,19,-1,-1,-1,-1,-1,-1,-1],"loss_changes":[7.256001E0,7.0578313E0,2.8562784E-1,0E0,6.4865484E0,0E0,0E0,0E0,6.3176694E0,6.1015363E0,1.9260368E0,8.0749893E-1,6.0168166E0,3.6913967E-1,0E0,0E0,0E0,0E0,0E0,0E0,0E0],"parents":[2147483647,0,0,1,1,2,2,4,4,8,8,9,9,10,10,11,11,12,12,13,13],"right_children":[2,4,6,-1,8,-1,-1,-1,10,12,14,16,18,20,-1,-1,-1,-1,-1,-1,-1],"split_conditions":[2.3570226E-1,8.165066E-1,2.6726124E-1,-9.651564E-2,2.773501E-1,-1.2811355E-1,-3.6483437E-2,-1.14544325E-1,2.182179E-1,2.8867513E-1,2.6726124E-1,2.773501E-1,3.3333334E-1,2.6726124E-1,1.4868329E-2,-1.7400945E-2,-1.2633055E-1,-1.3527203E-1,1.0998212E-3,-2.8777907E-2,-1.23414E-1],"split_indices":[11635,56,24,0,2666,0,0,0,486,2633,43,6050,3955,1779,0,0,0,0,0,0,0],"split_type":[0,0,0,0,0,0,0,0,0,0,0,0,0,0,0,0,0,0,0,0,0],"sum_hessian":[1.4868286E3,1.4818436E3,4.984933E0,6.6901603E0,1.4751534E3,3.4882631E0,1.4966695E0,3.9674993E0,1.4711859E3,1.4642173E3,6.968695E0,4.480783E0,1.4597365E3,5.7294197E0,1.2392755E0,1.2374585E0,3.2433245E0,2.242548E0,1.4574939E3,1.2441401E0,4.4852796E0],"tree_param":{"num_deleted":"0","num_feature":"128104","num_nodes":"21","size_leaf_vector":"1"}},{"base_weights":[2.3216463E-3,1.3595776E-1,-2.0546052E-3,-1.370013E-1,1.639174E-3,6.587448E-1,-5.8091013E-3,8.4007514E-1,-5.509731E-2,-1.3545945E-1,-2.3672075E-3,9.54554E-1,-2.1755375E-2,1.2776491E-1,-5.904763E-3,3.917524E-2,1.2387333E-1,5.1923133E-2,-1.4530652E-3],"categories":[],"categories_nodes":[],"categories_segments":[],"categories_sizes":[],"default_left":[0,0,0,0,0,1,0,1,0,0,0,0,0,0,0,0,0,0,0],"id":34,"left_children":[1,-1,3,-1,5,7,9,11,-1,-1,13,15,-1,-1,17,-1,-1,-1,-1],"loss_changes":[8.753505E0,0E0,7.427653E0,0E0,7.181639E0,4.070409E0,6.7334332E0,1.9872646E0,0E0,0E0,6.566208E0,1.6655884E0,0E0,0E0,6.555004E0,0E0,0E0,0E0,0E0],"parents":[2147483647,0,0,2,2,4,4,5,5,6,6,7,7,10,10,11,11,14,14],"right_children":[2,-1,4,-1,6,8,10,12,-1,-1,14,16,-1,-1,18,-1,-1,-1,-1],"split_conditions":[3.3333334E-1,1.3595776E-1,1.9611613E-1,-1.370013E-1,2.8867513E-1,2.4253562E-1,2.2941573E-1,2.773501E-1,-5.509731E-2,-1.3545945E-1,3.5355338E-1,2.773501E-1,-2.1755375E-2,1.2776491E-1,2.4253562E-1,3.917524E-2,1.2387333E-1,5.1923133E-2,-1.4530652E-3],"split_indices":[17281,0,5301,0,28,1513,1034,8,0,0,4567,1197,0,0,2282,0,0,0,0],"split_type":[0,0,0,0,0,0,0,0,0,0,0,0,0,0,0,0,0,0,0],"sum_hessian":[1.4722598E3,3.7365284E0,1.4685232E3,2.958535E0,1.4655647E3,1.54459E1,1.4501188E3,1.3698176E1,1.7477233E0,2.6918569E0,1.447427E3,1.2448226E1,1.2499508E0,2.9965565E0,1.4444304E3,4.9746804E0,7.4735456E0,2.2386177E1,1.4220442E3],"tree_param":{"num_deleted":"0","num_feature":"128104","num_nodes":"19","size_leaf_vector":"1"}},{"base_weights":[1.5978254E-2,-1.0752938E0,2.0833394E-2,-1.4141078E-1,2.3678139E-2,1.1061412E0,1.5818458E-2,1.5818676E-2,1.2851588E-1,1.3944289E-1,1.2565279E-2,8.317665E-3,9.5537055E-1,9.9418205E-1,4.2117527E-3,2.0108918E-2,1.0906551E0,2.5882397E-2,1.1278734E-1,8.0443185E-4,-1.0252526E-1,1.2623118E-1,4.6232395E-2],"categories":[],"categories_nodes":[],"categories_segments":[],"categories_sizes":[],"default_left":[0,1,0,0,0,0,0,0,0,0,1,0,0,0,1,0,1,0,0,0,0,0,0],"id":35,"left_children":[1,3,5,-1,-1,7,9,-1,-1,-1,11,13,15,17,19,-1,21,-1,-1,-1,-1,-1,-1],"loss_changes":[7.960869E0,3.2935605E0,8.1066475E0,0E0,0E0,9.593153E-1,6.6505966E0,0E0,0E0,0E0,5.936241E0,5.9812584E0,4.5911026E-1,3.105812E-1,5.822068E0,0E0,5.4836273E-5,0E0,0E0,0E0,0E0,0E0,0E0],"parents":[2147483647,0,0,1,1,2,2,5,5,6,6,10,10,11,11,12,12,13,13,14,14,16,16],"right_children":[2,4,6,-1,-1,8,10,-1,-1,-1,12,14,16,18,20,-1,22,-1,-1,-1,-1,-1,-1],"split_conditions":[2E-1,2.0306924E-1,2.3570226E-1,-1.4141078E-1,2.3678139E-2,1.3736056E-1,3.3333334E-1,1.5818676E-2,1.2851588E-1,1.3944289E-1,2.236068E-1,3.5355338E-1,3.5355338E-1,2.6726124E-1,2.4253562E-1,2.0108918E-2,2.581989E-1,2.5882397E-2,1.1278734E-1,8.0443185E-4,-1.0252526E-1,1.2623118E-1,4.6232395E-2],"split_indices":[522,526,1406,0,0,24,1673,0,0,0,415,8081,1625,1296,135,0,14529,0,0,0,0,0,0],"split_type":[0,0,0,0,0,0,0,0,0,0,0,0,0,0,0,0,0,0,0,0,0,0,0],"sum_hessian":[1.4973105E3,5.6555614E0,1.491655E3,4.4330587E0,1.2225025E0,5.850952E0,1.4858041E3,1.2286266E0,4.6223254E0,2.4911373E0,1.4833129E3,1.4776644E3,5.648489E0,5.1285224E0,1.4725359E3,1.2371504E0,4.4113383E0,1.2406132E0,3.887909E0,1.4680627E3,4.4732265E0,2.6722915E0,1.7390469E0],"tree_param":{"num_deleted":"0","num_feature":"128104","num_nodes":"23","size_leaf_vector":"1"}},{"base_weights":[-5.7204296E-3,-9.971609E-3,1.1407131E0,7.891934E-1,-1.5901122E-2,1.4231917E-1,5.067981E-2,-3.257523E-2,9.998088E-1,1.0324725E0,-2.0316675E-2,1.3444915E-1,1.814853E-2,1.1512518E-1,3.0985212E-2,-1.344785E-1,-1.6972959E-2,-1.33805815E-2,-1.24728434E-1,1.2017091E-1,-1.6901961E-3],"categories":[],"categories_nodes":[],"categories_segments":[],"categories_sizes":[],"default_left":[1,0,0,0,0,0,0,0,1,1,0,0,0,0,0,0,1,0,0,0,0],"id":36,"left_children":[1,3,5,7,9,-1,-1,-1,11,13,15,-1,-1,-1,-1,-1,17,19,-1,-1,-1],"loss_changes":[7.2440634E0,7.0235558E0,2.620535E-1,2.889155E0,6.8240566E0,0E0,0E0,0E0,2.415204E0,1.7399168E-1,6.4626374E0,0E0,0E0,0E0,0E0,0E0,6.4439106E0,6.2609897E0,0E0,0E0,0E0],"parents":[2147483647,0,0,1,1,2,2,3,3,4,4,8,8,9,9,10,10,16,16,17,17],"right_children":[2,4,6,8,10,-1,-1,-1,12,14,16,-1,-1,-1,-1,-1,18,20,-1,-1,-1],"split_conditions":[2.3570226E-1,2.773501E-1,3.0151135E-1,2.085144E-1,3.7139067E-1,1.4231917E-1,5.067981E-2,-3.257523E-2,2.2941573E-1,1.3363062E-1,2.3570226E-1,1.3444915E-1,1.814853E-2,1.1512518E-1,3.0985212E-2,-1.344785E-1,2.6726124E-1,2.3570226E-1,-1.24728434E-1,1.2017091E-1,-1.6901961E-3],"split_indices":[447,177,447,24,4285,0,0,0,431,22,3751,0,0,0,0,0,17464,10212,0,0,0],"split_type":[0,0,0,0,0,0,0,0,0,0,0,0,0,0,0,0,0,0,0,0,0],"sum_hessian":[1.4830255E3,1.4785342E3,4.491366E0,9.916504E0,1.4686177E3,2.245616E0,2.24575E0,1.4887516E0,8.4277525E0,5.183091E0,1.4634346E3,5.47758E0,2.950172E0,3.9419746E0,1.2411164E0,2.6749787E0,1.4607596E3,1.4575146E3,3.2449102E0,3.2284896E0,1.4542863E3],"tree_param":{"num_deleted":"0","num_feature":"128104","num_nodes":"21","size_leaf_vector":"1"}},{"base_weights":[5.049075E-3,-2.020833E-3,8.415509E-1,2.5256563E-3,-1.0421836E-1,-7.161703E-2,1.0800656E0,-1.2410593E-1,6.127679E-3,2.7249891E-2,1.154229E-1,-9.9192284E-2,1.0405939E-2,-8.557716E-1,1.5182163E-2,2.1470435E-2,-1.0859366E-1,1.3604085E-1,1.2153783E-3],"categories":[],"categories_nodes":[],"categories_segments":[],"categories_sizes":[],"default_left":[1,1,0,0,0,0,0,0,0,0,0,0,0,0,0,0,0,0,0],"id":37,"left_children":[1,3,5,7,-1,-1,9,-1,11,-1,-1,-1,13,15,17,-1,-1,-1,-1],"loss_changes":[8.743722E0,6.9392695E0,5.37726E0,6.5539036E0,0E0,0E0,3.5293198E-1,0E0,6.2366796E0,0E0,0E0,0E0,6.0239553E0,2.2006211E0,5.874143E0,0E0,0E0,0E0,0E0],"parents":[2147483647,0,0,1,1,2,2,3,3,6,6,8,8,12,12,13,13,14,14],"right_children":[2,4,6,8,-1,-1,10,-1,12,-1,-1,-1,14,16,18,-1,-1,-1,-1],"split_conditions":[3.1622776E-1,3.0151135E-1,7.071168E-1,6.666767E-1,-1.0421836E-1,-7.161703E-2,3.7796447E-1,-1.2410593E-1,4.364358E-1,2.7249891E-2,1.154229E-1,-9.9192284E-2,7.071168E-1,3.7796447E-1,3.3333334E-1,2.1470435E-2,-1.0859366E-1,1.3604085E-1,1.2153783E-3],"split_indices":[8628,566,121787,3548,0,0,99977,0,214,0,0,0,44,149,385,0,0,0,0],"split_type":[0,0,0,0,0,0,0,0,0,0,0,0,0,0,0,0,0,0,0],"sum_hessian":[1.4771931E3,1.4658021E3,1.1391016E1,1.4604164E3,5.3858213E0,1.2466452E0,1.0144371E1,3.225655E0,1.4571907E3,1.2464168E0,8.897954E0,5.2344074E0,1.4519563E3,6.985298E0,1.444971E3,1.248024E0,5.737274E0,2.2388499E0,1.4427322E3],"tree_param":{"num_deleted":"0","num_feature":"128104","num_nodes":"19","size_leaf_vector":"1"}},{"base_weights":[1.8305631E-3,-2.5901974E-3,1.1493132E-1,7.8326237E-4,-1.3344768E-1,4.579446E-3,-1.0741795E0,-1.76735E-3,6.222872E-1,-1.2751243E-1,-4.278684E-2,1.3737993E-1,-4.6090647E-3,7.9051626E-1,-6.767797E-2,-2.8088932E-6,-8.387683E-2,-3.714197E-2,9.3431234E-2],"categories":[],"categories_nodes":[],"categories_segments":[],"categories_sizes":[],"default_left":[1,1,0,1,0,1,1,0,1,0,0,0,1,0,0,0,0,0,0],"id":38,"left_children":[1,3,-1,5,-1,7,9,11,13,-1,-1,-1,15,17,-1,-1,-1,-1,-1],"loss_changes":[7.500479E0,6.620779E0,0E0,6.006077E0,0E0,5.750149E0,1.2706804E-1,5.6841207E0,3.7949123E0,0E0,0E0,0E0,5.5427403E0,2.6306486E0,0E0,0E0,0E0,0E0,0E0],"parents":[2147483647,0,0,1,1,3,3,5,5,6,6,7,7,8,8,12,12,13,13],"right_children":[2,4,-1,6,-1,8,10,12,14,-1,-1,-1,16,18,-1,-1,-1,-1,-1],"split_conditions":[2.8867513E-1,3.0151135E-1,1.1493132E-1,2.5E-1,-1.3344768E-1,2.236068E-1,2.6726124E-1,7.071168E-1,2.8867513E-1,-1.2751243E-1,-4.278684E-2,1.3737993E-1,3.5355338E-1,3.5355338E-1,-6.767797E-2,-2.8088932E-6,-8.387683E-2,-3.714197E-2,9.3431234E-2],"split_indices":[1206,7546,0,41734,0,17724,1324,30498,121787,0,0,0,306,12,0,0,0,0,0],"split_type":[0,0,0,0,0,0,0,0,0,0,0,0,0,0,0,0,0,0,0],"sum_hessian":[1.4769967E3,1.4723223E3,4.674486E0,1.4695994E3,2.722853E0,1.46542E3,4.179326E0,1.4515034E3,1.3916703E1,2.4459343E0,1.7333919E0,1.9978123E0,1.4495056E3,1.2667709E1,1.2489934E0,1.4425834E3,6.9222417E0,1.220728E0,1.1446981E1],"tree_param":{"num_deleted":"0","num_feature":"128104","num_nodes":"19","size_leaf_vector":"1"}},{"base_weights":[-6.2105334E-3,-8.486311E-1,-1.4753356E-3,2.3935124E-2,-1.0767962E0,1.0595022E0,-5.047137E-3,-1.1837449E-1,-4.0699493E-2,5.8561834E-3,1.3626608E-1,1.1532376E-1,-8.234745E-3,-1.1765789E-2,1.0221479E0,9.908934E-2,-1.5409728E-2,4.1626964E-2,1.21891856E-1,-7.8565965E-4,-5.458566E-2],"categories":[],"categories_nodes":[],"categories_segments":[],"categories_sizes":[],"default_left":[0,0,0,0,1,0,0,0,0,0,0,0,1,0,0,0,1,0,0,0,0],"id":39,"left_children":[1,3,5,-1,7,9,11,-1,-1,-1,-1,-1,13,15,17,-1,19,-1,-1,-1,-1],"loss_changes":[5.810903E0,2.278998E0,5.4998646E0,0E0,1.3408661E-2,1.3978062E0,5.348444E0,0E0,0E0,0E0,0E0,0E0,5.2623076E0,5.2732363E0,8.150864E-2,0E0,5.7446165E0,0E0,0E0,0E0,0E0],"parents":[2147483647,0,0,1,1,2,2,4,4,5,5,6,6,12,12,13,13,14,14,16,16],"right_children":[2,4,6,-1,8,10,12,-1,-1,-1,-1,-1,14,16,18,-1,20,-1,-1,-1,-1],"split_conditions":[2.2941573E-1,2.182179E-1,2.5E-1,2.3935124E-2,2.085144E-1,4.5883146E-1,3.1622776E-1,-1.1837449E-1,-4.0699493E-2,5.8561834E-3,1.3626608E-1,1.1532376E-1,3.1622776E-1,3.1622776E-1,4.472136E-1,9.908934E-2,2.1320072E-1,4.1626964E-2,1.21891856E-1,-7.8565965E-4,-5.458566E-2],"split_indices":[4211,474,4491,0,242,806,260,0,0,0,0,0,50560,1491,2703,0,4817,0,0,0,0],"split_type":[0,0,0,0,0,0,0,0,0,0,0,0,0,0,0,0,0,0,0,0,0],"sum_hessian":[1.4560356E3,7.1423945E0,1.4488932E3,1.2296946E0,5.9127E0,3.8694572E0,1.4450237E3,4.436937E0,1.4757636E0,1.1768887E0,2.6925685E0,2.9756358E0,1.4420481E3,1.4381084E3,3.9397097E0,4.2264886E0,1.433882E3,1.7295973E0,2.2101123E0,1.4147518E3,1.9130104E1],"tree_param":{"num_deleted":"0","num_feature":"128104","num_nodes":"21","size_leaf_vector":"1"}},{"base_weights":[1.385751E-3,-3.1410418E-3,8.9779973E-1,3.856601E-4,-1.0952713E-1,1.3338624E0,-2.0685786E-2,1.0298616E-1,-3.2845882E-3,1.5637784E-1,3.0617272E-2,-6.7024156E-3,1.10977136E-1,1.21552765E-1,-9.819395E-3,1.3456608E-1,-1.2603523E-3],"categories":[],"categories_nodes":[],"categories_segments":[],"categories_sizes":[],"default_left":[1,1,1,0,0,1,0,0,1,0,0,0,0,0,0,0,0],"id":40,"left_children":[1,3,5,7,-1,9,-1,-1,11,-1,-1,13,-1,-1,15,-1,-1],"loss_changes":[5.9993587E0,5.667397E0,3.854217E0,5.5485597E0,0E0,8.1138325E-1,0E0,0E0,5.574439E0,0E0,0E0,5.573607E0,0E0,0E0,5.516045E0,0E0,0E0],"parents":[2147483647,0,0,1,1,2,2,3,3,5,5,8,8,11,11,14,14],"right_children":[2,4,6,8,-1,10,-1,-1,12,-1,-1,14,-1,-1,16,-1,-1],"split_conditions":[1.5617377E-1,3.0151135E-1,2.4253562E-1,2.5E-1,-1.0952713E-1,2.1320072E-1,-2.0685786E-2,1.0298616E-1,3.0151135E-1,1.5637784E-1,3.0617272E-2,3.5355338E-1,1.10977136E-1,1.21552765E-1,7.5593895E-1,1.3456608E-1,-1.2603523E-3],"split_indices":[3837,32444,526,4570,0,1029,0,0,2706,0,0,307,0,0,3546,0,0],"split_type":[0,0,0,0,0,0,0,0,0,0,0,0,0,0,0,0,0],"sum_hessian":[1.4767515E3,1.470323E3,6.428475E0,1.4665868E3,3.736248E0,4.4602895E0,1.9681852E0,4.2167764E0,1.46237E3,3.2185805E0,1.2417091E0,1.4588843E3,3.485774E0,2.7215977E0,1.4561626E3,1.9961259E0,1.4541665E3],"tree_param":{"num_deleted":"0","num_feature":"128104","num_nodes":"17","size_leaf_vector":"1"}},{"base_weights":[2.3008278E-3,-1.256526E-1,6.1243977E-3,-9.894923E-1,1.0553291E-2,-1.1577063E-1,-2.4226582E-2,8.0631757E-1,5.3074285E-3,1.0657991E0,-3.6339078E-2,-1.3604498E-1,8.338877E-3,1.8449413E-2,1.1964636E0,1.2237927E-2,-1.049708E0,5.676219E-2,1.4221634E-1,7.700214E-4,8.957249E-2,-4.501779E-2,-1.252852E-1],"categories":[],"categories_nodes":[],"categories_segments":[],"categories_sizes":[],"default_left":[0,0,0,1,0,0,0,1,0,0,0,0,1,0,0,1,0,0,0,0,0,0,0],"id":41,"left_children":[1,-1,3,5,7,-1,-1,9,11,13,-1,-1,15,-1,17,19,21,-1,-1,-1,-1,-1,-1],"loss_changes":[7.1298094E0,0E0,6.519784E0,5.4260397E-1,6.1349754E0,0E0,0E0,3.3086166E0,6.0645237E0,7.15662E-1,0E0,0E0,6.035064E0,0E0,1.7197418E-1,5.827923E0,9.0173244E-2,0E0,0E0,0E0,0E0,0E0,0E0],"parents":[2147483647,0,0,2,2,3,3,4,4,7,7,8,8,9,9,12,12,14,14,15,15,16,16],"right_children":[2,-1,4,6,8,-1,-1,10,12,14,-1,-1,16,-1,18,20,22,-1,-1,-1,-1,-1,-1],"split_conditions":[3.0151135E-1,-1.256526E-1,3.0151135E-1,2.5E-1,4.170288E-1,-1.1577063E-1,-2.4226582E-2,2.182179E-1,6.3246554E-1,3.1622776E-1,-3.6339078E-2,-1.3604498E-1,2.5E-1,1.8449413E-2,2.3570226E-1,3.3333334E-1,2.773501E-1,5.676219E-2,1.4221634E-1,7.700214E-4,8.957249E-2,-4.501779E-2,-1.252852E-1],"split_indices":[843,0,19896,24,10966,0,0,3877,2080,3607,0,0,41734,0,24,693,1324,0,0,0,0,0,0],"split_type":[0,0,0,0,0,0,0,0,0,0,0,0,0,0,0,0,0,0,0,0,0,0,0],"sum_hessian":[1.4787009E3,3.4856946E0,1.4752152E3,5.548254E0,1.469667E3,4.0803556E0,1.4678985E0,8.624859E0,1.4610421E3,7.1316476E0,1.493211E0,2.2440686E0,1.458798E3,1.2322621E0,5.8993855E0,1.4544266E3,4.3713307E0,2.4864938E0,3.4128916E0,1.4479983E3,6.4284053E0,1.9202456E0,2.451085E0],"tree_param":{"num_deleted":"0","num_feature":"128104","num_nodes":"23","size_leaf_vector":"1"}},{"base_weights":[-8.235127E-5,-3.9479374E-3,1.3399605E-1,-8.818123E-3,9.488735E-1,-4.417015E-3,-9.985983E-1,-1.8414034E-2,1.2046314E0,1.288536E-1,-8.180241E-3,-1.1791481E0,-1.2974188E-2,1.3833283E-1,2.7164405E-2,9.0324026E-1,-1.2409695E-2,-3.7627637E-2,-1.4004548E-1,1.2013207E-1,-8.988224E-3,1.3587685E-1,-1.524261E-3],"categories":[],"categories_nodes":[],"categories_segments":[],"categories_sizes":[],"default_left":[1,1,0,1,0,0,1,0,1,0,0,0,0,0,0,1,0,0,0,0,0,0,0],"id":42,"left_children":[1,3,-1,5,7,9,11,-1,13,-1,15,17,-1,-1,-1,19,21,-1,-1,-1,-1,-1,-1],"loss_changes":[7.636523E0,6.8295755E0,0E0,6.37066E0,2.3906388E0,7.104683E0,8.6262655E-1,0E0,6.6435146E-1,0E0,5.6190333E0,4.034934E-1,0E0,0E0,0E0,2.1012068E0,5.6493526E0,0E0,0E0,0E0,0E0,0E0,0E0],"parents":[2147483647,0,0,1,1,3,3,4,4,5,5,6,6,8,8,10,10,11,11,15,15,16,16],"right_children":[2,4,-1,6,8,10,12,-1,14,-1,16,18,-1,-1,-1,20,22,-1,-1,-1,-1,-1,-1],"split_conditions":[2.6726124E-1,3.1622776E-1,1.3399605E-1,2.6726124E-1,3.5355338E-1,3.5355338E-1,2.8867513E-1,-1.8414034E-2,3.5355338E-1,1.288536E-1,2.6726124E-1,2.8867513E-1,-1.2974188E-2,1.3833283E-1,2.7164405E-2,2.1320072E-1,7.5593895E-1,-3.7627637E-2,-1.4004548E-1,1.2013207E-1,-8.988224E-3,1.3587685E-1,-1.524261E-3],"split_indices":[952,116001,0,121,1513,4649,1943,0,1197,0,2472,121,0,0,0,382,13832,0,0,0,0,0,0],"split_type":[0,0,0,0,0,0,0,0,0,0,0,0,0,0,0,0,0,0,0,0,0,0,0],"sum_hessian":[1.4721964E3,1.4689559E3,3.2404041E0,1.4624716E3,6.48443E0,1.4569974E3,5.47415E0,1.2457497E0,5.2386804E0,3.237592E0,1.4537598E3,4.2366424E0,1.2375078E0,3.9914944E0,1.2471857E0,5.7331953E0,1.4480266E3,1.4989386E0,2.7377038E0,4.248416E0,1.4847794E0,1.9986727E0,1.446028E3],"tree_param":{"num_deleted":"0","num_feature":"128104","num_nodes":"23","size_leaf_vector":"1"}},{"base_weights":[-1.5587531E-2,-1.2973814E-1,-1.2169586E-2,-8.896685E-3,-1.3124992E-1,-1.2801999E-2,1.0399415E-1,-1.3351394E-1,-9.877692E-3,-1.3292354E-1,-6.955641E-3,1.0786438E-1,-1.0235815E-3],"categories":[],"categories_nodes":[],"categories_segments":[],"categories_sizes":[],"default_left":[0,0,1,1,0,0,0,0,0,0,0,0,0],"id":43,"left_children":[1,-1,3,5,-1,7,-1,-1,9,-1,11,-1,-1],"loss_changes":[6.4734387E0,0E0,6.279561E0,6.0572386E0,0E0,5.6753087E0,0E0,0E0,5.653424E0,0E0,5.23349E0,0E0,0E0],"parents":[2147483647,0,0,2,2,3,3,5,5,8,8,10,10],"right_children":[2,-1,4,6,-1,8,-1,-1,10,-1,12,-1,-1],"split_conditions":[3.1622776E-1,-1.2973814E-1,2.3570226E-1,2.8867513E-1,-1.3124992E-1,2.8867513E-1,1.0399415E-1,-1.3351394E-1,3.3333334E-1,-1.3292354E-1,3.3333334E-1,1.0786438E-1,-1.0235815E-3],"split_indices":[914,0,1056,203,0,226,0,0,1962,0,1191,0,0],"split_type":[0,0,0,0,0,0,0,0,0,0,0,0,0],"sum_hessian":[1.4801864E3,2.9296596E0,1.4772567E3,1.4745521E3,2.704573E0,1.4700662E3,4.485949E0,2.2385845E0,1.4678276E3,2.240641E0,1.4655869E3,3.4273913E0,1.4621595E3],"tree_param":{"num_deleted":"0","num_feature":"128104","num_nodes":"13","size_leaf_vector":"1"}},{"base_weights":[1.5291671E-2,9.841774E-1,1.0222357E-2,1.3333099E-2,1.1271238E-1,4.791796E-3,8.7920105E-1,2.637743E-4,1.028171E0,7.662907E-3,1.1269327E0,-1.07559696E-1,4.0532816E-3,1.3560168E-1,-3.8875788E-3,1.2535775E-2,1.3231632E-1,7.3575065E-3,-1.19989656E-1,-7.887839E-2,1.2277955E-3],"categories":[],"categories_nodes":[],"categories_segments":[],"categories_sizes":[],"default_left":[0,0,1,0,0,1,0,0,0,0,0,0,1,0,0,0,0,0,0,0,0],"id":44,"left_children":[1,3,5,-1,-1,7,9,11,13,-1,15,-1,17,-1,-1,-1,-1,19,-1,-1,-1],"loss_changes":[7.2657604E0,7.8621054E-1,6.9547634E0,0E0,0E0,6.7953463E0,1.733459E0,5.961019E0,2.312539E0,0E0,1.1944046E0,0E0,5.804609E0,0E0,0E0,0E0,0E0,5.705232E0,0E0,0E0,0E0],"parents":[2147483647,0,0,1,1,2,2,5,5,6,6,7,7,8,8,10,10,12,12,17,17],"right_children":[2,4,6,-1,-1,8,10,12,14,-1,16,-1,18,-1,-1,-1,-1,20,-1,-1,-1],"split_conditions":[3.3333334E-1,3.3333334E-1,2.581989E-1,1.3333099E-2,1.1271238E-1,2.3570226E-1,4.082483E-1,6.3246554E-1,3.0151135E-1,7.662907E-3,3.7796447E-1,-1.07559696E-1,2.3570226E-1,1.3560168E-1,-3.8875788E-3,1.2535775E-2,1.3231632E-1,3.3333334E-1,-1.19989656E-1,-7.887839E-2,1.2277955E-3],"split_indices":[2141,7911,42449,0,0,14555,116001,7582,14555,0,241,0,20094,0,0,0,0,3573,0,0,0],"split_type":[0,0,0,0,0,0,0,0,0,0,0,0,0,0,0,0,0,0,0,0,0],"sum_hessian":[1.4803586E3,6.6997914E0,1.4736589E3,1.241696E0,5.4580956E0,1.465506E3,8.15296E0,1.4600461E3,5.459831E0,2.2318375E0,5.921122E0,4.131938E0,1.4559142E3,3.9694273E0,1.4904041E0,1.2385085E0,4.6826134E0,1.4529205E3,2.9936328E0,7.945898E0,1.4449746E3],"tree_param":{"num_deleted":"0","num_feature":"128104","num_nodes":"21","size_leaf_vector":"1"}},{"base_weights":[2.24545E-2,2.8150992E-2,-1.0060514E0,-1.4526178E-1,3.1898823E-2,1.574695E-2,-1.2352746E0,2.8898006E-2,1.3813539E-1,-1.429971E-1,-1.8807823E-2,1.0725112E-1,2.5173387E-2,1.2090816E-1,2.1929981E-2,1.9057858E-3,1.3127455E-1],"categories":[],"categories_nodes":[],"categories_segments":[],"categories_sizes":[],"default_left":[1,0,0,0,1,0,1,0,0,0,0,0,0,0,1,0,0],"id":45,"left_children":[1,3,5,-1,7,-1,9,11,-1,-1,-1,-1,13,-1,15,-1,-1],"loss_changes":[8.707948E0,8.228002E0,2.3780909E0,0E0,5.9189444E0,0E0,1.1486225E0,5.684163E0,0E0,0E0,0E0,0E0,5.5992136E0,0E0,5.3955064E0,0E0,0E0],"parents":[2147483647,0,0,1,1,2,2,4,4,6,6,7,7,12,12,14,14],"right_children":[2,4,6,-1,8,-1,10,12,-1,-1,-1,-1,14,-1,16,-1,-1],"split_conditions":[2E-1,7.5593895E-1,3.7796447E-1,-1.4526178E-1,2.8867513E-1,1.574695E-2,2.581989E-1,3.1622776E-1,1.3813539E-1,-1.429971E-1,-1.8807823E-2,1.0725112E-1,6.666767E-1,1.2090816E-1,2.8867513E-1,1.9057858E-3,1.3127455E-1],"split_indices":[483,118728,423,0,981,0,10877,51,0,0,0,0,1089,0,2036,0,0],"split_type":[0,0,0,0,0,0,0,0,0,0,0,0,0,0,0,0,0],"sum_hessian":[1.480449E3,1.4732617E3,7.1871915E0,2.7434278E0,1.4705183E3,1.234415E0,5.9527764E0,1.4682747E3,2.2436235E0,4.711318E0,1.2414585E0,4.201107E0,1.4640736E3,2.984241E0,1.4610894E3,1.458858E3,2.231263E0],"tree_param":{"num_deleted":"0","num_feature":"128104","num_nodes":"17","size_leaf_vector":"1"}},{"base_weights":[-5.2092196E-3,4.9114153E-3,-4.7000754E-1,-1.1898766E-1,8.362444E-3,-6.182087E-1,1.311733E-1,-9.524152E-1,1.2610821E-2,3.129848E-1,-7.1438235E-1,-1.2328654E-2,-1.125373E-1,-7.533696E-1,1.7896283E-2,6.516915E-2,-1.6603163E-2,-8.159846E-1,3.8370725E-2,-2.1958949E-2,-1.0273104E0,2.3387691E-2,-7.199075E-1,-8.90062E-1,2.3432165E-2,9.688322E-3,-1.4386105E-2,-8.259318E-3,-1.3130148E-1,-1.3190624E-1,2.6427484E-3,2.2084618E-2,-8.682821E-2,3.1155976E-3,-9.5298514E-2],"categories":[],"categories_nodes":[],"categories_segments":[],"categories_sizes":[],"default_left":[1,0,1,0,0,0,0,0,0,0,0,0,0,0,1,0,0,1,0,0,0,0,0,0,0,0,0,0,0,0,0,0,0,0,0],"id":46,"left_children":[1,3,5,-1,7,9,-1,11,13,15,17,-1,-1,19,21,-1,-1,23,-1,25,27,29,31,33,-1,-1,-1,-1,-1,-1,-1,-1,-1,-1,-1],"loss_changes":[6.972986E0,5.9938383E0,9.152139E0,0E0,5.9226613E0,2.8961954E0,0E0,7.77318E-1,5.854267E0,6.742753E-1,3.364915E0,0E0,0E0,1.9630122E0,5.8258777E0,0E0,0E0,2.1814384E0,0E0,6.7860276E-2,1.8315988E0,5.8464775E0,1.6747041E0,1.4147758E0,0E0,0E0,0E0,0E0,0E0,0E0,0E0,0E0,0E0,0E0,0E0],"parents":[2147483647,0,0,1,1,2,2,4,4,5,5,7,7,8,8,9,9,10,10,13,13,14,14,17,17,19,19,20,20,21,21,22,22,23,23],"right_children":[2,4,6,-1,8,10,-1,12,14,16,18,-1,-1,20,22,-1,-1,24,-1,26,28,30,32,34,-1,-1,-1,-1,-1,-1,-1,-1,-1,-1,-1],"split_conditions":[2.236068E-1,3.1622776E-1,2.6726124E-1,-1.1898766E-1,1.0328056E0,3.0151135E-1,1.311733E-1,4.7140452E-1,3.0151135E-1,2.773501E-1,3.5355338E-1,-1.2328654E-2,-1.125373E-1,2.4253562E-1,2.4253562E-1,6.516915E-2,-1.6603163E-2,2.773501E-1,3.8370725E-2,2.2941573E-1,2.182179E-1,6.3246554E-1,3.1622776E-1,2.6726124E-1,2.3432165E-2,9.688322E-3,-1.4386105E-2,-8.259318E-3,-1.3130148E-1,-1.3190624E-1,2.6427484E-3,2.2084618E-2,-8.682821E-2,3.1155976E-3,-9.5298514E-2],"split_indices":[432,10466,55,0,3680,8,0,522,810,432,24,0,0,1946,2571,0,0,42449,0,24,24,1083,680,117,0,0,0,0,0,0,0,0,0,0,0],"split_type":[0,0,0,0,0,0,0,0,0,0,0,0,0,0,0,0,0,0,0,0,0,0,0,0,0,0,0,0,0,0,0,0,0,0,0],"sum_hessian":[1.4808448E3,1.450256E3,3.0588804E1,3.1867185E0,1.4470693E3,2.8842758E1,1.746045E0,5.387967E0,1.4416813E3,2.4889848E0,2.6353775E1,1.2255783E0,4.162389E0,8.909858E0,1.4327715E3,1.2468642E0,1.2421205E0,2.4357014E1,1.996761E0,2.7221055E0,6.1877522E0,1.4231475E3,9.624055E0,2.2894825E1,1.4621878E0,1.4822752E0,1.2398303E0,1.7361245E0,4.4516277E0,2.2371414E0,1.4209103E3,1.2445669E0,8.379488E0,1.4961082E0,2.1398718E1],"tree_param":{"num_deleted":"0","num_feature":"128104","num_nodes":"35","size_leaf_vector":"1"}},{"base_weights":[-1.6267072E-2,-7.196872E-1,-9.087924E-3,2.8473705E-2,-8.919885E-1,-1.0251982E0,-4.6742326E-3,-1.0087767E0,1.0220873E-3,-1.2026805E-1,-1.6149081E-2,-1.0355603E-1,-4.771932E-4,-1.1549191E0,-1.1299202E-2,-6.528689E-3,6.4271325E-1,-1.2601224E0,-2.3452027E-2,-1.4199305E-2,5.046663E-1,8.84615E-1,-1.0450039E-1,-3.4095492E-2,-1.3648006E-1,-1.22231536E-1,-1.1063713E-3,6.9333605E-2,1.1254522E-2,-3.559498E-2,1.1301955E-1,1.7779017E-2,-3.7246462E-2],"categories":[],"categories_nodes":[],"categories_segments":[],"categories_sizes":[],"default_left":[0,0,0,0,1,1,0,1,0,0,0,0,1,1,0,1,1,0,0,0,1,0,0,0,0,0,0,0,0,0,0,0,0],"id":47,"left_children":[1,3,5,-1,7,9,11,13,-1,-1,-1,-1,15,17,-1,19,21,23,-1,25,27,29,31,-1,-1,-1,-1,-1,-1,-1,-1,-1,-1],"loss_changes":[7.5269394E0,2.860095E0,6.622536E0,0E0,1.3901701E0,7.847824E-1,6.3698587E0,1.3887177E0,0E0,0E0,0E0,0E0,5.715611E0,6.600485E-1,0E0,5.7112637E0,2.5664473E0,3.6479473E-1,0E0,5.419289E0,1.5149841E0,3.5846062E0,3.8708314E-1,0E0,0E0,0E0,0E0,0E0,0E0,0E0,0E0,0E0,0E0],"parents":[2147483647,0,0,1,1,2,2,4,4,5,5,6,6,7,7,12,12,13,13,15,15,16,16,17,17,19,19,20,20,21,21,22,22],"right_children":[2,4,6,-1,8,10,12,14,-1,-1,-1,-1,16,18,-1,20,22,24,-1,26,28,30,32,-1,-1,-1,-1,-1,-1,-1,-1,-1,-1],"split_conditions":[3.1622776E-1,2.8867513E-1,2.5E-1,2.8473705E-2,2.4253562E-1,2.182179E-1,3.0151135E-1,2.3570226E-1,1.0220873E-3,-1.2026805E-1,-1.6149081E-2,-1.0355603E-1,2.3570226E-1,2.5E-1,-1.1299202E-2,2.182179E-1,3.1622776E-1,2.6726124E-1,-2.3452027E-2,2.5E-1,3.3333334E-1,4.082483E-1,3.5355338E-1,-3.4095492E-2,-1.3648006E-1,-1.22231536E-1,-1.1063713E-3,6.9333605E-2,1.1254522E-2,-3.559498E-2,1.1301955E-1,1.7779017E-2,-3.7246462E-2],"split_indices":[621,693,1197,0,382,28,19896,13844,0,0,0,0,1457,2925,0,2106,2282,1835,0,695,2282,1625,1457,0,0,0,0,0,0,0,0,0,0],"split_type":[0,0,0,0,0,0,0,0,0,0,0,0,0,0,0,0,0,0,0,0,0,0,0,0,0,0,0,0,0,0,0,0,0],"sum_hessian":[1.4907906E3,1.4058696E1,1.476732E3,1.9629856E0,1.209571E1,5.386502E0,1.4713455E3,1.0604831E1,1.4908794E0,4.1427503E0,1.2437516E0,4.9695835E0,1.466376E3,8.868671E0,1.7361593E0,1.4536887E3,1.2687267E1,7.6277065E0,1.2409651E0,1.433156E3,2.053266E1,9.445509E0,3.2417586E0,1.2151121E0,6.4125943E0,2.7034965E0,1.4304525E3,1.3344003E1,7.188657E0,1.486573E0,7.9589357E0,1.7425553E0,1.4992034E0],"tree_param":{"num_deleted":"0","num_feature":"128104","num_nodes":"33","size_leaf_vector":"1"}},{"base_weights":[-6.6758506E-4,1.0830003E0,-4.688842E-3,2.2632541E-2,1.280548E-1,-1.4117447E-3,-1.2496038E-1,1.3456666E-1,-4.144503E-3,-8.730524E-1,7.117723E-4,-1.1406555E-1,-3.9582324E-1,-1.2867503E-1,3.542095E-3,4.159046E-2,-9.413145E-2,5.1455336E-5,1.1864572E-1],"categories":[],"categories_nodes":[],"categories_segments":[],"categories_sizes":[],"default_left":[0,0,1,0,0,0,0,0,0,0,0,0,0,0,1,0,0,0,0],"id":48,"left_children":[1,3,5,-1,-1,7,-1,-1,9,11,13,-1,15,-1,17,-1,-1,-1,-1],"loss_changes":[6.470833E0,6.3924694E-1,6.0331917E0,0E0,0E0,5.440481E0,0E0,0E0,6.222027E0,5.951052E-1,5.350906E0,0E0,2.3733485E0,0E0,5.245925E0,0E0,0E0,0E0,0E0],"parents":[2147483647,0,0,1,1,2,2,5,5,8,8,9,9,10,10,12,12,14,14],"right_children":[2,4,6,-1,-1,8,-1,-1,10,12,14,-1,16,-1,18,-1,-1,-1,-1],"split_conditions":[3.1622776E-1,2.4253562E-1,3.3333334E-1,2.2632541E-2,1.280548E-1,3.5355338E-1,-1.2496038E-1,1.3456666E-1,3.3333334E-1,2.581989E-1,3.0151135E-1,-1.1406555E-1,2.773501E-1,-1.2867503E-1,2.4253562E-1,4.159046E-2,-9.413145E-2,5.1455336E-5,1.1864572E-1],"split_indices":[1132,1132,380,0,0,6804,0,0,754,754,3955,0,754,0,539,0,0,0,0],"split_type":[0,0,0,0,0,0,0,0,0,0,0,0,0,0,0,0,0,0,0],"sum_hessian":[1.4827516E3,4.4898367E0,1.4782617E3,1.2434092E0,3.2464275E0,1.4753792E3,2.8826344E0,1.9920713E0,1.4733871E3,7.1952786E0,1.4661918E3,3.7194552E0,3.4758236E0,2.2211058E0,1.4639707E3,1.4924767E0,1.9833468E0,1.4612312E3,2.7394261E0],"tree_param":{"num_deleted":"0","num_feature":"128104","num_nodes":"19","size_leaf_vector":"1"}},{"base_weights":[-6.910898E-3,9.542435E-1,-1.1120371E-2,7.7703944E-3,1.1408917E-1,-8.061746E-3,-1.3062635E-1,-1.1567726E-1,-4.7805305E-3,-1.9148828E-3,-1.306313E-1,1.0972147E0,-5.269315E-3,1.9903729E-2,1.3812955E-1,-1.3002913E-4,-1.0687635E-1],"categories":[],"categories_nodes":[],"categories_segments":[],"categories_sizes":[],"default_left":[0,0,1,0,0,0,0,0,1,0,0,0,1,0,0,0,0],"id":49,"left_children":[1,3,5,-1,-1,7,-1,-1,9,11,-1,13,15,-1,-1,-1,-1],"loss_changes":[6.0097756E0,9.710288E-1,5.8415E0,0E0,0E0,5.553258E0,0E0,0E0,5.486206E0,5.4233093E0,0E0,8.67023E-1,6.1862297E0,0E0,0E0,0E0,0E0],"parents":[2147483647,0,0,1,1,2,2,5,5,8,8,9,9,11,11,12,12],"right_children":[2,4,6,-1,-1,8,-1,-1,10,12,-1,14,16,-1,-1,-1,-1],"split_conditions":[2.8867513E-1,2.2941573E-1,2.3570226E-1,7.7703944E-3,1.1408917E-1,6.666767E-1,-1.3062635E-1,-1.1567726E-1,1.8257418E-1,2.6726124E-1,-1.306313E-1,2.581989E-1,2.182179E-1,1.9903729E-2,1.3812955E-1,-1.3002913E-4,-1.0687635E-1],"split_indices":[6489,50560,20094,0,0,3548,0,0,5796,976,0,1779,665,0,0,0,0],"split_type":[0,0,0,0,0,0,0,0,0,0,0,0,0,0,0,0,0],"sum_hessian":[1.4817563E3,5.477085E0,1.4762793E3,1.2101725E0,4.2669125E0,1.4738049E3,2.4743302E0,3.1965327E0,1.4706084E3,1.468377E3,2.2315261E0,3.475525E0,1.4649014E3,1.2437623E0,2.2317626E0,1.4604521E3,4.4492717E0],"tree_param":{"num_deleted":"0","num_feature":"128104","num_nodes":"17","size_leaf_vector":"1"}},{"base_weights":[8.3743995E-3,1.1808852E-2,-1.2683447E-1,1.507423E-2,-1.19630136E-1,-7.326246E-1,2.0240966E-2,6.616887E-2,-1.0031135E0,8.0738676E-1,1.4955951E-2,1.7633615E-2,-1.2141714E0,1.1721003E0,1.1675276E-1,-1.0129633E0,1.8654795E-2,-1.3953693E-1,-1.5311792E-2,3.8126197E-2,1.383227E-1,-4.885332E-2,5.8317658E-2,-1.4111762E-1,-8.8710396E-4,1.2441155E-3,6.960102E-2],"categories":[],"categories_nodes":[],"categories_segments":[],"categories_sizes":[],"default_left":[1,1,0,0,0,0,0,0,0,1,0,0,1,0,0,0,1,0,0,0,0,0,0,0,0,0,0],"id":50,"left_children":[1,3,-1,5,-1,7,9,-1,11,13,15,-1,17,19,21,23,25,-1,-1,-1,-1,-1,-1,-1,-1,-1,-1],"loss_changes":[6.4880166E0,5.829968E0,0E0,5.694764E0,0E0,4.4793653E0,6.06648E0,0E0,2.4223194E0,2.3130174E0,5.541231E0,0E0,1.2573547E0,5.168915E-1,1.5473958E0,2.0769663E0,6.0866385E0,0E0,0E0,0E0,0E0,0E0,0E0,0E0,0E0,0E0,0E0],"parents":[2147483647,0,0,1,1,3,3,5,5,6,6,8,8,9,9,10,10,12,12,13,13,14,14,15,15,16,16],"right_children":[2,4,-1,6,-1,8,10,-1,12,14,16,-1,18,20,22,24,26,-1,-1,-1,-1,-1,-1,-1,-1,-1,-1],"split_conditions":[2.5E-1,2.5E-1,-1.2683447E-1,2.773501E-1,-1.19630136E-1,2.581989E-1,2.5E-1,6.616887E-2,4.082483E-1,2.1320072E-1,3.1622776E-1,1.7633615E-2,2.4253562E-1,2.4253562E-1,4.7140452E-1,3.1622776E-1,2.5E-1,-1.3953693E-1,-1.5311792E-2,3.8126197E-2,1.383227E-1,-4.885332E-2,5.8317658E-2,-1.4111762E-1,-8.8710396E-4,1.2441155E-3,6.960102E-2],"split_indices":[17976,14183,0,1206,0,806,382,0,5896,14529,966,0,382,13844,693,14529,1457,0,0,0,0,0,0,0,0,0,0],"split_type":[0,0,0,0,0,0,0,0,0,0,0,0,0,0,0,0,0,0,0,0,0,0,0,0,0,0,0],"sum_hessian":[1.4752345E3,1.4722648E3,2.969732E0,1.469281E3,2.9837682E0,9.117073E0,1.4601638E3,1.2463149E0,7.870758E0,8.7261715E0,1.4514377E3,1.2196317E0,6.6511264E0,5.254311E0,3.4718606E0,4.225769E0,1.4472119E3,5.4118557E0,1.2392707E0,1.6983758E0,3.5559354E0,1.4903746E0,1.981486E0,2.73548E0,1.4902887E0,1.4350659E3,1.2146045E1],"tree_param":{"num_deleted":"0","num_feature":"128104","num_nodes":"27","size_leaf_vector":"1"}},{"base_weights":[-1.0927372E-2,7.431751E-1,-1.7194832E-2,-3.1918496E-2,9.218321E-1,-2.0552285E-2,1.3100713E-1,-6.194471E-3,1.0875579E0,-2.4694176E-2,9.653962E-1,1.3868277E-1,2.7803943E-2,1.1855733E-1,-2.7803464E-2,4.4020584E-1,1.2454897E-1,9.311914E-1,-3.1760484E-2,6.125663E-2,5.131526E-3,-2.986461E-2,1.3160266E-1,-1.1207878E-1,-2.8331955E-3],"categories":[],"categories_nodes":[],"categories_segments":[],"categories_sizes":[],"default_left":[0,0,1,0,0,1,0,0,1,0,0,0,0,0,0,0,0,0,0,0,0,0,0,0,0],"id":51,"left_children":[1,3,5,-1,7,9,-1,-1,11,13,15,-1,-1,-1,17,19,-1,21,23,-1,-1,-1,-1,-1,-1],"loss_changes":[6.9417586E0,2.5920644E0,6.51047E0,0E0,1.7989902E0,5.9543877E0,0E0,0E0,1.8295898E0,5.478694E0,3.4908485E-1,0E0,0E0,0E0,5.51081E0,2.1445799E-1,0E0,3.2178192E0,5.34282E0,0E0,0E0,0E0,0E0,0E0,0E0],"parents":[2147483647,0,0,1,1,2,2,4,4,5,5,8,8,9,9,10,10,14,14,15,15,17,17,18,18],"right_children":[2,4,6,-1,8,10,-1,-1,12,14,16,-1,-1,-1,18,20,-1,22,24,-1,-1,-1,-1,-1,-1],"split_conditions":[2.773501E-1,2.085144E-1,1.8898223E-1,-3.1918496E-2,2.773501E-1,2.773501E-1,1.3100713E-1,-6.194471E-3,2.2941573E-1,8.165066E-1,3.3333334E-1,1.3868277E-1,2.7803943E-2,1.1855733E-1,2.5E-1,3.1622776E-1,1.2454897E-1,2.4253562E-1,3.0151135E-1,6.125663E-2,5.131526E-3,-2.986461E-2,1.3160266E-1,-1.1207878E-1,-2.8331955E-3],"split_indices":[177,24,25579,0,1113,1206,0,0,431,468,2282,0,0,0,354,1206,0,94,2706,0,0,0,0,0,0],"split_type":[0,0,0,0,0,0,0,0,0,0,0,0,0,0,0,0,0,0,0,0,0,0,0,0,0],"sum_hessian":[1.4650452E3,1.1106705E1,1.4539384E3,1.4856863E0,9.621018E0,1.4512518E3,2.6865714E0,1.4773632E0,8.143656E0,1.4461516E3,5.100214E0,5.4249587E0,2.7186966E0,2.7312512E0,1.4434204E3,2.6684208E0,2.4317932E0,4.9684854E0,1.4384519E3,1.4504168E0,1.218004E0,1.2375493E0,3.730936E0,3.4916003E0,1.4349603E3],"tree_param":{"num_deleted":"0","num_feature":"128104","num_nodes":"25","size_leaf_vector":"1"}},{"base_weights":[1.517583E-2,1.8515175E-2,-1.4034842E-1,-1.2881102E-1,2.2114674E-2,-1.3874225E-1,2.5434557E-2,-6.157095E-1,3.2577224E-2,7.8264855E-2,-8.6264E-1,1.0879529E0,2.8250514E-2,1.0436239E-2,-9.82876E-2,2.2127777E-2,1.2713934E-1,-1.2938556E-1,3.1391631E-3],"categories":[],"categories_nodes":[],"categories_segments":[],"categories_sizes":[],"default_left":[1,0,0,0,0,0,0,0,0,0,0,0,0,0,0,0,0,0,0],"id":52,"left_children":[1,3,-1,-1,5,-1,7,9,11,-1,13,15,17,-1,-1,-1,-1,-1,-1],"loss_changes":[7.048907E0,6.9889784E0,0E0,0E0,6.9462833E0,0E0,6.77194E0,6.3016224E0,6.6318855E0,0E0,1.7680902E0,6.615515E-1,6.0795593E0,0E0,0E0,0E0,0E0,0E0,0E0],"parents":[2147483647,0,0,1,1,4,4,6,6,7,7,8,8,10,10,11,11,12,12],"right_children":[2,4,-1,-1,6,-1,8,10,12,-1,14,16,18,-1,-1,-1,-1,-1,-1],"split_conditions":[1.7407766E-1,2.2941573E-1,-1.4034842E-1,-1.2881102E-1,6.666767E-1,-1.3874225E-1,2.773501E-1,2.581989E-1,7.5593895E-1,7.8264855E-2,2.581989E-1,3.5355338E-1,2.6726124E-1,1.0436239E-2,-9.82876E-2,2.2127777E-2,1.2713934E-1,-1.2938556E-1,3.1391631E-3],"split_indices":[1256,1034,0,0,304,0,949,22,862,0,55777,1996,377,0,0,0,0,0,0],"split_type":[0,0,0,0,0,0,0,0,0,0,0,0,0,0,0,0,0,0,0],"sum_hessian":[1.4814435E3,