{"learner":{"attributes":{"scikit_learn":"{\"_estimator_type\": \"regressor\"}"},"feature_names":[],"feature_types":[],"gradient_booster":{"model":{"gbtree_model_param":{"num_parallel_tree":"1","num_trees":"200"},"iteration_indptr":[0,1,2,3,4,5,6,7,8,9,10,11,12,13,14,15,16,17,18,19,20,21,22,23,24,25,26,27,28,29,30,31,32,33,34,35,36,37,38,39,40,41,42,43,44,45,46,47,48,49,50,51,52,53,54,55,56,57,58,59,60,61,62,63,64,65,66,67,68,69,70,71,72,73,74,75,76,77,78,79,80,81,82,83,84,85,86,87,88,89,90,91,92,93,94,95,96,97,98,99,100,101,102,103,104,105,106,107,108,109,110,111,112,113,114,115,116,117,118,119,120,121,122,123,124,125,126,127,128,129,130,131,132,133,134,135,136,137,138,139,140,141,142,143,144,145,146,147,148,149,150,151,152,153,154,155,156,157,158,159,160,161,162,163,164,165,166,167,168,169,170,171,172,173,174,175,176,177,178,179,180,181,182,183,184,185,186,187,188,189,190,191,192,193,194,195,196,197,198,199,200],"tree_info":[0,0,0,0,0,0,0,0,0,0,0,0,0,0,0,0,0,0,0,0,0,0,0,0,0,0,0,0,0,0,0,0,0,0,0,0,0,0,0,0,0,0,0,0,0,0,0,0,0,0,0,0,0,0,0,0,0,0,0,0,0,0,0,0,0,0,0,0,0,0,0,0,0,0,0,0,0,0,0,0,0,0,0,0,0,0,0,0,0,0,0,0,0,0,0,0,0,0,0,0,0,0,0,0,0,0,0,0,0,0,0,0,0,0,0,0,0,0,0,0,0,0,0,0,0,0,0,0,0,0,0,0,0,0,0,0,0,0,0,0,0,0,0,0,0,0,0,0,0,0,0,0,0,0,0,0,0,0,0,0,0,0,0,0,0,0,0,0,0,0,0,0,0,0,0,0,0,0,0,0,0,0,0,0,0,0,0,0,0,0,0,0,0,0,0,0,0,0,0,0],"trees":[{"base_weights":[-1.5300813E-3,3.0168685E-1,-4.1012E-3,3.2012637E-3,3.3093926E-1,-1.0101436E-2,8.930163E-2,1.9207582E-3,3.3758754E-1,-6.0213087E-3,-1.4217772E-1,1.14785776E-1,1.382818E-2,5.018114E-2,3.133319E-2,2.1027252E-1,-8.419826E-3,2.512076E-2,-1.4608434E-1,-9.296431E-3,1.2158796E-1,-5.253985E-2,2.457446E-2,4.112865E-1,1.6085565E-1,1.2588888E-1,-1.1783039E-2,8.4943436E-2,-1.4944015E-1,2.4372542E-1,1.1196115E-1,1.9207582E-3,-6.011944E-2,2.9556291E-2,-5.5067874E-2,1.266101E-2,4.6048015E-2,4.2693213E-2,1.2771703E-2,4.6635587E-2,1.0565374E-2,1.1670824E-2,-1.4770064E-3,1.2075752E-4,1.2620757E-2,8.494344E-3,-1.5287936E-2,2.7525414E-2,6.4561367E-3,3.3317927E-2,1.0586255E-2,1.9207582E-3,-6.9077127E-3,-6.9723227E-3,3.323139E-3,1.9207582E-3,-7.843863E-3],"categories":[],"categories_nodes":[],"categories_segments":[],"categories_sizes":[],"default_left":[0,0,1,0,0,1,1,0,0,0,0,0,0,0,0,0,0,0,0,0,0,0,1,0,0,0,0,0,0,1,0,0,0,0,0,0,0,0,0,0,0,0,0,0,0,0,0,0,0,0,0,0,0,0,0,0,0],"id":0,"left_children":[1,3,5,-1,7,9,11,-1,13,15,17,19,21,-1,-1,23,25,-1,27,-1,29,31,33,35,37,39,41,43,45,47,49,-1,51,53,55,-1,-1,-1,-1,-1,-1,-1,-1,-1,-1,-1,-1,-1,-1,-1,-1,-1,-1,-1,-1,-1,-1],"loss_changes":[4.6359997E0,3.8383675E-1,3.3052504E0,0E0,8.677721E-2,2.9851222E0,6.831348E-1,0E0,1.8034458E-2,2.790756E0,2.9180765E-1,3.8720274E-1,6.619321E-2,0E0,0E0,5.199177E-1,2.4036708E0,0E0,1.4061666E-1,0E0,2.7606702E-1,8.2243495E-3,3.2972004E-2,9.5745444E-2,3.775264E-1,8.463495E-1,1.9932961E0,1.0213459E-2,1.443789E-1,8.390796E-2,2.8986716E-1,0E0,9.853851E-3,2.968166E-2,1.0185986E-2,0E0,0E0,0E0,0E0,0E0,0E0,0E0,0E0,0E0,0E0,0E0,0E0,0E0,0E0,0E0,0E0,0E0,0E0,0E0,0E0,0E0,0E0],"parents":[2147483647,0,0,1,1,2,2,4,4,5,5,6,6,8,8,9,9,10,10,11,11,12,12,15,15,16,16,18,18,20,20,21,21,22,22,23,23,24,24,25,25,26,26,27,27,28,28,29,29,30,30,32,32,33,33,34,34],"right_children":[2,4,6,-1,8,10,12,-1,14,16,18,20,22,-1,-1,24,26,-1,28,-1,30,32,34,36,38,40,42,44,46,48,50,-1,52,54,56,-1,-1,-1,-1,-1,-1,-1,-1,-1,-1,-1,-1,-1,-1,-1,-1,-1,-1,-1,-1,-1,-1],"split_conditions":[3.5355338E-1,2.8867513E-1,1.6222142E-1,3.2012637E-3,3.5355338E-1,2.8867513E-1,2.8867513E-1,1.9207582E-3,2.4253562E-1,3.7796447E-1,6.3246554E-1,7.071168E-1,3.5355338E-1,5.018114E-2,3.133319E-2,1.2856486E-1,3.7796447E-1,2.512076E-2,3.1622776E-1,-9.296431E-3,2.6726124E-1,3.3333334E-1,3.0151135E-1,1.2126781E-1,1.6439898E-1,3.1622776E-1,2.5E-1,3.3333334E-1,6.030327E-1,2.3570226E-1,1.9611613E-1,1.9207582E-3,3.3333334E-1,6.3246554E-1,3.3333334E-1,1.266101E-2,4.6048015E-2,4.2693213E-2,1.2771703E-2,4.6635587E-2,1.0565374E-2,1.1670824E-2,-1.4770064E-3,1.2075752E-4,1.2620757E-2,8.494344E-3,-1.5287936E-2,2.7525414E-2,6.4561367E-3,3.3317927E-2,1.0586255E-2,1.9207582E-3,-6.9077127E-3,-6.9723227E-3,3.323139E-3,1.9207582E-3,-7.843863E-3],"split_indices":[71586,34226,242,0,4234,86932,545,0,1197,17,6418,6897,5795,0,0,249,45841,0,4249,0,396,7052,15855,526,4527,2000,14529,21,7688,10259,5564,0,9473,40537,15476,0,0,0,0,0,0,0,0,0,0,0,0,0,0,0,0,0,0,0,0,0,0],"split_type":[0,0,0,0,0,0,0,0,0,0,0,0,0,0,0,0,0,0,0,0,0,0,0,0,0,0,0,0,0,0,0,0,0,0,0,0,0,0,0,0,0,0,0,0,0,0,0,0,0,0,0,0,0,0,0,0,0],"sum_hessian":[5.944E3,4.9E1,5.895E3,5E0,4.4E1,5.54E3,3.55E2,1E0,4.3E1,5.375E3,1.65E2,2.65E2,9E1,3E0,4E1,5.8E1,5.317E3,1E0,1.64E2,8E0,2.57E2,1.2E1,7.8E1,1E1,4.8E1,1.29E2,5.188E3,2E0,1.62E2,1.7E1,2.4E2,1E0,1.1E1,7.4E1,4E0,2E0,8E0,4E0,4.4E1,6E0,1.23E2,1.17E2,5.071E3,1E0,1E0,2E0,1.6E2,1.4E1,3E0,5E0,2.35E2,1E0,1E1,2E0,7.2E1,1E0,3E0],"tree_param":{"num_deleted":"0","num_feature":"128104","num_nodes":"57","size_leaf_vector":"1"}},{"base_weights":[2.9714056E-4,7.4824624E-2,-2.0950707E-2,2.5270602E-1,6.2896185E-2,1.4726425E-3,-6.6603385E-2,4.23075E-2,2.1795245E-1,3.3368394E-1,6.020977E-2,1.7517112E-1,-2.4548369E-3,8.5685164E-2,-7.450134E-2,2.5702474E-1,9.749014E-2,-5.4334797E-4,4.0205076E-1,2.537068E-1,5.6810226E-2,2.7837855E-1,1.2421831E-1,2.6299244E-1,-5.0883014E-3,7.3369876E-2,2.4588829E-2,1.6490877E-1,-7.828666E-2,2.827225E-1,4.77647E-2,2.8416915E-2,4.4727262E-2,-1.8075109E-3,4.5073974E-1,-2.5071898E-2,2.8437153E-1,6.325679E-2,-3.652735E-2,1.9783035E-3,3.1816822E-1,2.7731475E-1,1.0399784E-1,2.254473E-2,2.9911727E-2,1.4502284E-1,-9.4279945E-3,2.4456652E-2,6.498473E-2,3.1405464E-2,1.3574941E-1,5.8981977E-2,-8.505273E-2,2.9511496E-2,2.5947692E-4,9.851373E-3,-5.2738567E-3,1.7811373E-2,-1.4577701E-3,9.29249E-3,4.8385102E-2,-3.9553926E-3,1.9460768E-4,3.1248674E-2,3.0261436E-3,5.5644386E-3,1.2431993E-2,1.615768E-2,-5.209624E-3,1.1727012E-2,3.815411E-2,8.432172E-3,3.0448258E-2,2.554962E-2,9.07004E-3,2.6410415E-3,3.540993E-4,3.4715567E-2,1.22432E-2,-1.5325605E-2,-6.4283033E-4,2.4592489E-2,5.8798282E-3,2.7370804E-3,1.5229193E-2,2.5259478E-2,4.928773E-3,2.2850296E-2,-8.72974E-3],"categories":[],"categories_nodes":[],"categories_segments":[],"categories_sizes":[],"default_left":[0,0,1,0,0,0,0,0,1,0,0,0,0,1,0,1,0,0,0,0,1,0,0,0,0,0,0,0,0,1,0,0,0,0,0,0,1,1,0,0,0,0,0,1,0,0,0,0,0,0,0,0,0,0,0,0,0,0,0,0,0,0,0,0,0,0,0,0,0,0,0,0,0,0,0,0,0,0,0,0,0,0,0,0,0,0,0,0,0],"id":1,"left_children":[1,3,5,7,9,11,13,-1,15,17,19,21,23,25,27,29,31,-1,33,35,37,39,41,43,45,47,-1,49,51,53,55,-1,57,-1,59,61,63,65,67,-1,69,71,73,75,-1,77,79,-1,81,-1,83,85,87,-1,-1,-1,-1,-1,-1,-1,-1,-1,-1,-1,-1,-1,-1,-1,-1,-1,-1,-1,-1,-1,-1,-1,-1,-1,-1,-1,-1,-1,-1,-1,-1,-1,-1,-1,-1],"loss_changes":[9.464854E0,2.797676E0,4.7612615E0,3.992262E-1,8.848543E-1,2.128885E0,1.8490252E0,0E0,3.0912113E-1,2.8039706E-1,7.966571E-1,3.282714E-1,2.1348262E0,1.3190329E-1,1.3333073E0,2.7150464E-1,1.7443457E-1,0E0,2.1270227E-1,1.866517E-1,7.321811E-1,2.2007298E-1,1.19752586E-1,2.5384068E-1,1.9706591E0,8.746347E-2,0E0,5.7394207E-2,1.3378E0,1.6239333E-1,4.089857E-2,0E0,1.2916414E-1,0E0,6.1667442E-2,1.2508001E-3,1.262865E-1,5.206733E-1,2.5207415E-1,0E0,1.9715476E-1,5.414784E-4,6.5466225E-2,2.7379347E-4,0E0,3.4563673E-1,1.2670163E0,0E0,6.389645E-2,0E0,3.3481568E-2,1.1518146E-1,9.827843E-1,0E0,0E0,0E0,0E0,0E0,0E0,0E0,0E0,0E0,0E0,0E0,0E0,0E0,0E0,0E0,0E0,0E0,0E0,0E0,0E0,0E0,0E0,0E0,0E0,0E0,0E0,0E0,0E0,0E0,0E0,0E0,0E0,0E0,0E0,0E0,0E0],"parents":[2147483647,0,0,1,1,2,2,3,3,4,4,5,5,6,6,8,8,9,9,10,10,11,11,12,12,13,13,14,14,15,15,16,16,18,18,19,19,20,20,21,21,22,22,23,23,24,24,25,25,27,27,28,28,29,29,30,30,32,32,34,34,35,35,36,36,37,37,38,38,40,40,41,41,42,42,43,43,45,45,46,46,48,48,50,50,51,51,52,52],"right_children":[2,4,6,8,10,12,14,-1,16,18,20,22,24,26,28,30,32,-1,34,36,38,40,42,44,46,48,-1,50,52,54,56,-1,58,-1,60,62,64,66,68,-1,70,72,74,76,-1,78,80,-1,82,-1,84,86,88,-1,-1,-1,-1,-1,-1,-1,-1,-1,-1,-1,-1,-1,-1,-1,-1,-1,-1,-1,-1,-1,-1,-1,-1,-1,-1,-1,-1,-1,-1,-1,-1,-1,-1,-1,-1],"split_conditions":[2.581989E-1,1.6439898E-1,3.1622776E-1,2.773501E-1,2.581989E-1,2.3570226E-1,4.082483E-1,4.23075E-2,1.3130644E-1,2.581989E-1,2.581989E-1,2.0412415E-1,3.1622776E-1,3.3333334E-1,3.7796447E-1,4.685213E-1,1.7149858E-1,-5.4334797E-4,2.581989E-1,2.4253562E-1,2.0412415E-1,2.0412415E-1,2.236068E-1,3.1622776E-1,3.3333334E-1,7.071168E-1,2.4588829E-2,3.3333334E-1,8.944372E-1,1.6222142E-1,5E-1,2.8416915E-2,1.5617377E-1,-1.8075109E-3,2.5E-1,2.4253562E-1,2.236068E-1,1.8898223E-1,2.5E-1,1.9783035E-3,6.8600434E-1,2.1320072E-1,2.6726124E-1,3.0151135E-1,2.9911727E-2,5.547002E-1,5.7735026E-1,2.4456652E-2,3.3333334E-1,3.1405464E-2,3.5355338E-1,3.5355338E-1,4.082483E-1,2.9511496E-2,2.5947692E-4,9.851373E-3,-5.2738567E-3,1.7811373E-2,-1.4577701E-3,9.29249E-3,4.8385102E-2,-3.9553926E-3,1.9460768E-4,3.1248674E-2,3.0261436E-3,5.5644386E-3,1.2431993E-2,1.615768E-2,-5.209624E-3,1.1727012E-2,3.815411E-2,8.432172E-3,3.0448258E-2,2.554962E-2,9.07004E-3,2.6410415E-3,3.540993E-4,3.4715567E-2,1.22432E-2,-1.5325605E-2,-6.4283033E-4,2.4592489E-2,5.8798282E-3,2.7370804E-3,1.5229193E-2,2.5259478E-2,4.928773E-3,2.2850296E-2,-8.72974E-3],"split_indices":[24,24,24,4527,45841,14529,45841,0,75136,5266,114,14529,71586,1143,71586,4211,5323,0,82,3881,526,987,11,99977,47503,10655,0,1019,47503,8939,4211,0,9396,0,9,7,1113,242,21264,0,1034,11,7851,24,0,39,949,0,206,0,4234,8692,1781,0,0,0,0,0,0,0,0,0,0,0,0,0,0,0,0,0,0,0,0,0,0,0,0,0,0,0,0,0,0,0,0,0,0,0,0],"split_type":[0,0,0,0,0,0,0,0,0,0,0,0,0,0,0,0,0,0,0,0,0,0,0,0,0,0,0,0,0,0,0,0,0,0,0,0,0,0,0,0,0,0,0,0,0,0,0,0,0,0,0,0,0,0,0,0,0,0,0,0,0,0,0,0,0,0,0,0,0,0,0,0,0,0,0,0,0,0,0,0,0,0,0,0,0,0,0,0,0],"sum_hessian":[5.975E3,1.325E3,4.65E3,8.2E1,1.243E3,3.119E3,1.531E3,1.2E1,7E1,1.1E1,1.232E3,6.8E1,3.051E3,7.5E1,1.456E3,5.2E1,1.8E1,2E0,9E0,2E1,1.212E3,2.1E1,4.7E1,2.9E1,3.022E3,7.1E1,4E0,2.2E1,1.434E3,4.6E1,6E0,3E0,1.5E1,1E0,8E0,2E0,1.8E1,1.134E3,7.8E1,3E0,1.8E1,4E0,4.3E1,4E0,2.5E1,8.4E1,2.938E3,2E0,6.9E1,2E0,2E1,6.7E1,1.367E3,4.4E1,2E0,4E0,2E0,4E0,1.1E1,1E0,7E0,1E0,1E0,1.6E1,2E0,1.01E3,1.24E2,5E0,7.3E1,5E0,1.3E1,1E0,3E0,2E0,4.1E1,3E0,1E0,7E0,7.7E1,5.9E1,2.879E3,1E0,6.8E1,3E0,1.7E1,2E0,6.5E1,9E0,1.358E3],"tree_param":{"num_deleted":"0","num_feature":"128104","num_nodes":"89","size_leaf_vector":"1"}},{"base_weights":[8.102426E-4,3.037548E-2,-4.2434588E-2,8.312576E-2,1.22210765E-2,1.9233489E-1,-4.625259E-2,2.1516329E-1,6.8155654E-2,2.1109816E-2,-5.932643E-2,3.2484037E-1,1.4175524E-1,8.80201E-2,-5.3087704E-2,3.1962246E-1,1.7976518E-1,8.541677E-2,-3.5846036E-2,2.4837904E-2,-1.08224444E-1,-3.8855787E-2,-1.2492204E-1,3.5642257E-1,1.3234101E-2,2.4484001E-2,1.1134468E-1,2.2404085E-1,6.71541E-2,6.695668E-2,-6.016718E-2,3.6223324E-3,3.3139274E-1,1.6805593E-2,2.0314956E-1,9.2099056E-2,-7.4089225E-3,1.5570948E-1,-4.7603175E-2,1.3245313E-1,2.0668752E-2,8.3628E-2,-1.21950865E-1,5.1419765E-2,-4.8447937E-2,3.0233266E-4,-1.2878643E-1,9.558513E-3,3.8003004E-1,1.9781101E-2,1.278434E-1,-4.175529E-4,2.4064028E-1,2.4624495E-2,5.7331573E-2,3.141308E-2,6.0488842E-2,-4.420855E-2,-1.03899665E-1,3.4998607E-2,1.0317087E-2,-7.3783533E-3,6.6170017E-3,2.2912739E-2,4.515212E-3,1.0071824E-2,1.7930634E-4,2.1288512E-2,-2.1614863E-3,-2.5836148E-3,1.902731E-2,7.866217E-3,-5.3058537E-3,3.6541503E-2,1.1947385E-2,2.2371305E-2,1.8326484E-3,3.635667E-3,1.0302333E-2,-1.2631428E-2,7.210888E-3,7.372749E-3,-3.9172005E-3,1.5540123E-2,-5.2282684E-3,-4.637201E-3,-1.3328302E-2,1.0292639E-2,4.090596E-2,3.363937E-4,2.3044408E-3,4.4419765E-4,1.4059924E-2,-4.175529E-4,2.5979346E-2,2.3397451E-2,4.9290485E-3,5.314065E-3,2.2621725E-2,2.7347153E-2,-4.580219E-3,1.7759277E-2,-1.08199725E-2],"categories":[],"categories_nodes":[],"categories_segments":[],"categories_sizes":[],"default_left":[1,0,0,0,1,0,0,0,1,1,0,1,0,0,0,0,0,1,0,0,0,0,0,0,0,0,0,0,0,0,0,0,1,0,1,1,0,0,0,0,0,0,1,0,0,0,0,0,0,0,0,0,0,0,0,0,1,0,0,0,0,0,0,0,0,0,0,0,0,0,0,0,0,0,0,0,0,0,0,0,0,0,0,0,0,0,0,0,0,0,0,0,0,0,0,0,0,0,0,0,0,0,0],"id":2,"left_children":[1,3,5,7,9,11,13,15,17,19,21,23,25,27,29,31,33,35,37,39,41,43,45,47,-1,-1,49,51,53,55,57,-1,59,61,63,65,67,69,71,73,75,77,79,81,83,-1,85,-1,87,89,91,-1,93,-1,95,-1,97,99,101,-1,-1,-1,-1,-1,-1,-1,-1,-1,-1,-1,-1,-1,-1,-1,-1,-1,-1,-1,-1,-1,-1,-1,-1,-1,-1,-1,-1,-1,-1,-1,-1,-1,-1,-1,-1,-1,-1,-1,-1,-1,-1,-1,-1],"loss_changes":[7.6354737E0,3.395769E0,2.1825466E0,1.7801027E0,1.6802056E0,2.1533334E-1,2.1953874E0,2.8272724E-1,1.469728E0,1.1353042E0,3.8723898E-1,1.3626337E-2,6.678438E-2,3.141868E-1,1.9348893E0,6.13811E-2,2.6714635E-1,4.355049E-1,2.709132E-1,1.0220112E0,1.8400604E-1,1.9646099E-1,3.450501E-2,1.2936473E-2,0E0,0E0,3.5238177E-2,5.7828724E-2,1.6531321E-1,1.8403101E-1,1.493123E0,0E0,5.3002834E-2,4.9601052E-2,2.4412894E-1,5.088687E-1,1.548167E-1,4.8840046E-2,8.0633044E-2,2.1335495E-1,1.0421858E0,8.386299E-4,6.160772E-2,4.7347773E-2,1.6681182E-1,0E0,1.8648744E-2,0E0,1.4206171E-2,1.9035139E-4,3.2431304E-2,0E0,6.67308E-2,0E0,1.2766662E-1,0E0,1.4020413E-1,8.0939054E-1,7.127938E-1,0E0,0E0,0E0,0E0,0E0,0E0,0E0,0E0,0E0,0E0,0E0,0E0,0E0,0E0,0E0,0E0,0E0,0E0,0E0,0E0,0E0,0E0,0E0,0E0,0E0,0E0,0E0,0E0,0E0,0E0,0E0,0E0,0E0,0E0,0E0,0E0,0E0,0E0,0E0,0E0,0E0,0E0,0E0,0E0],"parents":[2147483647,0,0,1,1,2,2,3,3,4,4,5,5,6,6,7,7,8,8,9,9,10,10,11,11,12,12,13,13,14,14,15,15,16,16,17,17,18,18,19,19,20,20,21,21,22,22,23,23,26,26,27,27,28,28,29,29,30,30,32,32,33,33,34,34,35,35,36,36,37,37,38,38,39,39,40,40,41,41,42,42,43,43,44,44,46,46,48,48,49,49,50,50,52,52,54,54,56,56,57,57,58,58],"right_children":[2,4,6,8,10,12,14,16,18,20,22,24,26,28,30,32,34,36,38,40,42,44,46,48,-1,-1,50,52,54,56,58,-1,60,62,64,66,68,70,72,74,76,78,80,82,84,-1,86,-1,88,90,92,-1,94,-1,96,-1,98,100,102,-1,-1,-1,-1,-1,-1,-1,-1,-1,-1,-1,-1,-1,-1,-1,-1,-1,-1,-1,-1,-1,-1,-1,-1,-1,-1,-1,-1,-1,-1,-1,-1,-1,-1,-1,-1,-1,-1,-1,-1,-1,-1,-1,-1],"split_conditions":[2.8867513E-1,2.4253562E-1,3.7796447E-1,1.6666667E-1,2.773501E-1,3.3333334E-1,4.472136E-1,1.2700012E-1,4.170288E-1,2.5E-1,3.5355338E-1,3.0151135E-1,3.3333334E-1,3.0151135E-1,5.7735026E-1,1.4285715E-1,1.5430336E-1,2.2941573E-1,2.2941573E-1,2.3570226E-1,2.773501E-1,3.3333334E-1,4.082483E-1,3.1622776E-1,1.3234101E-2,2.4484001E-2,3.7796447E-1,3.1622776E-1,4.472136E-1,3.3333334E-1,3.5355338E-1,3.6223324E-3,1.2403473E-1,2.773501E-1,1.3483997E-1,1.8569534E-1,2.3570226E-1,1.8569534E-1,1.8898223E-1,2.4253562E-1,2.8867513E-1,2.773501E-1,2.773501E-1,3.3333334E-1,3.0151135E-1,3.0233266E-4,3.7796447E-1,9.558513E-3,3.5355338E-1,3.1622776E-1,3.7796447E-1,-4.175529E-4,5.773603E-1,2.4624495E-2,3.5355338E-1,3.141308E-2,3.3333334E-1,3.3333334E-1,4.082483E-1,3.4998607E-2,1.0317087E-2,-7.3783533E-3,6.6170017E-3,2.2912739E-2,4.515212E-3,1.0071824E-2,1.7930634E-4,2.1288512E-2,-2.1614863E-3,-2.5836148E-3,1.902731E-2,7.866217E-3,-5.3058537E-3,3.6541503E-2,1.1947385E-2,2.2371305E-2,1.8326484E-3,3.635667E-3,1.0302333E-2,-1.2631428E-2,7.210888E-3,7.372749E-3,-3.9172005E-3,1.5540123E-2,-5.2282684E-3,-4.637201E-3,-1.3328302E-2,1.0292639E-2,4.090596E-2,3.363937E-4,2.3044408E-3,4.4419765E-4,1.4059924E-2,-4.175529E-4,2.5979346E-2,2.3397451E-2,4.9290485E-3,5.314065E-3,2.2621725E-2,2.7347153E-2,-4.580219E-3,1.7759277E-2,-1.08199725E-2],"split_indices":[24,24,71586,24,2282,8,47503,24,2309,1029,2282,193,39112,24,45841,57,22,4211,63438,2282,21264,6212,11106,82,0,0,34226,169,151,203,24,0,2254,522,2271,526,39329,24,403,16534,45841,1903,520,1625,1093,0,2472,0,86,24,128,0,6035,0,8692,0,1143,1781,1781,0,0,0,0,0,0,0,0,0,0,0,0,0,0,0,0,0,0,0,0,0,0,0,0,0,0,0,0,0,0,0,0,0,0,0,0,0,0,0,0,0,0,0,0],"split_type":[0,0,0,0,0,0,0,0,0,0,0,0,0,0,0,0,0,0,0,0,0,0,0,0,0,0,0,0,0,0,0,0,0,0,0,0,0,0,0,0,0,0,0,0,0,0,0,0,0,0,0,0,0,0,0,0,0,0,0,0,0,0,0,0,0,0,0,0,0,0,0,0,0,0,0,0,0,0,0,0,0,0,0,0,0,0,0,0,0,0,0,0,0,0,0,0,0,0,0,0,0,0,0],"sum_hessian":[5.97E3,3.546E3,2.424E3,9.07E2,2.639E3,3.8E1,2.386E3,9.1E1,8.16E2,2.348E3,2.91E2,9E0,2.9E1,1.15E2,2.271E3,2.1E1,7E1,7E2,1.16E2,2.283E3,6.5E1,2.23E2,6.8E1,7E0,2E0,5E0,2.4E1,1.4E1,1.01E2,1.26E2,2.145E3,1E0,2E1,9E0,6.1E1,6.53E2,4.7E1,6E0,1.1E2,8.4E1,2.199E3,4E0,6.1E1,2.1E1,2.02E2,2E0,6.6E1,1E0,6E0,4E0,2E1,1E0,1.3E1,4E0,9.7E1,2E0,1.24E2,1.573E3,5.72E2,1.8E1,2E0,3E0,6E0,5.2E1,9E0,5.96E2,5.7E1,2E0,4.5E1,1E0,5E0,4E0,1.06E2,3E0,8.1E1,2.4E1,2.175E3,2E0,2E0,6E1,1E0,1.7E1,4E0,3E0,1.99E2,4E0,6.2E1,1E0,5E0,1E0,3E0,2E0,1.8E1,1E0,1.2E1,3E0,9.4E1,1.2E2,4E0,7E0,1.566E3,8E0,5.64E2],"tree_param":{"num_deleted":"0","num_feature":"128104","num_nodes":"103","size_leaf_vector":"1"}},{"base_weights":[6.73249E-5,2.6714344E-2,-3.975841E-2,1.211784E-1,1.8149983E-2,1.8186723E-1,-4.2935822E-2,1.4729077E-1,2.18517E-2,2.5576023E-2,-5.8477636E-2,3.6605682E-2,1.5223414E-1,7.627765E-2,-4.8911873E-2,1.6883871E-1,5.255857E-2,2.695173E-1,4.976465E-3,1.3685112E-1,2.1278415E-2,4.2532124E-2,-6.775119E-2,1.8331159E-2,1.713927E-1,1.6511099E-1,6.30782E-2,6.472869E-2,-5.557987E-2,1.8965699E-1,3.5362635E-2,1.703785E-1,2.2479167E-2,5.073397E-3,3.255338E-2,1.4504634E-2,-4.9403063E-3,2.6874197E-1,1.1013956E-1,2.3200037E-1,1.9202882E-2,-8.102483E-3,5.6799024E-2,-5.141242E-2,-1.10243954E-1,3.195733E-4,2.131608E-3,-2.9103577E-3,1.8022345E-1,-1.7165199E-3,1.8045264E-1,2.3308987E-2,5.7230107E-2,3.8739596E-2,5.633251E-2,-4.5531843E-2,-1.22937046E-1,2.2094557E-2,1.0391164E-2,1.9927919E-2,2.139357E-3,-8.7814033E-4,1.9387117E-2,-9.696348E-3,3.9895354E-3,6.3660904E-3,-1.9129303E-3,1.0837431E-2,3.861987E-2,3.8729857E-3,1.3687372E-2,3.887128E-2,1.8103188E-2,2.268135E-3,-8.427295E-3,-3.9358167E-3,6.7831054E-3,4.2966595E-3,-5.6775226E-3,9.063482E-6,-1.16641475E-2,-1.2698487E-3,1.8844826E-2,-3.9667488E-4,1.961515E-2,2.328926E-2,5.114451E-3,2.278342E-2,5.014635E-3,2.2754602E-2,-4.758934E-3,5.1761633E-3,-1.2769321E-2],"categories":[],"categories_nodes":[],"categories_segments":[],"categories_sizes":[],"default_left":[1,0,0,1,1,0,0,1,0,0,0,0,0,0,0,1,0,0,0,0,0,0,0,0,0,0,0,0,0,1,0,0,0,0,0,0,0,0,0,0,1,0,0,0,0,0,0,0,0,0,0,0,0,0,0,0,0,0,0,0,0,0,0,0,0,0,0,0,0,0,0,0,0,0,0,0,0,0,0,0,0,0,0,0,0,0,0,0,0,0,0,0,0],"id":3,"left_children":[1,3,5,7,9,11,13,15,17,19,21,-1,23,25,27,29,31,33,35,37,39,41,43,45,47,49,51,53,55,57,59,61,63,-1,-1,-1,65,67,69,71,73,-1,75,77,79,-1,-1,-1,81,-1,83,-1,85,-1,87,89,91,-1,-1,-1,-1,-1,-1,-1,-1,-1,-1,-1,-1,-1,-1,-1,-1,-1,-1,-1,-1,-1,-1,-1,-1,-1,-1,-1,-1,-1,-1,-1,-1,-1,-1,-1,-1],"loss_changes":[6.3324027E0,2.890063E0,1.6922452E0,7.670965E-1,1.8673772E0,1.298492E-1,1.6843429E0,4.7082806E-1,2.6196194E-1,1.4269558E0,2.745303E-1,0E0,7.638514E-2,1.22083426E-1,1.7062736E0,5.240326E-1,1.5564792E-1,3.2506287E-2,8.405903E-2,3.614552E-1,1.2551423E0,4.867151E-2,1.7901051E-1,1.5776989E-4,5.3049624E-2,4.2247325E-2,8.6084634E-2,3.1682372E-1,1.431263E0,4.197116E-1,5.7560265E-2,3.9582968E-2,8.0837086E-2,0E0,0E0,0E0,5.6700576E-2,2.971984E-1,1.7415214E-1,1.5327764E-1,1.0288126E0,0E0,2.7068302E-2,1.00629985E-1,5.1538944E-2,0E0,0E0,0E0,4.364842E-2,0E0,3.8415283E-2,0E0,9.285197E-2,0E0,1.1907017E-1,1.0497003E0,2.3510599E-1,0E0,0E0,0E0,0E0,0E0,0E0,0E0,0E0,0E0,0E0,0E0,0E0,0E0,0E0,0E0,0E0,0E0,0E0,0E0,0E0,0E0,0E0,0E0,0E0,0E0,0E0,0E0,0E0,0E0,0E0,0E0,0E0,0E0,0E0,0E0,0E0],"parents":[2147483647,0,0,1,1,2,2,3,3,4,4,5,5,6,6,7,7,8,8,9,9,10,10,12,12,13,13,14,14,15,15,16,16,17,17,18,18,19,19,20,20,21,21,22,22,23,23,24,24,25,25,26,26,27,27,28,28,29,29,30,30,31,31,32,32,36,36,37,37,38,38,39,39,40,40,42,42,43,43,44,44,48,48,50,50,52,52,54,54,55,55,56,56],"right_children":[2,4,6,8,10,12,14,16,18,20,22,-1,24,26,28,30,32,34,36,38,40,42,44,46,48,50,52,54,56,58,60,62,64,-1,-1,-1,66,68,70,72,74,-1,76,78,80,-1,-1,-1,82,-1,84,-1,86,-1,88,90,92,-1,-1,-1,-1,-1,-1,-1,-1,-1,-1,-1,-1,-1,-1,-1,-1,-1,-1,-1,-1,-1,-1,-1,-1,-1,-1,-1,-1,-1,-1,-1,-1,-1,-1,-1,-1],"split_conditions":[2.8867513E-1,2.0412415E-1,3.7796447E-1,3.7796447E-1,2.773501E-1,3.3333334E-1,4.472136E-1,1.45865E-1,1.6012815E-1,4.7140452E-1,3.3333334E-1,3.6605682E-2,3.7796447E-1,3.0151135E-1,5.7735026E-1,3.592106E-1,1.9611613E-1,1.7407766E-1,2.0412415E-1,2.3570226E-1,2.0412415E-1,3.3333334E-1,3.5355338E-1,3.1622776E-1,6.666767E-1,3.0151135E-1,7.5593895E-1,3.1622776E-1,3.7796447E-1,1.1867817E-1,2.4253562E-1,1.5617377E-1,1.7407766E-1,5.073397E-3,3.255338E-2,1.4504634E-2,1.9611613E-1,4.5883146E-1,2.8867513E-1,2.0412415E-1,3.1622776E-1,-8.102483E-3,3.3333334E-1,3.5355338E-1,4.170288E-1,3.195733E-4,2.131608E-3,-2.9103577E-3,7.071168E-1,-1.7165199E-3,3.0151135E-1,2.3308987E-2,4.472136E-1,3.8739596E-2,7.071168E-1,3.7796447E-1,4.082483E-1,2.2094557E-2,1.0391164E-2,1.9927919E-2,2.139357E-3,-8.7814033E-4,1.9387117E-2,-9.696348E-3,3.9895354E-3,6.3660904E-3,-1.9129303E-3,1.0837431E-2,3.861987E-2,3.8729857E-3,1.3687372E-2,3.887128E-2,1.8103188E-2,2.268135E-3,-8.427295E-3,-3.9358167E-3,6.7831054E-3,4.2966595E-3,-5.6775226E-3,9.063482E-6,-1.16641475E-2,-1.2698487E-3,1.8844826E-2,-3.9667488E-4,1.961515E-2,2.328926E-2,5.114451E-3,2.278342E-2,5.014635E-3,2.2754602E-2,-4.758934E-3,5.1761633E-3,-1.2769321E-2],"split_indices":[24,24,71586,2309,2282,1019,47503,75136,1779,1197,1625,0,34226,24,45841,4211,522,23,218,24,14529,3700,2282,24,3786,132,4323,9283,24,67398,6482,168,4527,0,0,0,4817,432,34226,621,13844,0,2342,46951,423,0,0,0,9231,0,158,0,151,0,10655,1781,121905,0,0,0,0,0,0,0,0,0,0,0,0,0,0,0,0,0,0,0,0,0,0,0,0,0,0,0,0,0,0,0,0,0,0,0,0],"split_type":[0,0,0,0,0,0,0,0,0,0,0,0,0,0,0,0,0,0,0,0,0,0,0,0,0,0,0,0,0,0,0,0,0,0,0,0,0,0,0,0,0,0,0,0,0,0,0,0,0,0,0,0,0,0,0,0,0,0,0,0,0,0,0,0,0,0,0,0,0,0,0,0,0,0,0,0,0,0,0,0,0,0,0,0,0,0,0,0,0,0,0,0,0],"sum_hessian":[5.965E3,3.574E3,2.391E3,2.96E2,3.278E3,3.3E1,2.358E3,2.34E2,6.2E1,2.989E3,2.89E2,3E0,3E1,1.12E2,2.246E3,1.9E2,4.4E1,3E0,5.9E1,1.1E2,2.879E3,2.4E1,2.65E2,4E0,2.6E1,1.3E1,9.9E1,1.24E2,2.122E3,1.64E2,2.6E1,8E0,3.6E1,1E0,2E0,3E0,5.6E1,1.7E1,9.3E1,2.7E1,2.852E3,2E0,2.2E1,1.93E2,7.2E1,1E0,3E0,1E0,2.5E1,1E0,1.2E1,2E0,9.7E1,2E0,1.22E2,1.848E3,2.74E2,1.19E2,4.5E1,1E0,2.5E1,1E0,7E0,4E0,3.2E1,9E0,4.7E1,8E0,9E0,2.6E1,6.7E1,5E0,2.2E1,2.76E3,9.2E1,2E0,2E1,1E1,1.83E2,4E0,6.8E1,1E0,2.4E1,1E0,1.1E1,2E0,9.5E1,3E0,1.19E2,1.3E1,1.835E3,7E0,2.67E2],"tree_param":{"num_deleted":"0","num_feature":"128104","num_nodes":"93","size_leaf_vector":"1"}},{"base_weights":[-2.293431E-4,5.9815E-2,-1.7186023E-2,2.6989067E-1,5.4201294E-2,-2.0519849E-4,-5.1958263E-2,2.9242998E-1,-6.049214E-3,6.5784045E-2,-1.9509958E-2,7.8242704E-2,-5.8411392E-3,1.8820854E-1,-5.3982135E-2,-7.4307485E-3,3.0665722E-1,7.1896546E-2,-4.0409353E-2,2.7802706E-2,-2.6315995E-2,7.305941E-2,4.1153725E-2,1.1666168E-1,-9.551288E-3,2.2933737E-3,2.000703E-2,-4.2760853E-2,-9.5168024E-2,7.850624E-3,3.1968465E-1,7.729583E-2,-5.3184874E-2,8.985187E-2,-5.112684E-2,2.2612073E-1,-3.061596E-2,1.1552166E-1,3.7715834E-2,2.7303329E-2,9.7123146E-2,1.2615182E-1,-1.2777705E-2,-1.2764852E-1,-3.7199747E-2,4.34454E-2,-1.0540955E-1,1.4429367E-2,3.3437233E-2,2.329815E-2,7.341613E-3,-6.119879E-3,7.6738233E-3,-6.121397E-4,1.1537555E-2,1.156585E-2,-5.9294645E-3,7.1187215E-3,2.6799386E-2,1.0297193E-2,-3.5288152E-3,1.22063E-2,-6.2174345E-3,2.3325084E-2,2.4812524E-3,8.573837E-3,2.8630687E-2,-1.528136E-2,1.3725719E-2,6.68573E-3,-1.7518074E-3,-1.3339047E-2,1.4288599E-2,-1.9719696E-2,-3.4412479E-3,1.5927995E-2,2.4828783E-3,4.4013965E-3,-1.096252E-2],"categories":[],"categories_nodes":[],"categories_segments":[],"categories_sizes":[],"default_left":[0,0,1,1,1,0,0,0,0,1,0,1,0,0,0,0,0,1,0,0,0,1,0,0,0,0,0,0,0,0,0,0,1,0,0,0,0,1,0,0,1,0,0,1,0,0,0,0,0,0,0,0,0,0,0,0,0,0,0,0,0,0,0,0,0,0,0,0,0,0,0,0,0,0,0,0,0,0,0],"id":4,"left_children":[1,3,5,7,9,11,13,15,-1,17,19,21,23,25,27,-1,29,31,33,-1,35,37,-1,39,41,-1,-1,43,45,-1,47,49,51,53,55,57,59,61,63,-1,65,67,69,71,73,75,77,-1,-1,-1,-1,-1,-1,-1,-1,-1,-1,-1,-1,-1,-1,-1,-1,-1,-1,-1,-1,-1,-1,-1,-1,-1,-1,-1,-1,-1,-1,-1,-1],"loss_changes":[6.0844903E0,1.5373349E0,2.7515397E0,2.7087426E-1,1.0966818E0,1.3852011E0,7.53355E-1,1.8975234E-1,0E0,7.2276545E-1,3.6169985E-1,3.3272207E-1,1.3296286E0,2.0897448E-2,6.970248E-1,0E0,6.7041636E-2,7.12554E-1,8.97543E-2,0E0,1.9362359E-1,3.0780268E-1,0E0,2.3623562E-1,1.2441869E0,0E0,0E0,5.58902E-1,4.6453428E-1,0E0,2.645874E-2,5.905342E-1,5.0508775E-2,1.2954209E-2,8.450732E-2,3.849268E-4,1.0973884E-1,1.16852045E-1,2.8436306E-1,0E0,1.4344996E-1,2.2544384E-1,1.0479766E0,1.324575E-1,4.9357593E-1,4.5643564E-2,1.9506025E-1,0E0,0E0,0E0,0E0,0E0,0E0,0E0,0E0,0E0,0E0,0E0,0E0,0E0,0E0,0E0,0E0,0E0,0E0,0E0,0E0,0E0,0E0,0E0,0E0,0E0,0E0,0E0,0E0,0E0,0E0,0E0,0E0],"parents":[2147483647,0,0,1,1,2,2,3,3,4,4,5,5,6,6,7,7,9,9,10,10,11,11,12,12,13,13,14,14,16,16,17,17,18,18,20,20,21,21,23,23,24,24,27,27,28,28,30,30,31,31,32,32,33,33,34,34,35,35,36,36,37,37,38,38,40,40,41,41,42,42,43,43,44,44,45,45,46,46],"right_children":[2,4,6,8,10,12,14,16,-1,18,20,22,24,26,28,-1,30,32,34,-1,36,38,-1,40,42,-1,-1,44,46,-1,48,50,52,54,56,58,60,62,64,-1,66,68,70,72,74,76,78,-1,-1,-1,-1,-1,-1,-1,-1,-1,-1,-1,-1,-1,-1,-1,-1,-1,-1,-1,-1,-1,-1,-1,-1,-1,-1,-1,-1,-1,-1,-1,-1],"split_conditions":[2.581989E-1,1.3483997E-1,3.1622776E-1,1.2700012E-1,2.236068E-1,2.6726124E-1,4.082483E-1,1.8257418E-1,-6.049214E-3,2E-1,2.2941573E-1,2.581989E-1,3.3333334E-1,3.5355338E-1,3.7796447E-1,-7.4307485E-3,2.6726124E-1,1.9611613E-1,2.236068E-1,2.7802706E-2,2.4253562E-1,2.236068E-1,4.1153725E-2,3.3333334E-1,5.7735026E-1,2.2933737E-3,2.000703E-2,3.7796447E-1,8.944372E-1,7.850624E-3,2.581989E-1,2.581989E-1,2.236068E-1,2.182179E-1,2.236068E-1,1.8257418E-1,2.182179E-1,2.5E-1,2.5E-1,2.7303329E-2,3.1622776E-1,3.1622776E-1,5.7735026E-1,3.3333334E-1,3.7796447E-1,7.5593895E-1,4.082483E-1,1.4429367E-2,3.3437233E-2,2.329815E-2,7.341613E-3,-6.119879E-3,7.6738233E-3,-6.121397E-4,1.1537555E-2,1.156585E-2,-5.9294645E-3,7.1187215E-3,2.6799386E-2,1.0297193E-2,-3.5288152E-3,1.22063E-2,-6.2174345E-3,2.3325084E-2,2.4812524E-3,8.573837E-3,2.8630687E-2,-1.528136E-2,1.3725719E-2,6.68573E-3,-1.7518074E-3,-1.3339047E-2,1.4288599E-2,-1.9719696E-2,-3.4412479E-3,1.5927995E-2,2.4828783E-3,4.4013965E-3,-1.096252E-2],"split_indices":[24,24,24,545,2309,2282,1781,12,0,5411,29,9102,47503,2233,24,0,7971,75136,8479,0,17908,14529,0,151,8,0,0,86932,47503,0,3837,114,4527,3680,7605,24,63438,4491,3573,0,39,170,1197,1479,1071,10045,121905,0,0,0,0,0,0,0,0,0,0,0,0,0,0,0,0,0,0,0,0,0,0,0,0,0,0,0,0,0,0,0,0],"split_type":[0,0,0,0,0,0,0,0,0,0,0,0,0,0,0,0,0,0,0,0,0,0,0,0,0,0,0,0,0,0,0,0,0,0,0,0,0,0,0,0,0,0,0,0,0,0,0,0,0,0,0,0,0,0,0,0,0,0,0,0,0,0,0,0,0,0,0,0,0,0,0,0,0,0,0,0,0,0,0],"sum_hessian":[5.974E3,1.315E3,4.659E3,3.3E1,1.282E3,3.131E3,1.528E3,3.1E1,2E0,1.108E3,1.74E2,2.09E2,2.922E3,1.2E1,1.516E3,1E0,3E1,1.048E3,6E1,3E0,1.71E2,2.07E2,2E0,8.5E1,2.837E3,1E0,1.1E1,1.193E3,3.23E2,2E0,2.8E1,1.005E3,4.3E1,4E0,5.6E1,2E0,1.69E2,9.3E1,1.14E2,8E0,7.7E1,6.5E1,2.772E3,7.2E1,1.121E3,2.2E1,3.01E2,3E0,2.5E1,2.3E1,9.82E2,4.1E1,2E0,1E0,3E0,2E0,5.4E1,1E0,1E0,5E0,1.64E2,9E1,3E0,6E0,1.08E2,7.4E1,3E0,2E0,6.3E1,1.55E2,2.617E3,7.1E1,1E0,1.8E1,1.103E3,2E0,2E1,8E0,2.93E2],"tree_param":{"num_deleted":"0","num_feature":"128104","num_nodes":"79","size_leaf_vector":"1"}},{"base_weights":[1.0364548E-3,6.778158E-2,-1.073459E-2,1.6402663E-1,5.6725413E-2,2.954178E-3,-4.2814802E-2,-1.0118056E-1,1.7410307E-1,7.1419865E-2,-1.259313E-2,9.298241E-2,-4.4792143E-4,1.4205445E-1,-4.4995967E-2,2.2243203E-3,-1.4973621E-2,1.9301103E-1,2.2481913E-2,1.8575051E-1,6.5356255E-2,-2.1138338E-2,1.331814E-1,1.8499584E-1,6.931259E-2,1.7484997E-1,-2.0928143E-3,2.6693488E-2,1.0976096E-1,9.459867E-2,-4.7704525E-2,3.3808932E-1,1.6952826E-1,-1.8512394E-2,1.3797087E-2,-2.0972006E-3,2.0712183E-1,2.985588E-1,6.265279E-2,2.1481471E-1,-2.6301652E-2,1.9666597E-1,-3.818157E-3,-1.858537E-3,2.1235797E-1,5.7316102E-2,2.0760544E-1,3.5168193E-2,2.0573162E-1,6.657312E-2,-6.4600604E-3,1.6934862E-3,1.218122E-1,1.6690642E-2,1.1419683E-1,-3.811096E-2,-8.524822E-2,9.9264635E-3,3.5359602E-2,-4.8526116E-3,1.8001616E-2,3.1545598E-3,-6.4867907E-3,-1.4235914E-3,2.2344153E-2,6.574484E-3,3.7853543E-2,1.6592514E-2,5.719444E-3,6.762785E-3,2.5459422E-2,1.1096376E-2,-3.3660363E-3,8.243204E-3,2.3317493E-2,1.1888911E-3,2.3088412E-2,4.709342E-3,2.3803934E-2,-9.93316E-4,2.401014E-2,8.060351E-3,1.4161721E-3,7.84625E-3,2.130681E-2,2.8548887E-2,6.0767364E-3,2.5061158E-2,-7.5848395E-4,1.2701147E-3,1.2922836E-2,2.9443463E-3,-2.9913143E-3,1.5750749E-2,6.1369766E-3,8.795495E-3,-4.0918244E-3,-8.781481E-3,1.9811582E-2],"categories":[],"categories_nodes":[],"categories_segments":[],"categories_sizes":[],"default_left":[0,0,1,0,1,0,0,0,1,0,1,0,0,0,0,0,0,0,0,0,0,0,1,0,1,0,0,0,0,0,0,0,0,0,0,0,0,0,0,0,0,0,0,0,0,1,0,0,0,0,0,0,0,1,0,0,1,0,0,0,0,0,0,0,0,0,0,0,0,0,0,0,0,0,0,0,0,0,0,0,0,0,0,0,0,0,0,0,0,0,0,0,0,0,0,0,0,0,0],"id":5,"left_children":[1,3,5,7,9,11,13,15,17,19,21,23,25,27,29,-1,-1,31,33,35,37,39,41,43,45,47,49,-1,51,53,55,57,59,61,-1,-1,63,65,67,69,71,73,-1,-1,75,77,79,81,83,85,87,-1,89,91,93,95,97,-1,-1,-1,-1,-1,-1,-1,-1,-1,-1,-1,-1,-1,-1,-1,-1,-1,-1,-1,-1,-1,-1,-1,-1,-1,-1,-1,-1,-1,-1,-1,-1,-1,-1,-1,-1,-1,-1,-1,-1,-1,-1],"loss_changes":[4.706044E0,9.4625854E-1,2.2362204E0,2.6347136E-1,8.229079E-1,1.093479E0,6.205113E-1,2.7302302E-2,2.5081015E-1,4.4956923E-1,1.7970088E-1,2.7031004E-1,9.9256545E-1,4.3291837E-2,5.7393146E-1,0E0,0E0,2.118249E-1,5.4632463E-2,1.5013552E-1,3.810022E-1,1.7012043E-1,9.454025E-2,1.487776E-1,1.6229874E-1,1.3080001E-1,1.0230244E0,0E0,1.5835822E-2,4.2372763E-2,5.29094E-1,1.9342899E-3,1.6882086E-1,2.2930471E-2,0E0,0E0,1.1155558E-1,1.0545099E-1,3.4451175E-1,3.4740567E-4,1.380779E-1,5.8022887E-3,0E0,0E0,8.26751E-2,1.6984263E-1,5.8937997E-2,5.5395653E-3,7.558584E-3,2.4192995E-1,9.292006E-1,0E0,9.68723E-3,5.0410544E-3,4.2957217E-2,4.2085004E-1,2.3558116E-1,0E0,0E0,0E0,0E0,0E0,0E0,0E0,0E0,0E0,0E0,0E0,0E0,0E0,0E0,0E0,0E0,0E0,0E0,0E0,0E0,0E0,0E0,0E0,0E0,0E0,0E0,0E0,0E0,0E0,0E0,0E0,0E0,0E0,0E0,0E0,0E0,0E0,0E0,0E0,0E0,0E0,0E0],"parents":[2147483647,0,0,1,1,2,2,3,3,4,4,5,5,6,6,7,7,8,8,9,9,10,10,11,11,12,12,13,13,14,14,17,17,18,18,19,19,20,20,21,21,22,22,23,23,24,24,25,25,26,26,28,28,29,29,30,30,31,31,32,32,33,33,36,36,37,37,38,38,39,39,40,40,41,41,44,44,45,45,46,46,47,47,48,48,49,49,50,50,52,52,53,53,54,54,55,55,56,56],"right_children":[2,4,6,8,10,12,14,16,18,20,22,24,26,28,30,-1,-1,32,34,36,38,40,42,44,46,48,50,-1,52,54,56,58,60,62,-1,-1,64,66,68,70,72,74,-1,-1,76,78,80,82,84,86,88,-1,90,92,94,96,98,-1,-1,-1,-1,-1,-1,-1,-1,-1,-1,-1,-1,-1,-1,-1,-1,-1,-1,-1,-1,-1,-1,-1,-1,-1,-1,-1,-1,-1,-1,-1,-1,-1,-1,-1,-1,-1,-1,-1,-1,-1,-1],"split_conditions":[2.4253562E-1,1.6439898E-1,3.1622776E-1,2.0412415E-1,2.2941573E-1,2.5E-1,3.4815532E-1,3.0151135E-1,1.3608277E-1,2.2941573E-1,2.085144E-1,2.0412415E-1,3.1622776E-1,3.3333334E-1,8.165066E-1,2.2243203E-3,-1.4973621E-2,1.6439898E-1,1.6222142E-1,2.2941573E-1,2.5E-1,2.4253562E-1,2.2941573E-1,2.0412415E-1,2.2941573E-1,3.1622776E-1,3.1622776E-1,2.6693488E-2,3.5355338E-1,7.5593895E-1,3.7796447E-1,1.2700012E-1,1.8898223E-1,2.773501E-1,1.3797087E-2,-2.0972006E-3,5.163978E-1,2.4253562E-1,2.4253562E-1,1.8257418E-1,1.8569534E-1,2.236068E-1,-3.818157E-3,-1.858537E-3,1.8898223E-1,2.1320072E-1,2.3570226E-1,2.581989E-1,3.1622776E-1,2.6726124E-1,2.8867513E-1,1.6934862E-3,3.3333334E-1,3.7796447E-1,3.5355338E-1,3.7796447E-1,4.082483E-1,9.9264635E-3,3.5359602E-2,-4.8526116E-3,1.8001616E-2,3.1545598E-3,-6.4867907E-3,-1.4235914E-3,2.2344153E-2,6.574484E-3,3.7853543E-2,1.6592514E-2,5.719444E-3,6.762785E-3,2.5459422E-2,1.1096376E-2,-3.3660363E-3,8.243204E-3,2.3317493E-2,1.1888911E-3,2.3088412E-2,4.709342E-3,2.3803934E-2,-9.93316E-4,2.401014E-2,8.060351E-3,1.4161721E-3,7.84625E-3,2.130681E-2,2.8548887E-2,6.0767364E-3,2.5061158E-2,-7.5848395E-4,1.2701147E-3,1.2922836E-2,2.9443463E-3,-2.9913143E-3,1.5750749E-2,6.1369766E-3,8.795495E-3,-4.0918244E-3,-8.781481E-3,1.9811582E-2],"split_indices":[24,24,24,5699,2309,14529,128,249,2271,86932,63438,14529,71586,862,71586,0,0,1965,2271,2141,71586,17908,43,987,3573,99977,242,0,39112,4234,24,3,161,1858,0,0,743,432,413,24,380,43,0,0,837,11,517,12,128,2815,50,0,158,28,24,39,11858,0,0,0,0,0,0,0,0,0,0,0,0,0,0,0,0,0,0,0,0,0,0,0,0,0,0,0,0,0,0,0,0,0,0,0,0,0,0,0,0,0,0],"split_type":[0,0,0,0,0,0,0,0,0,0,0,0,0,0,0,0,0,0,0,0,0,0,0,0,0,0,0,0,0,0,0,0,0,0,0,0,0,0,0,0,0,0,0,0,0,0,0,0,0,0,0,0,0,0,0,0,0,0,0,0,0,0,0,0,0,0,0,0,0,0,0,0,0,0,0,0,0,0,0,0,0,0,0,0,0,0,0,0,0,0,0,0,0,0,0,0,0,0,0],"sum_hessian":[5.988E3,8.97E2,5.091E3,9.1E1,8.06E2,3.569E3,1.522E3,3E0,8.8E1,6.65E2,1.41E2,1.29E2,3.44E3,1.7E1,1.505E3,1E0,2E0,7.8E1,1E1,3.2E1,6.33E2,1.34E2,7E0,2.5E1,1.04E2,3.1E1,3.409E3,2E0,1.5E1,2.8E1,1.477E3,9E0,6.9E1,8E0,2E0,3E0,2.9E1,6E0,6.27E2,2E0,1.32E2,5E0,2E0,3E0,2.2E1,9.7E1,7E0,6E0,2.5E1,2.03E2,3.206E3,2E0,1.3E1,6E0,2.2E1,1.178E3,2.99E2,1E0,8E0,3E0,6.6E1,4E0,4E0,2E0,2.7E1,2E0,4E0,3E1,5.97E2,1E0,1E0,6E0,1.26E2,2E0,3E0,2E0,2E1,9.3E1,4E0,1E0,6E0,1E0,5E0,2E0,2.3E1,4E0,1.99E2,1.3E1,3.193E3,1E0,1.2E1,5E0,1E0,1.1E1,1.1E1,2.5E1,1.153E3,2.97E2,2E0],"tree_param":{"num_deleted":"0","num_feature":"128104","num_nodes":"99","size_leaf_vector":"1"}},{"base_weights":[1.2405432E-3,4.889201E-3,-9.8972544E-2,1.84084E-1,3.2822017E-3,2.531192E-2,-1.03597194E-1,3.7534606E-2,1.5513495E-1,6.793256E-2,-1.1749666E-3,-1.08950846E-1,1.3448054E-1,-2.0722777E-3,1.7237669E-1,8.7678045E-2,1.4335334E-2,-4.316137E-3,9.07288E-2,1.264029E-1,-1.1192154E-1,2.5639707E-2,3.990214E-3,-2.094794E-3,1.8778495E-1,7.476749E-2,1.6156904E-1,-4.53635E-2,2.2991579E-2,1.6080077E-1,-6.1304737E-3,2.805641E-1,7.5127654E-2,1.5988305E-2,2.9721304E-3,-1.1458481E-1,1.0204912E-1,-1.975769E-3,1.9953746E-2,2.0086957E-2,6.440066E-3,9.694278E-4,1.7864918E-2,3.5462424E-3,-5.50542E-3,-4.2535695E-3,2.9179563E-3,1.475359E-3,1.8845333E-2,9.748511E-3,-9.0783276E-4,-1.3536662E-3,3.0620057E-2,2.300959E-2,6.7786477E-3,9.416069E-3,-1.1718203E-2,1.26472255E-2,2.6601427E-3],"categories":[],"categories_nodes":[],"categories_segments":[],"categories_sizes":[],"default_left":[1,0,0,0,0,0,1,0,0,1,1,0,0,0,0,0,0,0,0,0,1,0,0,0,0,0,0,0,0,0,0,0,0,0,0,0,0,0,0,0,0,0,0,0,0,0,0,0,0,0,0,0,0,0,0,0,0,0,0],"id":6,"left_children":[1,3,5,7,9,-1,11,-1,13,15,17,19,21,-1,23,25,27,29,31,33,35,-1,-1,-1,37,39,41,43,45,47,49,51,53,-1,-1,55,57,-1,-1,-1,-1,-1,-1,-1,-1,-1,-1,-1,-1,-1,-1,-1,-1,-1,-1,-1,-1,-1,-1],"loss_changes":[2.17533E0,1.6523198E0,3.6653733E-1,2.241503E-1,1.6396964E0,0E0,2.7849102E-1,0E0,1.4304864E-1,3.871405E-1,1.5373527E0,1.5607762E-1,4.7422573E-2,0E0,1.2904298E-1,2.4358463E-1,5.271975E-2,1.543511E0,5.001719E-1,4.9588084E-3,1.2623549E-1,0E0,0E0,0E0,9.906924E-2,2.877382E-1,9.9435806E-2,1.2134729E-2,3.692356E-2,2.2337997E-1,1.5568146E0,1.0216093E-1,1.70977E-1,0E0,0E0,1.1892319E-1,2.1636654E-3,0E0,0E0,0E0,0E0,0E0,0E0,0E0,0E0,0E0,0E0,0E0,0E0,0E0,0E0,0E0,0E0,0E0,0E0,0E0,0E0,0E0,0E0],"parents":[2147483647,0,0,1,1,2,2,3,3,4,4,6,6,8,8,9,9,10,10,11,11,12,12,14,14,15,15,16,16,17,17,18,18,19,19,20,20,24,24,25,25,26,26,27,27,28,28,29,29,30,30,31,31,32,32,35,35,36,36],"right_children":[2,4,6,8,10,-1,12,-1,14,16,18,20,22,-1,24,26,28,30,32,34,36,-1,-1,-1,38,40,42,44,46,48,50,52,54,-1,-1,56,58,-1,-1,-1,-1,-1,-1,-1,-1,-1,-1,-1,-1,-1,-1,-1,-1,-1,-1,-1,-1,-1,-1],"split_conditions":[2.6726124E-1,3.0151135E-1,6.030327E-1,2.3570226E-1,1.1094104E0,2.531192E-2,3.1622776E-1,3.7534606E-2,3.0151135E-1,2.8867513E-1,2.182179E-1,7.5593895E-1,3.3333334E-1,-2.0722777E-3,3.0151135E-1,3.7796447E-1,3.5355338E-1,3.7796447E-1,2.6726124E-1,4.5883146E-1,2.773501E-1,2.5639707E-2,3.990214E-3,-2.094794E-3,2.6726124E-1,2.8867513E-1,2.581989E-1,6.666767E-1,3.3333334E-1,3.3333334E-1,2.773501E-1,2.4253562E-1,4.472136E-1,1.5988305E-2,2.9721304E-3,3.0151135E-1,2.8867513E-1,-1.975769E-3,1.9953746E-2,2.0086957E-2,6.440066E-3,9.694278E-4,1.7864918E-2,3.5462424E-3,-5.50542E-3,-4.2535695E-3,2.9179563E-3,1.475359E-3,1.8845333E-2,9.748511E-3,-9.0783276E-4,-1.3536662E-3,3.0620057E-2,2.300959E-2,6.7786477E-3,9.416069E-3,-1.1718203E-2,1.26472255E-2,2.6601427E-3],"split_indices":[86932,45841,7688,45841,242,0,24302,0,7,545,47503,3616,91,0,2383,242,5795,71586,47503,114,112,0,0,0,386,396,17491,33711,1799,34226,1779,85,151,0,0,176,72,0,0,0,0,0,0,0,0,0,0,0,0,0,0,0,0,0,0,0,0,0,0],"split_type":[0,0,0,0,0,0,0,0,0,0,0,0,0,0,0,0,0,0,0,0,0,0,0,0,0,0,0,0,0,0,0,0,0,0,0,0,0,0,0,0,0,0,0,0,0,0,0,0,0,0,0,0,0,0,0,0,0,0,0],"sum_hessian":[5.947E3,5.739E3,2.08E2,5E1,5.689E3,2E0,2.06E2,5E0,4.5E1,3.66E2,5.323E3,2.02E2,4E0,4E0,4.1E1,2.67E2,9.9E1,5.148E3,1.75E2,2E0,2E2,1E0,3E0,3E0,3.8E1,2.29E2,3.8E1,1.2E1,8.7E1,5.5E1,5.093E3,1.2E1,1.63E2,1E0,1E0,1.98E2,2E0,2E0,3.6E1,1.6E1,2.13E2,4E0,3.4E1,1E0,1.1E1,7E0,8E1,9E0,4.6E1,1.4E2,4.953E3,1E0,1.1E1,6E0,1.57E2,2E0,1.96E2,1E0,1E0],"tree_param":{"num_deleted":"0","num_feature":"128104","num_nodes":"59","size_leaf_vector":"1"}},{"base_weights":[1.8128954E-4,3.4414865E-2,-1.6386658E-2,1.6111808E-1,2.9013552E-2,7.919088E-2,-1.974977E-2,2.9114765E-1,1.3154298E-1,3.252561E-2,-9.7782925E-2,3.0605346E-2,7.188243E-2,7.4699834E-2,-2.3244528E-2,9.385357E-3,3.1620886E-2,1.04197904E-1,3.2018816E-1,3.6044233E-2,-7.977146E-2,-3.9792954E-4,-1.0606254E-1,7.89041E-2,-9.2234254E-2,2.9347235E-1,6.610747E-2,-2.7031284E-2,6.255243E-2,1.1610316E-1,-9.150146E-3,3.5424475E-2,4.0896027E-3,1.7516056E-1,3.323167E-2,2.4018923E-2,-8.8217236E-2,-1.4786427E-3,1.4123212E-3,-3.5823785E-2,-1.1546763E-1,1.8708342E-1,6.8330124E-2,-2.471006E-3,-1.0079708E-2,8.932511E-3,3.221779E-1,1.6915317E-1,5.4771163E-2,-1.6683565E-2,-5.6210186E-2,5.7602383E-2,3.02404E-2,-9.5919175E-3,1.2555705E-2,-2.2609641E-3,2.0140864E-2,3.6782466E-3,-7.0620566E-3,-1.8701606E-3,3.9374456E-3,-9.435943E-3,4.3558357E-3,6.298393E-4,-4.389388E-3,-2.359209E-3,-1.2210012E-2,2.4901817E-3,2.2035692E-2,1.1604651E-2,5.113526E-3,9.975592E-3,3.6306657E-2,-2.4795146E-3,1.8738179E-2,1.769436E-2,4.922422E-3,-1.8322524E-3,1.3337612E-2,1.6142773E-2,-5.870518E-3,2.9914547E-2,5.258808E-3],"categories":[],"categories_nodes":[],"categories_segments":[],"categories_sizes":[],"default_left":[0,0,0,0,1,0,0,0,1,1,0,0,1,0,1,0,0,1,1,0,0,0,0,0,0,0,0,1,1,0,0,0,0,0,1,0,1,0,0,0,0,0,0,0,0,0,0,0,0,1,0,0,0,0,0,0,0,0,0,0,0,0,0,0,0,0,0,0,0,0,0,0,0,0,0,0,0,0,0,0,0,0,0],"id":7,"left_children":[1,3,5,7,9,11,13,15,17,19,21,-1,23,25,27,-1,-1,29,31,33,35,37,39,41,43,45,47,49,51,53,-1,-1,-1,55,57,59,61,-1,-1,63,65,67,69,-1,-1,-1,71,73,75,77,79,81,-1,-1,-1,-1,-1,-1,-1,-1,-1,-1,-1,-1,-1,-1,-1,-1,-1,-1,-1,-1,-1,-1,-1,-1,-1,-1,-1,-1,-1,-1,-1],"loss_changes":[3.412152E0,1.3380468E0,1.304674E0,2.6935267E-1,8.417121E-1,2.0680618E-1,1.2946538E0,3.95447E-2,3.1225765E-1,7.271503E-1,4.107961E-2,0E0,1.6284823E-1,2.4376768E-1,1.2291331E0,0E0,0E0,1.5041465E-1,6.1606705E-2,6.8986416E-1,5.120793E-2,1.2535189E-3,2.6911855E-2,1.3592166E-1,9.784847E-4,5.222261E-4,1.4960462E-1,1.0917654E0,1.725449E-1,1.2629616E-1,0E0,0E0,0E0,1.8624187E-1,6.4571214E-1,4.016348E-3,4.6198487E-2,0E0,0E0,2.65597E-3,2.210331E-2,5.3872496E-2,9.252316E-2,0E0,0E0,0E0,1.6015768E-4,5.060649E-2,7.532284E-2,6.5984607E-1,5.237019E-1,1.7563355E-1,0E0,0E0,0E0,0E0,0E0,0E0,0E0,0E0,0E0,0E0,0E0,0E0,0E0,0E0,0E0,0E0,0E0,0E0,0E0,0E0,0E0,0E0,0E0,0E0,0E0,0E0,0E0,0E0,0E0,0E0,0E0],"parents":[2147483647,0,0,1,1,2,2,3,3,4,4,5,5,6,6,7,7,8,8,9,9,10,10,12,12,13,13,14,14,17,17,18,18,19,19,20,20,21,21,22,22,23,23,24,24,25,25,26,26,27,27,28,28,29,29,33,33,34,34,35,35,36,36,39,39,40,40,41,41,42,42,46,46,47,47,48,48,49,49,50,50,51,51],"right_children":[2,4,6,8,10,12,14,16,18,20,22,-1,24,26,28,-1,-1,30,32,34,36,38,40,42,44,46,48,50,52,54,-1,-1,-1,56,58,60,62,-1,-1,64,66,68,70,-1,-1,-1,72,74,76,78,80,82,-1,-1,-1,-1,-1,-1,-1,-1,-1,-1,-1,-1,-1,-1,-1,-1,-1,-1,-1,-1,-1,-1,-1,-1,-1,-1,-1,-1,-1,-1,-1],"split_conditions":[2.773501E-1,1.6439898E-1,2.5E-1,1.6439898E-1,2.236068E-1,2.4253562E-1,4.082483E-1,1.4002801E-1,1.5617377E-1,2.3570226E-1,2.773501E-1,3.0605346E-2,2.3570226E-1,3.1622776E-1,2.773501E-1,9.385357E-3,3.1620886E-2,1.5075567E-1,3.2444283E-1,2.2941573E-1,2.773501E-1,2.6726124E-1,2.773501E-1,2.3570226E-1,1.7677669E-1,3.0151135E-1,2.8867513E-1,3.3333334E-1,3.1622776E-1,7.2232515E-1,-9.150146E-3,3.5424475E-2,4.0896027E-3,2.2941573E-1,1.9611613E-1,2.5E-1,2.5E-1,-1.4786427E-3,1.4123212E-3,2.4806947E-1,2.4253562E-1,2.3570226E-1,5.345225E-1,-2.471006E-3,-1.0079708E-2,8.932511E-3,3.1622776E-1,2.8867513E-1,7.071168E-1,2.773501E-1,4.082483E-1,3.5355338E-1,3.02404E-2,-9.5919175E-3,1.2555705E-2,-2.2609641E-3,2.0140864E-2,3.6782466E-3,-7.0620566E-3,-1.8701606E-3,3.9374456E-3,-9.435943E-3,4.3558357E-3,6.298393E-4,-4.389388E-3,-2.359209E-3,-1.2210012E-2,2.4901817E-3,2.2035692E-2,1.1604651E-2,5.113526E-3,9.975592E-3,3.6306657E-2,-2.4795146E-3,1.8738179E-2,1.769436E-2,4.922422E-3,-1.8322524E-3,1.3337612E-2,1.6142773E-2,-5.870518E-3,2.9914547E-2,5.258808E-3],"split_indices":[24,24,2282,1965,949,16534,45841,2973,1029,5411,1211,0,1034,2000,47503,0,0,5411,1903,86932,83558,5411,67398,17,84,24,45841,24,5266,219,0,0,0,2141,35346,168,9933,0,0,526,522,8531,382,0,0,0,1540,170,14674,71586,1781,2140,0,0,0,0,0,0,0,0,0,0,0,0,0,0,0,0,0,0,0,0,0,0,0,0,0,0,0,0,0,0,0],"split_type":[0,0,0,0,0,0,0,0,0,0,0,0,0,0,0,0,0,0,0,0,0,0,0,0,0,0,0,0,0,0,0,0,0,0,0,0,0,0,0,0,0,0,0,0,0,0,0,0,0,0,0,0,0,0,0,0,0,0,0,0,0,0,0,0,0,0,0,0,0,0,0,0,0,0,0,0,0,0,0,0,0,0,0],"sum_hessian":[6.014E3,1.961E3,4.053E3,7.9E1,1.882E3,1.37E2,3.916E3,1.3E1,6.6E1,1.832E3,5E1,3E0,1.34E2,1.39E2,3.777E3,2E0,1.1E1,5.9E1,7E0,1.777E3,5.5E1,4E0,4.6E1,1.29E2,5E0,4E0,1.35E2,3.618E3,1.59E2,5.6E1,3E0,6E0,1E0,3.4E1,1.743E3,4E0,5.1E1,2E0,2E0,6E0,4E1,1E1,1.19E2,1E0,4E0,1E0,3E0,1.2E1,1.23E2,2.672E3,9.46E2,1.57E2,2E0,2E0,5.4E1,4E0,3E1,1.686E3,5.7E1,1E0,3E0,4.9E1,2E0,1E0,5E0,3E0,3.7E1,2E0,8E0,3E1,8.9E1,1E0,2E0,1E0,1.1E1,4E0,1.19E2,2.644E3,2.8E1,1E1,9.36E2,2E0,1.55E2],"tree_param":{"num_deleted":"0","num_feature":"128104","num_nodes":"83","size_leaf_vector":"1"}},{"base_weights":[2.686186E-4,-2.0496268E-3,1.0084414E-1,1.0195155E-1,-4.242775E-3,3.7949096E-2,9.380064E-2,1.3870642E-1,2.685164E-2,9.655436E-2,-6.285206E-3,5.347714E-2,1.1247213E-1,1.4896737E-1,-4.7053613E-2,-3.0789021E-2,8.321365E-2,1.9936478E-1,8.2504466E-2,3.1061655E-1,-6.9050197E-3,6.849073E-2,1.6412968E-2,5.0163455E-2,1.24265015E-1,1.56065E-1,-7.812923E-3,-8.504119E-3,6.6185E-4,-4.4890635E-2,1.1946778E-3,9.937377E-2,-1.03103E-2,-2.77496E-3,2.4318099E-1,2.9054537E-2,7.5438194E-2,9.584274E-3,3.4769487E-2,-4.169938E-3,-7.761768E-2,4.7970816E-2,8.998127E-2,-5.7631717E-3,2.654192E-2,2.5364638E-3,6.582775E-2,1.3550833E-1,3.763262E-2,5.5347005E-4,1.6907439E-2,-2.3141503E-4,-5.888995E-3,1.1564871E-2,1.3499297E-3,2.0024737E-3,-5.0657704E-3,-1.4235899E-3,2.703463E-2,2.2792062E-2,6.6710585E-3,2.2641381E-2,-5.111196E-4,2.0123592E-2,-8.265553E-3,2.347052E-4,5.3527094E-3,9.529727E-3,1.0436699E-3,-3.7382895E-3,3.4984231E-3,-4.2475067E-4,8.4749464E-4,1.0570825E-2,4.728082E-3,5.3730253E-3,1.491521E-2,1.3277449E-3,4.6173776E-3],"categories":[],"categories_nodes":[],"categories_segments":[],"categories_sizes":[],"default_left":[1,0,0,1,0,0,0,1,0,0,0,0,0,1,0,1,1,0,0,0,1,0,0,0,1,0,0,0,0,0,0,1,0,0,0,0,0,0,0,0,0,0,1,0,0,0,0,0,0,0,0,0,0,0,0,0,0,0,0,0,0,0,0,0,0,0,0,0,0,0,0,0,0,0,0,0,0,0,0],"id":8,"left_children":[1,3,5,7,9,-1,11,13,15,17,19,21,23,25,27,29,31,33,35,37,39,41,43,45,47,49,-1,-1,-1,51,-1,53,55,-1,57,-1,59,-1,-1,61,63,65,67,-1,69,71,73,75,77,-1,-1,-1,-1,-1,-1,-1,-1,-1,-1,-1,-1,-1,-1,-1,-1,-1,-1,-1,-1,-1,-1,-1,-1,-1,-1,-1,-1,-1,-1],"loss_changes":[1.3970608E0,1.3363557E0,2.293607E-1,3.302703E-1,1.1816899E0,0E0,9.412098E-2,1.6140175E-1,1.3576055E-1,1.4822185E-1,1.1068112E0,2.3360386E-2,5.9898376E-2,1.3630545E-1,1.075721E-2,1.3191814E-2,3.2763094E-2,1.361149E-1,1.2802923E-1,5.4273963E-2,1.0854515E0,9.354025E-3,1.202959E-2,1.1769719E-2,6.795323E-2,1.459372E-1,0E0,0E0,0E0,9.400383E-3,0E0,2.359566E-2,5.910167E-3,0E0,8.076948E-2,0E0,1.1787593E-1,0E0,0E0,1.1744686E0,3.1024122E-1,4.4373423E-3,4.9254224E-3,0E0,8.323562E-3,2.3742982E-4,3.8779527E-3,6.5626144E-2,1.4671432E-3,0E0,0E0,0E0,0E0,0E0,0E0,0E0,0E0,0E0,0E0,0E0,0E0,0E0,0E0,0E0,0E0,0E0,0E0,0E0,0E0,0E0,0E0,0E0,0E0,0E0,0E0,0E0,0E0,0E0,0E0],"parents":[2147483647,0,0,1,1,2,2,3,3,4,4,6,6,7,7,8,8,9,9,10,10,11,11,12,12,13,13,14,14,15,15,16,16,17,17,18,18,19,19,20,20,21,21,22,22,23,23,24,24,25,25,29,29,31,31,32,32,34,34,36,36,39,39,40,40,41,41,42,42,44,44,45,45,46,46,47,47,48,48],"right_children":[2,4,6,8,10,-1,12,14,16,18,20,22,24,26,28,30,32,34,36,38,40,42,44,46,48,50,-1,-1,-1,52,-1,54,56,-1,58,-1,60,-1,-1,62,64,66,68,-1,70,72,74,76,78,-1,-1,-1,-1,-1,-1,-1,-1,-1,-1,-1,-1,-1,-1,-1,-1,-1,-1,-1,-1,-1,-1,-1,-1,-1,-1,-1,-1,-1,-1],"split_conditions":[1.8257418E-1,2.8867513E-1,3.5355338E-1,2.182179E-1,3.3333334E-1,3.7949096E-2,3.7796447E-1,2.3570226E-1,4.7140452E-1,5.547002E-1,1.5249857E-1,5E-1,3.3333334E-1,2.581989E-1,2.5400025E-1,2.581989E-1,2.182179E-1,3.3333334E-1,3.0151135E-1,2.6726124E-1,2.6726124E-1,3.1622776E-1,2.6726124E-1,2.5E-1,2.4253562E-1,2.8867513E-1,-7.812923E-3,-8.504119E-3,6.6185E-4,2.5E-1,1.1946778E-3,2.182179E-1,2.236068E-1,-2.77496E-3,3.3333334E-1,2.9054537E-2,3.3333334E-1,9.584274E-3,3.4769487E-2,2.8867513E-1,3.1622776E-1,4.364358E-1,4.8507124E-1,-5.7631717E-3,3.3333334E-1,4.364358E-1,2.773501E-1,3.5355338E-1,2.8867513E-1,5.5347005E-4,1.6907439E-2,-2.3141503E-4,-5.888995E-3,1.1564871E-2,1.3499297E-3,2.0024737E-3,-5.0657704E-3,-1.4235899E-3,2.703463E-2,2.2792062E-2,6.6710585E-3,2.2641381E-2,-5.111196E-4,2.0123592E-2,-8.265553E-3,2.347052E-4,5.3527094E-3,9.529727E-3,1.0436699E-3,-3.7382895E-3,3.4984231E-3,-4.2475067E-4,8.4749464E-4,1.0570825E-2,4.728082E-3,5.3730253E-3,1.491521E-2,1.3277449E-3,4.6173776E-3],"split_indices":[432,9007,47503,4211,47503,0,66274,15855,242,39,1965,1197,34226,24600,22,22,5301,64130,92,3639,86932,1197,74,432,1513,15986,0,0,0,8696,0,4041,22,0,124,0,151,0,0,128,15,5,28,0,1513,28,12,116001,432,0,0,0,0,0,0,0,0,0,0,0,0,0,0,0,0,0,0,0,0,0,0,0,0,0,0,0,0,0,0],"split_type":[0,0,0,0,0,0,0,0,0,0,0,0,0,0,0,0,0,0,0,0,0,0,0,0,0,0,0,0,0,0,0,0,0,0,0,0,0,0,0,0,0,0,0,0,0,0,0,0,0,0,0,0,0,0,0,0,0,0,0,0,0,0,0,0,0,0,0,0,0,0,0,0,0,0,0,0,0,0,0],"sum_hessian":[5.99E3,5.856E3,1.34E2,1.2E2,5.736E3,2E0,1.32E2,8E1,4E1,1.13E2,5.623E3,4.3E1,8.9E1,7.6E1,4E0,2E1,2E1,1.2E1,1.01E2,1E1,5.613E3,3E1,1.3E1,1.5E1,7.4E1,7.4E1,2E0,2E0,2E0,1.5E1,5E0,1.7E1,3E0,2E0,1E1,2E0,9.9E1,2E0,8E0,5.405E3,2.08E2,1.7E1,1.3E1,1E0,1.2E1,4E0,1.1E1,6.5E1,9E0,6E0,6.8E1,4E0,1.1E1,1.4E1,3E0,2E0,1E0,1E0,9E0,4E0,9.5E1,2.1E1,5.384E3,3E0,2.05E2,2E0,1.5E1,1.2E1,1E0,1E0,1.1E1,2E0,2E0,2E0,9E0,1E1,5.5E1,3E0,6E0],"tree_param":{"num_deleted":"0","num_feature":"128104","num_nodes":"79","size_leaf_vector":"1"}},{"base_weights":[-4.6378435E-4,-4.1725673E-3,5.849041E-2,8.696897E-2,-6.7187743E-3,1.9276285E-1,4.901223E-2,5.9209857E-2,1.3676421E-1,8.458116E-2,-9.1656465E-3,2.1020114E-2,2.2781289E-1,5.665039E-2,-4.3061893E-2,2.2269696E-2,4.6405394E-2,-6.160283E-3,1.416693E-1,3.4199297E-1,6.881737E-2,1.12020485E-1,-1.10794315E-2,5.6657824E-3,-2.0537674E-3,5.6620933E-2,2.6968935E-1,2.1449961E-1,5.225224E-2,9.880097E-3,-5.9000503E-2,3.4949545E-2,1.5071623E-1,-2.1933049E-2,1.4851514E-1,8.185814E-3,3.6746106E-1,1.4236455E-1,5.2587725E-2,2.2739941E-1,8.5314624E-2,6.874119E-2,-1.4089638E-2,9.889826E-4,-9.331574E-4,1.4892122E-3,9.2879E-3,5.010585E-2,2.9961714E-1,2.8954377E-2,1.4122759E-2,1.8360715E-1,4.8024684E-2,1.9759068E-2,-6.705861E-2,-1.3225776E-3,4.789633E-3,4.0964796E-3,1.5931457E-2,8.2578213E-4,-4.1157394E-3,-5.9111416E-3,1.538499E-2,8.511442E-3,4.003331E-2,-4.4818325E-3,1.6141837E-2,1.4665847E-2,4.303681E-3,-3.120996E-3,2.481008E-2,1.0084533E-2,-6.6649504E-3,1.176193E-2,4.7071995E-3,-1.8360313E-3,4.5077363E-3,4.609734E-4,-2.3759156E-4,-1.323849E-4,7.6482627E-3,1.024888E-2,3.261415E-2,2.0233827E-2,1.6879082E-3,1.337337E-2,4.2240005E-3,2.9790998E-4,2.6659505E-3,9.914975E-4,-7.5251716E-3],"categories":[],"categories_nodes":[],"categories_segments":[],"categories_sizes":[],"default_left":[1,0,0,1,0,0,1,0,0,0,0,0,0,0,0,0,1,0,0,0,0,0,0,0,0,0,0,0,0,0,0,1,0,0,0,0,0,0,0,0,1,0,1,0,0,0,0,0,0,0,0,0,0,0,0,0,0,0,0,0,0,0,0,0,0,0,0,0,0,0,0,0,0,0,0,0,0,0,0,0,0,0,0,0,0,0,0,0,0,0,0],"id":9,"left_children":[1,3,5,7,9,11,13,15,17,19,21,23,25,27,29,-1,31,-1,33,35,37,39,41,-1,43,45,47,49,51,-1,53,55,57,59,61,-1,63,65,67,69,71,73,75,-1,-1,77,-1,79,81,-1,-1,83,85,87,89,-1,-1,-1,-1,-1,-1,-1,-1,-1,-1,-1,-1,-1,-1,-1,-1,-1,-1,-1,-1,-1,-1,-1,-1,-1,-1,-1,-1,-1,-1,-1,-1,-1,-1,-1,-1],"loss_changes":[1.307761E0,1.3064153E0,4.4107342E-1,2.0338976E-1,1.2238865E0,1.3366193E-1,2.3592734E-1,1.9900212E-1,6.126976E-2,5.5672836E-1,1.2380927E0,4.227863E-3,1.20939195E-1,2.0192486E-1,6.461783E-2,0E0,1.0705964E-1,0E0,6.261706E-2,2.2921443E-2,1.54849E-1,2.3634684E-1,1.262661E0,0E0,4.399803E-4,9.856533E-3,8.3562136E-2,3.0975342E-3,1.5777534E-1,0E0,1.655668E-2,5.4272987E-2,1.966834E-3,2.0810696E-3,6.5583825E-2,0E0,3.0895054E-2,9.283167E-2,9.521446E-2,8.804673E-2,1.695689E-1,1.9676095E-1,1.2796564E0,0E0,0E0,4.713598E-5,0E0,4.1709007E-3,3.454733E-2,0E0,0E0,2.469176E-2,1.3912451E-1,2.6794593E-4,1.46204755E-2,0E0,0E0,0E0,0E0,0E0,0E0,0E0,0E0,0E0,0E0,0E0,0E0,0E0,0E0,0E0,0E0,0E0,0E0,0E0,0E0,0E0,0E0,0E0,0E0,0E0,0E0,0E0,0E0,0E0,0E0,0E0,0E0,0E0,0E0,0E0,0E0],"parents":[2147483647,0,0,1,1,2,2,3,3,4,4,5,5,6,6,7,7,8,8,9,9,10,10,11,11,12,12,13,13,14,14,16,16,18,18,19,19,20,20,21,21,22,22,24,24,25,25,26,26,27,27,28,28,30,30,31,31,32,32,33,33,34,34,36,36,37,37,38,38,39,39,40,40,41,41,42,42,45,45,47,47,48,48,51,51,52,52,53,53,54,54],"right_children":[2,4,6,8,10,12,14,16,18,20,22,24,26,28,30,-1,32,-1,34,36,38,40,42,-1,44,46,48,50,52,-1,54,56,58,60,62,-1,64,66,68,70,72,74,76,-1,-1,78,-1,80,82,-1,-1,84,86,88,90,-1,-1,-1,-1,-1,-1,-1,-1,-1,-1,-1,-1,-1,-1,-1,-1,-1,-1,-1,-1,-1,-1,-1,-1,-1,-1,-1,-1,-1,-1,-1,-1,-1,-1,-1,-1],"split_conditions":[2.0412415E-1,3.7796447E-1,2.5E-1,1.9245009E-1,3.7796447E-1,2.5E-1,2.3570226E-1,2.8867513E-1,2.6726124E-1,3.1622776E-1,2.581989E-1,2.2941573E-1,2.5E-1,2.773501E-1,2.8867513E-1,2.2269696E-2,2.085144E-1,-6.160283E-3,5.345325E-1,3.3333334E-1,2.8867513E-1,2.581989E-1,4.472136E-1,5.6657824E-3,5E-1,2.5E-1,2.5E-1,2.2941573E-1,3.3333334E-1,9.880097E-3,3.3333334E-1,2.3570226E-1,2.236068E-1,2.3249528E-1,9.4281906E-1,8.185814E-3,3.0151135E-1,2.8867513E-1,3.7796447E-1,2.2941573E-1,2.0412415E-1,3.0151135E-1,1.6222142E-1,9.889826E-4,-9.331574E-4,2.5E-1,9.2879E-3,4.364358E-1,2.5E-1,2.8954377E-2,1.4122759E-2,4.082483E-1,2.581989E-1,2.581989E-1,2.581989E-1,-1.3225776E-3,4.789633E-3,4.0964796E-3,1.5931457E-2,8.2578213E-4,-4.1157394E-3,-5.9111416E-3,1.538499E-2,8.511442E-3,4.003331E-2,-4.4818325E-3,1.6141837E-2,1.4665847E-2,4.303681E-3,-3.120996E-3,2.481008E-2,1.0084533E-2,-6.6649504E-3,1.176193E-2,4.7071995E-3,-1.8360313E-3,4.5077363E-3,4.609734E-4,-2.3759156E-4,-1.323849E-4,7.6482627E-3,1.024888E-2,3.261415E-2,2.0233827E-2,1.6879082E-3,1.337337E-2,4.2240005E-3,2.9790998E-4,2.6659505E-3,9.914975E-4,-7.5251716E-3],"split_indices":[1197,413,1197,545,45841,34226,4322,2417,7393,2000,86932,178,42449,55,37286,0,242,0,7702,14,45841,15,47503,0,5,1513,66274,55,149,0,432,10259,3,22,1474,0,206,447,2000,121,1113,47503,242,0,0,5,0,5,9,0,0,1197,66274,167,1197,0,0,0,0,0,0,0,0,0,0,0,0,0,0,0,0,0,0,0,0,0,0,0,0,0,0,0,0,0,0,0,0,0,0,0,0],"split_type":[0,0,0,0,0,0,0,0,0,0,0,0,0,0,0,0,0,0,0,0,0,0,0,0,0,0,0,0,0,0,0,0,0,0,0,0,0,0,0,0,0,0,0,0,0,0,0,0,0,0,0,0,0,0,0,0,0,0,0,0,0,0,0,0,0,0,0,0,0,0,0,0,0,0,0,0,0,0,0,0,0,0,0,0,0,0,0,0,0,0,0],"sum_hessian":[5.979E3,5.626E3,3.53E2,1.52E2,5.474E3,2.2E1,3.31E2,9.9E1,5.3E1,1.42E2,5.332E3,4E0,1.8E1,3.06E2,2.5E1,6E0,9.3E1,1E0,5.2E1,7E0,1.35E2,8.2E1,5.25E3,1E0,3E0,4E0,1.4E1,7E0,2.99E2,2E0,2.3E1,8.5E1,8E0,2E0,5E1,1E0,6E0,2.3E1,1.12E2,1.4E1,6.8E1,1.9E2,5.06E3,1E0,2E0,2E0,2E0,2E0,1.2E1,2E0,5E0,8E0,2.91E2,2E0,2.1E1,1.8E1,6.7E1,1E0,7E0,1E0,1E0,1E0,4.9E1,1E0,5E0,2E0,2.1E1,9E0,1.03E2,1E0,1.3E1,6.2E1,6E0,5.7E1,1.33E2,4.72E3,3.4E2,1E0,1E0,1E0,1E0,2E0,1E1,7E0,1E0,1.7E1,2.74E2,1E0,1E0,2E0,1.9E1],"tree_param":{"num_deleted":"0","num_feature":"128104","num_nodes":"91","size_leaf_vector":"1"}},{"base_weights":[3.2568624E-4,4.7846917E-2,-1.0097763E-2,4.2895176E-2,1.646548E-1,1.300787E-3,-3.5582203E-2,1.1748992E-1,3.5140608E-2,1.8826443E-1,5.4544672E-2,4.9571795E-3,-7.4827105E-2,4.9382553E-2,-4.06502E-2,1.5204999E-1,1.325733E-2,1.5969236E-1,3.1235298E-2,2.0561703E-1,2.37751E-3,-6.2919753E-3,7.709269E-2,7.737714E-3,-1.0664859E-1,-5.262734E-2,-9.811567E-2,4.0968712E-2,2.095206E-2,1.3871896E-1,-4.2925715E-2,-1.042133E-1,1.647022E-1,2.0515146E-2,-1.2348744E-2,-2.601256E-2,2.0119399E-1,2.5092268E-1,2.948413E-2,6.258458E-3,2.2602452E-1,-2.2571236E-4,4.6747626E-4,1.0037901E-1,4.8224928E-4,1.0149916E-1,5.054512E-3,-2.2370853E-2,-1.2976909E-1,8.702555E-3,-5.7264447E-2,2.8967848E-3,-1.020481E-1,2.0505194E-2,3.4303483E-2,1.5075746E-1,-3.2967776E-3,1.9806162E-2,-4.8710722E-2,-1.1421889E-3,-1.3133647E-2,1.8275606E-2,4.1971356E-4,1.3565922E-2,-4.13329E-3,3.5113485E-3,-6.5353955E-3,2.2844972E-2,-5.6660767E-3,2.7751715E-3,2.8349256E-2,2.5713656E-3,1.3048343E-2,-1.257658E-4,9.1830496E-4,5.6502144E-3,2.4341164E-2,2.0046285E-3,1.3553381E-2,3.0163577E-2,9.324142E-3,1.1123552E-2,2.8814995E-4,6.6816406E-3,-4.4662734E-3,-2.139624E-3,-1.3500568E-2,2.503525E-3,-6.437176E-3,2.0858913E-3,-1.0585771E-2,2.2832727E-2,2.8957268E-3,-2.403073E-3,1.6318364E-2,-4.6895943E-3,3.294852E-3,1.083401E-2,-5.0654025E-3],"categories":[],"categories_nodes":[],"categories_segments":[],"categories_sizes":[],"default_left":[0,1,1,0,1,1,0,1,0,1,0,1,0,1,0,0,0,0,0,0,0,0,0,0,0,0,0,0,0,1,0,0,1,0,0,0,1,0,1,0,0,0,0,0,0,0,0,0,0,0,0,0,0,0,0,0,0,0,0,0,0,0,0,0,0,0,0,0,0,0,0,0,0,0,0,0,0,0,0,0,0,0,0,0,0,0,0,0,0,0,0,0,0,0,0,0,0,0,0],"id":10,"left_children":[1,3,5,7,9,11,13,15,17,19,21,23,25,27,29,31,33,35,37,39,41,-1,43,45,47,49,51,53,-1,55,57,59,61,-1,63,65,67,69,71,73,75,-1,-1,77,-1,79,81,83,85,-1,87,-1,89,-1,91,93,-1,95,97,-1,-1,-1,-1,-1,-1,-1,-1,-1,-1,-1,-1,-1,-1,-1,-1,-1,-1,-1,-1,-1,-1,-1,-1,-1,-1,-1,-1,-1,-1,-1,-1,-1,-1,-1,-1,-1,-1,-1,-1],"loss_changes":[2.9353437E0,6.095145E-1,1.4118063E0,5.882038E-1,1.01516485E-1,9.3536013E-1,6.4877045E-1,3.4380376E-1,4.4689E-1,1.1240792E-1,2.8687965E-2,9.95723E-1,7.4454546E-2,1.0594314E-1,5.847213E-1,2.5060964E-1,1.2537475E-1,2.2103101E-1,3.396098E-1,1.2877452E-1,5.313921E-5,0E0,1.297918E-2,7.866837E-1,1.4908332E-1,5.743788E-2,3.9937377E-2,8.264549E-2,0E0,4.2173475E-2,5.0939393E-1,8.567076E-3,1.9917655E-1,0E0,1.0427457E-1,1.6723506E-2,1.7458856E-1,4.3013126E-2,3.3785546E-1,9.947542E-5,7.1724296E-2,0E0,0E0,1.4227539E-2,0E0,1.15658045E-1,7.01799E-1,3.8770933E-2,3.1729102E-2,0E0,4.7820956E-2,0E0,3.59205E-2,0E0,7.63717E-2,4.084456E-2,0E0,1.0586328E-1,3.970549E-1,0E0,0E0,0E0,0E0,0E0,0E0,0E0,0E0,0E0,0E0,0E0,0E0,0E0,0E0,0E0,0E0,0E0,0E0,0E0,0E0,0E0,0E0,0E0,0E0,0E0,0E0,0E0,0E0,0E0,0E0,0E0,0E0,0E0,0E0,0E0,0E0,0E0,0E0,0E0,0E0],"parents":[2147483647,0,0,1,1,2,2,3,3,4,4,5,5,6,6,7,7,8,8,9,9,10,10,11,11,12,12,13,13,14,14,15,15,16,16,17,17,18,18,19,19,20,20,22,22,23,23,24,24,25,25,26,26,27,27,29,29,30,30,31,31,32,32,34,34,35,35,36,36,37,37,38,38,39,39,40,40,43,43,45,45,46,46,47,47,48,48,50,50,52,52,54,54,55,55,57,57,58,58],"right_children":[2,4,6,8,10,12,14,16,18,20,22,24,26,28,30,32,34,36,38,40,42,-1,44,46,48,50,52,54,-1,56,58,60,62,-1,64,66,68,70,72,74,76,-1,-1,78,-1,80,82,84,86,-1,88,-1,90,-1,92,94,-1,96,98,-1,-1,-1,-1,-1,-1,-1,-1,-1,-1,-1,-1,-1,-1,-1,-1,-1,-1,-1,-1,-1,-1,-1,-1,-1,-1,-1,-1,-1,-1,-1,-1,-1,-1,-1,-1,-1,-1,-1,-1],"split_conditions":[2.5E-1,2E-1,3.1622776E-1,1.7149858E-1,2.4253562E-1,3.1622776E-1,5.7735026E-1,1.3483997E-1,2.2941573E-1,2.3570226E-1,2.581989E-1,2.6726124E-1,3.5355338E-1,3.3333334E-1,8.165066E-1,2.0412415E-1,1.5811388E-1,2.2941573E-1,2.5E-1,5E-1,2.4253562E-1,-6.2919753E-3,4.8507124E-1,2.3570226E-1,3.0151135E-1,3.7796447E-1,8.165066E-1,7.071168E-1,2.095206E-2,3.3333334E-1,3.9223227E-1,1.5249857E-1,4.685213E-1,2.0515146E-2,1.5617377E-1,2.236068E-1,2.1320072E-1,2.236068E-1,1.8257418E-1,2.182179E-1,2.4253562E-1,-2.2571236E-4,4.6747626E-4,4.364358E-1,4.8224928E-4,1.8898223E-1,3.5355338E-1,2.8867513E-1,3.1622776E-1,8.702555E-3,3.3333334E-1,2.8967848E-3,7.071168E-1,2.0505194E-2,3.3333334E-1,4.082483E-1,-3.2967776E-3,3.7796447E-1,3.4815532E-1,-1.1421889E-3,-1.3133647E-2,1.8275606E-2,4.1971356E-4,1.3565922E-2,-4.13329E-3,3.5113485E-3,-6.5353955E-3,2.2844972E-2,-5.6660767E-3,2.7751715E-3,2.8349256E-2,2.5713656E-3,1.3048343E-2,-1.257658E-4,9.1830496E-4,5.6502144E-3,2.4341164E-2,2.0046285E-3,1.3553381E-2,3.0163577E-2,9.324142E-3,1.1123552E-2,2.8814995E-4,6.6816406E-3,-4.4662734E-3,-2.139624E-3,-1.3500568E-2,2.503525E-3,-6.437176E-3,2.0858913E-3,-1.0585771E-2,2.2832727E-2,2.8957268E-3,-2.403073E-3,1.6318364E-2,-4.6895943E-3,3.294852E-3,1.083401E-2,-5.0654025E-3],"split_indices":[24,1197,24,24,28,2282,45841,75136,94,119782,397,1029,2282,1143,1781,5699,3293,4817,170,5,24,0,28,2282,57308,11736,69473,10655,0,3090,1197,7,4211,0,520,4891,844,7,413,24,34226,0,0,1197,0,3485,45841,21264,1903,0,6212,0,73427,0,6,1785,0,119782,128,0,0,0,0,0,0,0,0,0,0,0,0,0,0,0,0,0,0,0,0,0,0,0,0,0,0,0,0,0,0,0,0,0,0,0,0,0,0,0,0],"split_type":[0,0,0,0,0,0,0,0,0,0,0,0,0,0,0,0,0,0,0,0,0,0,0,0,0,0,0,0,0,0,0,0,0,0,0,0,0,0,0,0,0,0,0,0,0,0,0,0,0,0,0,0,0,0,0,0,0,0,0,0,0,0,0,0,0,0,0,0,0,0,0,0,0,0,0,0,0,0,0,0,0,0,0,0,0,0,0,0,0,0,0,0,0,0,0,0,0,0,0],"sum_hessian":[5.924E3,1.065E3,4.859E3,1.023E3,4.2E1,3.358E3,1.501E3,9.5E1,9.28E2,3.4E1,8E0,3.205E3,1.53E2,8.4E1,1.417E3,7.1E1,2.4E1,2.7E1,9.01E2,3.1E1,3E0,1E0,7E0,3.128E3,7.7E1,8E1,7.3E1,8.1E1,3E0,1.7E1,1.4E3,3E0,6.8E1,2E0,2.2E1,5E0,2.2E1,6E0,8.95E2,3E0,2.8E1,1E0,2E0,5E0,2E0,8.6E1,3.042E3,1.7E1,6E1,2E0,7.8E1,2E0,7.1E1,2E0,7.9E1,1.6E1,1E0,1.18E2,1.282E3,1E0,2E0,6.1E1,7E0,3E0,1.9E1,2E0,3E0,2E1,2E0,1E0,5E0,8.64E2,3.1E1,1E0,2E0,3E0,2.5E1,2E0,3E0,2E0,8.4E1,6E1,2.982E3,3E0,1.4E1,3E0,5.7E1,6E0,7.2E1,2E0,6.9E1,1E0,7.8E1,1E0,1.5E1,1.9E1,9.9E1,1.5E1,1.267E3],"tree_param":{"num_deleted":"0","num_feature":"128104","num_nodes":"99","size_leaf_vector":"1"}},{"base_weights":[1.5629537E-4,2.858695E-2,-1.3255227E-2,7.104942E-2,2.068514E-2,-6.654289E-3,-4.915961E-2,9.30178E-2,-1.2372606E-2,2.2676574E-1,1.8990394E-2,8.622106E-2,-9.229041E-3,-1.6029371E-1,-4.5794133E-2,1.07703194E-1,5.604473E-3,1.5071976E-2,-2.303922E-2,9.4384495E-3,2.4225464E-1,1.0177161E-1,1.4661213E-2,1.7389445E-1,5.9452143E-2,1.1568352E-1,-1.1176779E-2,-1.6537607E-3,-1.6777715E-1,2.2332077E-1,-4.7048748E-2,1.3622183E-1,5.3165697E-2,8.167317E-2,-1.995933E-2,6.735707E-2,-3.2481737E-2,6.313801E-3,2.5385252E-1,3.2694962E-2,8.858103E-2,1.7381476E-1,1.2739034E-2,2.911957E-2,1.4622086E-1,3.012594E-2,4.4572707E-2,2.61367E-1,9.04509E-2,-8.744795E-3,-1.0100193E-1,-1.6537607E-3,-1.7619602E-2,2.6851876E-2,6.6462397E-3,4.634972E-2,-5.030994E-2,-1.0626994E-2,1.4268497E-2,3.1641982E-3,1.3853783E-2,9.459501E-3,-1.0850787E-3,8.259253E-3,-3.146718E-3,-2.6862689E-3,9.157357E-3,8.752066E-3,-3.8661466E-3,2.663276E-2,7.078837E-3,9.588159E-3,-6.679932E-3,-2.6663602E-3,2.0054102E-2,1.0038048E-2,9.4550365E-4,6.2334435E-3,1.5805367E-2,-7.5144987E-3,5.9301234E-3,-2.70371E-3,3.1394053E-2,3.3699382E-2,7.114672E-3,7.1488954E-3,-1.0917451E-3,-1.1554853E-4,-1.3530609E-2,-1.000376E-2,5.867097E-3,1.6888559E-2,-5.172513E-3],"categories":[],"categories_nodes":[],"categories_segments":[],"categories_sizes":[],"default_left":[0,0,1,1,0,0,0,1,0,0,0,0,0,0,0,1,0,0,0,0,0,0,0,0,0,0,1,0,0,0,0,0,1,1,0,0,0,0,1,0,1,0,0,0,0,0,0,0,0,0,0,0,0,0,0,0,0,0,0,0,0,0,0,0,0,0,0,0,0,0,0,0,0,0,0,0,0,0,0,0,0,0,0,0,0,0,0,0,0,0,0,0,0],"id":11,"left_children":[1,3,5,7,9,11,13,15,17,19,21,23,25,27,29,31,33,-1,35,-1,37,39,41,43,45,47,49,-1,51,53,55,57,59,61,63,65,67,-1,69,-1,71,73,75,-1,77,-1,79,81,83,85,87,-1,-1,-1,-1,89,91,-1,-1,-1,-1,-1,-1,-1,-1,-1,-1,-1,-1,-1,-1,-1,-1,-1,-1,-1,-1,-1,-1,-1,-1,-1,-1,-1,-1,-1,-1,-1,-1,-1,-1,-1,-1],"loss_changes":[2.262622E0,6.36709E-1,9.5526737E-1,5.472796E-1,5.5624723E-1,8.1551516E-1,2.2679532E-1,3.0234933E-1,1.1306999E-1,3.7906766E-3,5.693988E-1,2.0557839E-1,8.080656E-1,1.6589612E-2,2.161268E-1,3.069353E-1,6.969132E-2,0E0,5.3401995E-2,0E0,6.823361E-3,2.0568645E-1,4.612571E-1,2.5590181E-2,2.456249E-1,1.6383386E-1,7.125852E-1,0E0,1.8731683E-2,3.4226328E-3,1.8721819E-1,2.2204113E-1,1.2608068E-1,1.1786643E-2,3.446304E-2,1.6149942E-2,4.4170674E-2,0E0,3.984511E-3,0E0,9.261638E-2,1.0179186E-1,4.3019676E-1,0E0,9.007454E-3,0E0,1.2612152E-1,1.1462498E-1,1.9019288E-1,5.552935E-1,2.9440653E-1,0E0,0E0,0E0,0E0,4.3746464E-2,1.9082522E-1,0E0,0E0,0E0,0E0,0E0,0E0,0E0,0E0,0E0,0E0,0E0,0E0,0E0,0E0,0E0,0E0,0E0,0E0,0E0,0E0,0E0,0E0,0E0,0E0,0E0,0E0,0E0,0E0,0E0,0E0,0E0,0E0,0E0,0E0,0E0,0E0],"parents":[2147483647,0,0,1,1,2,2,3,3,4,4,5,5,6,6,7,7,8,8,9,9,10,10,11,11,12,12,13,13,14,14,15,15,16,16,18,18,20,20,21,21,22,22,23,23,24,24,25,25,26,26,28,28,29,29,30,30,31,31,32,32,33,33,34,34,35,35,36,36,38,38,40,40,41,41,42,42,44,44,46,46,47,47,48,48,49,49,50,50,55,55,56,56],"right_children":[2,4,6,8,10,12,14,16,18,20,22,24,26,28,30,32,34,-1,36,-1,38,40,42,44,46,48,50,-1,52,54,56,58,60,62,64,66,68,-1,70,-1,72,74,76,-1,78,-1,80,82,84,86,88,-1,-1,-1,-1,90,92,-1,-1,-1,-1,-1,-1,-1,-1,-1,-1,-1,-1,-1,-1,-1,-1,-1,-1,-1,-1,-1,-1,-1,-1,-1,-1,-1,-1,-1,-1,-1,-1,-1,-1,-1,-1],"split_conditions":[2.773501E-1,2.0412415E-1,3.5355338E-1,3.9223227E-1,2.773501E-1,3.5355338E-1,8.165066E-1,1.490712E-1,1.796053E-1,2.6726124E-1,4.8507124E-1,3.3333334E-1,2.236068E-1,3.7796447E-1,7.071168E-1,1.2403473E-1,2.0412415E-1,1.5071976E-2,2E-1,9.4384495E-3,2.581989E-1,2.5E-1,2.773501E-1,3.3333334E-1,3.3333334E-1,2.0412415E-1,2.773501E-1,-1.6537607E-3,7.071168E-1,3.7796447E-1,4.472136E-1,1.3333434E0,1.9245009E-1,3.0151135E-1,1.8569534E-1,1.796053E-1,2.4253562E-1,6.313801E-3,2.581989E-1,3.2694962E-2,2.4253562E-1,2.4253562E-1,2.773501E-1,2.911957E-2,3.3333334E-1,3.012594E-2,3.3333334E-1,1.9611613E-1,2.236068E-1,2.6726124E-1,3.3333334E-1,-1.6537607E-3,-1.7619602E-2,2.6851876E-2,6.6462397E-3,3.7796447E-1,4.472136E-1,-1.0626994E-2,1.4268497E-2,3.1641982E-3,1.3853783E-2,9.459501E-3,-1.0850787E-3,8.259253E-3,-3.146718E-3,-2.6862689E-3,9.157357E-3,8.752066E-3,-3.8661466E-3,2.663276E-2,7.078837E-3,9.588159E-3,-6.679932E-3,-2.6663602E-3,2.0054102E-2,1.0038048E-2,9.4550365E-4,6.2334435E-3,1.5805367E-2,-7.5144987E-3,5.9301234E-3,-2.70371E-3,3.1394053E-2,3.3699382E-2,7.114672E-3,7.1488954E-3,-1.0917451E-3,-1.1554853E-4,-1.3530609E-2,-1.000376E-2,5.867097E-3,1.6888559E-2,-5.172513E-3],"split_indices":[24,24,24,2309,67799,1996,15796,1028,500,340,1197,71586,14529,176,7684,22,22,0,1735,0,168,71586,114,1019,862,621,1028,0,8128,228,121905,2393,242,17,7197,43,13093,0,43,0,74,100,9007,0,128,0,48,606,11264,423,21264,0,0,0,0,40,45768,0,0,0,0,0,0,0,0,0,0,0,0,0,0,0,0,0,0,0,0,0,0,0,0,0,0,0,0,0,0,0,0,0,0,0,0],"split_type":[0,0,0,0,0,0,0,0,0,0,0,0,0,0,0,0,0,0,0,0,0,0,0,0,0,0,0,0,0,0,0,0,0,0,0,0,0,0,0,0,0,0,0,0,0,0,0,0,0,0,0,0,0,0,0,0,0,0,0,0,0,0,0,0,0,0,0,0,0,0,0,0,0,0,0,0,0,0,0,0,0,0,0,0,0,0,0,0,0,0,0,0,0],"sum_hessian":[5.932E3,1.901E3,4.031E3,2.97E2,1.604E3,3.406E3,6.25E2,2.35E2,6.2E1,1.2E1,1.592E3,9.1E1,3.315E3,1.7E1,6.08E2,2.01E2,3.4E1,3E0,5.9E1,2E0,1E1,7.8E1,1.514E3,2E1,7.1E1,5E1,3.265E3,1E0,1.6E1,2E0,6.06E2,1.31E2,7E1,8E0,2.6E1,5E0,5.4E1,1E0,9E0,3E0,7.5E1,1.7E1,1.497E3,2E0,1.8E1,3E0,6.8E1,6E0,4.4E1,3.18E3,8.5E1,1E0,1.5E1,1E0,1E0,2E1,5.86E2,3E0,1.28E2,5.7E1,1.3E1,7E0,1E0,2E0,2.4E1,1E0,4E0,2E0,5.2E1,8E0,1E0,7.2E1,3E0,2E0,1.5E1,5.3E1,1.444E3,3E0,1.5E1,7E0,6.1E1,1E0,5E0,2E0,4.2E1,8.3E1,3.097E3,2.2E1,6.3E1,1E0,1.9E1,3E0,5.83E2],"tree_param":{"num_deleted":"0","num_feature":"128104","num_nodes":"93","size_leaf_vector":"1"}},{"base_weights":[7.749946E-4,1.3946729E-2,-2.497694E-2,7.835266E-2,8.472815E-3,7.690683E-2,-2.834128E-2,9.783033E-2,1.9567716E-3,1.1719954E-2,-6.19681E-2,-9.751016E-2,9.306675E-2,4.5632597E-2,-3.2635152E-2,1.0923452E-1,-3.3066312E-3,1.9353381E-1,-1.0637736E-2,1.4169343E-2,-8.313223E-2,-3.7106298E-2,-8.667684E-2,2.3580627E-3,-1.2644444E-1,2.6652595E-2,7.926142E-2,2.6436514E-1,3.686533E-2,4.8596285E-2,-3.680716E-2,1.2332005E-1,2.9382685E-3,-1.1180283E-2,1.039317E-2,2.3777576E-3,2.4219338E-2,1.1331017E-2,-1.9002458E-2,1.6357455E-2,-8.874825E-2,6.069229E-2,-8.718271E-2,3.9555788E-2,-4.367904E-2,2.509442E-3,-8.986449E-2,1.4349014E-3,-1.6523005E-2,1.6103613E-1,5.843625E-2,6.9991127E-3,3.0582612E-2,2.8818078E-2,1.920468E-2,2.0433893E-2,4.096484E-2,1.4321265E-1,-3.853687E-2,1.4001054E-2,5.6807026E-3,1.6751464E-2,-9.834463E-4,2.5480336E-3,-7.1412744E-3,9.901186E-3,-2.7239819E-3,1.9145323E-3,-5.7175206E-3,-1.5397103E-3,-1.0052062E-2,8.301922E-3,8.0192165E-4,1.901799E-4,-9.388782E-3,-1.7175525E-4,4.672094E-3,8.195167E-3,-4.8181918E-3,-4.199033E-3,-9.968087E-3,9.648174E-4,1.7521013E-2,2.3922564E-2,4.508504E-3,1.6149536E-2,2.3108616E-3,1.6836992E-2,3.289353E-3,-3.0773506E-3,1.5601012E-2,1.3898491E-3,-4.3938044E-3],"categories":[],"categories_nodes":[],"categories_segments":[],"categories_sizes":[],"default_left":[1,0,0,1,1,0,0,1,0,1,0,0,0,0,0,1,0,0,0,1,0,0,0,0,0,0,0,0,1,0,0,1,0,0,1,0,0,0,0,1,0,0,0,0,0,0,0,0,0,0,0,0,0,0,0,0,0,0,0,0,0,0,0,0,0,0,0,0,0,0,0,0,0,0,0,0,0,0,0,0,0,0,0,0,0,0,0,0,0,0,0,0,0],"id":12,"left_children":[1,3,5,7,9,11,13,15,17,19,21,23,25,27,29,31,33,35,37,39,41,43,45,-1,47,-1,49,51,53,55,57,59,61,-1,63,-1,-1,-1,65,67,69,71,73,75,77,-1,79,-1,-1,81,83,-1,-1,85,-1,-1,87,89,91,-1,-1,-1,-1,-1,-1,-1,-1,-1,-1,-1,-1,-1,-1,-1,-1,-1,-1,-1,-1,-1,-1,-1,-1,-1,-1,-1,-1,-1,-1,-1,-1,-1,-1],"loss_changes":[2.029768E0,1.3950915E0,6.9629204E-1,4.6109283E-1,8.3559597E-1,1.9228166E-1,6.243701E-1,2.8524733E-1,1.5647915E-1,8.1200933E-1,9.5686674E-2,2.4003688E-2,1.2255436E-1,1.9736423E-1,6.3010645E-1,3.3202505E-1,3.9807767E-2,2.7282268E-2,6.539735E-2,7.6779133E-1,5.6556463E-2,4.3045916E-2,3.0758083E-2,0E0,2.9674686E-2,0E0,8.765915E-2,1.0830611E-2,1.2558796E-1,9.978652E-2,5.54796E-1,2.096324E-1,5.840384E-2,0E0,3.1440888E-2,0E0,0E0,0E0,5.9080392E-2,6.843571E-1,5.976194E-2,2.8623343E-3,5.1548243E-2,2.150352E-3,4.6941787E-2,0E0,3.2470584E-2,0E0,0E0,2.1912992E-2,1.026611E-1,0E0,0E0,7.277714E-2,0E0,0E0,8.4954426E-2,4.2652905E-2,4.956665E-1,0E0,0E0,0E0,0E0,0E0,0E0,0E0,0E0,0E0,0E0,0E0,0E0,0E0,0E0,0E0,0E0,0E0,0E0,0E0,0E0,0E0,0E0,0E0,0E0,0E0,0E0,0E0,0E0,0E0,0E0,0E0,0E0,0E0,0E0],"parents":[2147483647,0,0,1,1,2,2,3,3,4,4,5,5,6,6,7,7,8,8,9,9,10,10,11,11,12,12,13,13,14,14,15,15,16,16,17,17,18,18,19,19,20,20,21,21,22,22,24,24,26,26,27,27,28,28,29,29,30,30,31,31,32,32,34,34,38,38,39,39,40,40,41,41,42,42,43,43,44,44,46,46,49,49,50,50,53,53,56,56,57,57,58,58],"right_children":[2,4,6,8,10,12,14,16,18,20,22,24,26,28,30,32,34,36,38,40,42,44,46,-1,48,-1,50,52,54,56,58,60,62,-1,64,-1,-1,-1,66,68,70,72,74,76,78,-1,80,-1,-1,82,84,-1,-1,86,-1,-1,88,90,92,-1,-1,-1,-1,-1,-1,-1,-1,-1,-1,-1,-1,-1,-1,-1,-1,-1,-1,-1,-1,-1,-1,-1,-1,-1,-1,-1,-1,-1,-1,-1,-1,-1,-1],"split_conditions":[3.0151135E-1,2.0412415E-1,3.5355338E-1,3.9223227E-1,3.1622776E-1,3.3333334E-1,5.7735026E-1,1.8257418E-1,1.6012815E-1,2.3570226E-1,3.5355338E-1,3.3333334E-1,3.3333334E-1,3.1622776E-1,8.944372E-1,3.592106E-1,2.085144E-1,1.5249857E-1,2.0412415E-1,2.236068E-1,2.5E-1,3.3333334E-1,4.082483E-1,2.3580627E-3,3.1622776E-1,2.6652595E-2,3.2879797E-1,3.1622776E-1,3.3333334E-1,3.5355338E-1,8.165066E-1,1.3130644E-1,2.4253562E-1,-1.1180283E-2,1.9611613E-1,2.3777576E-3,2.4219338E-2,1.1331017E-2,2.2941573E-1,2.8867513E-1,3.0151135E-1,2.4253562E-1,2.8867513E-1,3.3333334E-1,3.7796447E-1,2.509442E-3,3.7796447E-1,1.4349014E-3,-1.6523005E-2,3.3333334E-1,3.5355338E-1,6.9991127E-3,3.0582612E-2,3.7796447E-1,1.920468E-2,2.0433893E-2,4.472136E-1,6.666767E-1,3.9223227E-1,1.4001054E-2,5.6807026E-3,1.6751464E-2,-9.834463E-4,2.5480336E-3,-7.1412744E-3,9.901186E-3,-2.7239819E-3,1.9145323E-3,-5.7175206E-3,-1.5397103E-3,-1.0052062E-2,8.301922E-3,8.0192165E-4,1.901799E-4,-9.388782E-3,-1.7175525E-4,4.672094E-3,8.195167E-3,-4.8181918E-3,-4.199033E-3,-9.968087E-3,9.648174E-4,1.7521013E-2,2.3922564E-2,4.508504E-3,1.6149536E-2,2.3108616E-3,1.6836992E-2,3.289353E-3,-3.0773506E-3,1.5601012E-2,1.3898491E-3,-4.3938044E-3],"split_indices":[24,24,1996,2309,2282,48,45841,1028,1779,5411,2282,71,1019,39,47503,4211,7220,218,218,949,1458,6212,46951,0,1763,0,1197,1540,1143,8692,1781,75136,6482,0,75136,0,0,0,19640,13844,67398,526,83558,787,11736,0,1625,0,0,229,120022,0,0,45768,0,0,151,2270,1197,0,0,0,0,0,0,0,0,0,0,0,0,0,0,0,0,0,0,0,0,0,0,0,0,0,0,0,0,0,0,0,0,0,0],"split_type":[0,0,0,0,0,0,0,0,0,0,0,0,0,0,0,0,0,0,0,0,0,0,0,0,0,0,0,0,0,0,0,0,0,0,0,0,0,0,0,0,0,0,0,0,0,0,0,0,0,0,0,0,0,0,0,0,0,0,0,0,0,0,0,0,0,0,0,0,0,0,0,0,0,0,0,0,0,0,0,0,0,0,0,0,0,0,0,0,0,0,0,0,0],"sum_hessian":[5.982E3,3.958E3,2.024E3,3.09E2,3.649E3,6.4E1,1.96E3,2.46E2,6.3E1,3.489E3,1.6E2,5E0,5.9E1,1.07E2,1.853E3,2.21E2,2.5E1,3E0,6E1,3.402E3,8.7E1,8.1E1,7.9E1,1E0,4E0,3E0,5.6E1,3E0,1.04E2,9E1,1.763E3,1.95E2,2.6E1,2E0,2.3E1,1E0,2E0,3E0,5.7E1,3.332E3,7E1,2E0,8.5E1,6E0,7.5E1,2E0,7.7E1,1E0,3E0,1E1,4.6E1,1E0,2E0,1E2,4E0,3E0,8.7E1,1.6E1,1.747E3,1.55E2,4E1,1E0,2.5E1,2E1,3E0,3E0,5.4E1,3.211E3,1.21E2,1E1,6E1,1E0,1E0,6E0,7.9E1,1E0,5E0,2E0,7.3E1,1.4E1,6.3E1,1E0,9E0,2E0,4.4E1,3E0,9.7E1,4E0,8.3E1,1E0,1.5E1,1.63E2,1.584E3],"tree_param":{"num_deleted":"0","num_feature":"128104","num_nodes":"93","size_leaf_vector":"1"}},{"base_weights":[-3.9747494E-4,1.3061235E-2,-2.0237641E-2,6.05789E-2,8.050677E-3,1.0842176E-1,-2.2722095E-2,-1.0563159E-5,7.77269E-2,1.5915158E-1,6.6307033E-3,2.7725881E-2,9.019455E-2,1.6756639E-1,-2.4247035E-2,-8.242784E-3,2.0305442E-2,3.5504237E-2,7.4268065E-2,2.6423989E-2,1.01530895E-1,9.4473E-3,-6.2115587E-2,1.6218425E-1,7.169144E-2,2.2326846E-1,9.510767E-2,5.01331E-2,-2.829631E-2,2.2496033E-2,-3.6405724E-2,3.0780122E-2,7.0389606E-2,-1.1603108E-2,1.1821055E-1,1.2819804E-2,-5.5000618E-2,1.6051382E-2,-9.3560725E-2,3.578779E-3,1.7512834E-1,-4.471907E-3,7.629514E-2,2.5926158E-1,1.0446339E-2,-2.8043434E-3,1.11907065E-1,1.8484142E-1,3.3757273E-2,5.3358197E-2,-3.2306366E-2,-4.648012E-3,4.0748212E-3,6.7645083E-3,-4.385834E-3,1.8727535E-2,6.297629E-3,-2.8040246E-3,1.2738376E-2,1.5403515E-3,-7.571002E-3,-3.9312276E-3,-1.2072622E-2,3.008364E-4,2.4280002E-2,-9.709679E-3,1.1057432E-2,6.3535296E-3,2.070585E-2,-4.1803583E-3,8.099815E-3,6.9642263E-3,2.7925778E-2,1.9752533E-4,1.25401635E-2,-1.9554899E-3,2.0350402E-2,1.8801957E-2,2.7674967E-3,1.39440615E-2,3.8582438E-3,7.5122686E-3,-3.5348337E-3],"categories":[],"categories_nodes":[],"categories_segments":[],"categories_sizes":[],"default_left":[1,0,0,0,0,0,0,1,0,0,1,0,0,0,0,0,0,0,0,0,0,1,0,0,0,1,0,0,0,0,0,0,0,0,0,1,0,1,1,0,0,0,0,0,0,0,0,0,0,0,0,0,0,0,0,0,0,0,0,0,0,0,0,0,0,0,0,0,0,0,0,0,0,0,0,0,0,0,0,0,0,0,0],"id":13,"left_children":[1,3,5,7,9,11,13,15,17,19,21,-1,23,25,27,29,-1,-1,31,-1,33,35,37,39,41,43,45,47,49,51,53,-1,55,-1,57,59,61,63,65,-1,67,-1,69,71,-1,-1,73,75,77,79,81,-1,-1,-1,-1,-1,-1,-1,-1,-1,-1,-1,-1,-1,-1,-1,-1,-1,-1,-1,-1,-1,-1,-1,-1,-1,-1,-1,-1,-1,-1,-1,-1],"loss_changes":[1.5981301E0,8.485412E-1,7.7569324E-1,3.532567E-1,6.91328E-1,1.1655444E-1,6.929468E-1,1.2872109E-1,2.2781658E-1,1.5482926E-1,6.198175E-1,0E0,4.5650244E-2,5.5451393E-2,7.11012E-1,6.488045E-2,0E0,0E0,2.1654618E-1,0E0,8.9922145E-2,6.686243E-1,3.1120616E-1,6.821245E-3,2.2704944E-2,1.5678316E-2,2.3826905E-2,2.6288748E-1,7.3354995E-1,4.721673E-2,3.320937E-2,0E0,2.1349895E-1,0E0,3.0403674E-2,6.693027E-1,1.5301627E-1,1.08696565E-1,7.5701416E-2,0E0,1.1786759E-2,0E0,2.2825688E-2,7.0934594E-3,0E0,0E0,1.3103649E-2,5.356884E-2,9.800626E-2,1.2817302E-1,6.9905806E-1,0E0,0E0,0E0,0E0,0E0,0E0,0E0,0E0,0E0,0E0,0E0,0E0,0E0,0E0,0E0,0E0,0E0,0E0,0E0,0E0,0E0,0E0,0E0,0E0,0E0,0E0,0E0,0E0,0E0,0E0,0E0,0E0],"parents":[2147483647,0,0,1,1,2,2,3,3,4,4,5,5,6,6,7,7,8,8,9,9,10,10,12,12,13,13,14,14,15,15,18,18,20,20,21,21,22,22,23,23,24,24,25,25,26,26,27,27,28,28,29,29,30,30,32,32,34,34,35,35,36,36,37,37,38,38,40,40,42,42,43,43,46,46,47,47,48,48,49,49,50,50],"right_children":[2,4,6,8,10,12,14,16,18,20,22,-1,24,26,28,30,-1,-1,32,-1,34,36,38,40,42,44,46,48,50,52,54,-1,56,-1,58,60,62,64,66,-1,68,-1,70,72,-1,-1,74,76,78,80,82,-1,-1,-1,-1,-1,-1,-1,-1,-1,-1,-1,-1,-1,-1,-1,-1,-1,-1,-1,-1,-1,-1,-1,-1,-1,-1,-1,-1,-1,-1,-1,-1],"split_conditions":[2.8867513E-1,2.085144E-1,8.165066E-1,6.25E-1,2.8867513E-1,3.3333334E-1,4.082483E-1,1.9611613E-1,2.0412415E-1,5.7735026E-1,3.0151135E-1,2.7725881E-2,3.0151135E-1,3.5355338E-1,5.7735026E-1,5.477226E-1,2.0305442E-2,3.5504237E-2,3.380717E-1,2.6423989E-2,2.773501E-1,2.773501E-1,4.082483E-1,3.0151135E-1,3.5355338E-1,3.1622776E-1,4.082483E-1,3.7796447E-1,8.944372E-1,3.9223227E-1,2E-1,3.0780122E-2,1.3363062E-1,-1.1603108E-2,2.236068E-1,2.182179E-1,3.3333334E-1,3.5355338E-1,3.3333334E-1,3.578779E-3,3.0151135E-1,-4.471907E-3,5.163978E-1,3.3333334E-1,1.0446339E-2,-2.8043434E-3,3.5355338E-1,3.7796447E-1,7.071168E-1,3.0151135E-1,4.364358E-1,-4.648012E-3,4.0748212E-3,6.7645083E-3,-4.385834E-3,1.8727535E-2,6.297629E-3,-2.8040246E-3,1.2738376E-2,1.5403515E-3,-7.571002E-3,-3.9312276E-3,-1.2072622E-2,3.008364E-4,2.4280002E-2,-9.709679E-3,1.1057432E-2,6.3535296E-3,2.070585E-2,-4.1803583E-3,8.099815E-3,6.9642263E-3,2.7925778E-2,1.9752533E-4,1.25401635E-2,-1.9554899E-3,2.0350402E-2,1.8801957E-2,2.7674967E-3,1.39440615E-2,3.8582438E-3,7.5122686E-3,-3.5348337E-3],"split_indices":[24,24,71586,2309,128,1019,1781,94,24302,8,375,0,24,41867,45841,2309,0,0,43050,0,191,14529,47503,128,363,3090,1785,2000,47503,7,683,0,75136,0,24,5411,14529,6,8702,0,7518,0,1608,60,0,0,24,178,10655,24,432,0,0,0,0,0,0,0,0,0,0,0,0,0,0,0,0,0,0,0,0,0,0,0,0,0,0,0,0,0,0,0,0],"split_type":[0,0,0,0,0,0,0,0,0,0,0,0,0,0,0,0,0,0,0,0,0,0,0,0,0,0,0,0,0,0,0,0,0,0,0,0,0,0,0,0,0,0,0,0,0,0,0,0,0,0,0,0,0,0,0,0,0,0,0,0,0,0,0,0,0,0,0,0,0,0,0,0,0,0,0,0,0,0,0,0,0,0,0],"sum_hessian":[5.983E3,3.565E3,2.418E3,3.39E2,3.226E3,4.5E1,2.373E3,7.5E1,2.64E2,2.9E1,3.197E3,3E0,4.2E1,1.8E1,2.355E3,7.3E1,2E0,2E0,2.62E2,9E0,2E1,3.072E3,1.25E2,7E0,3.5E1,9E0,9E0,1.21E2,2.234E3,3.5E1,3.8E1,3E0,2.59E2,1E0,1.9E1,2.92E3,1.52E2,3.6E1,8.9E1,1E0,6E0,1E0,3.4E1,6E0,3E0,1E0,8E0,1.2E1,1.09E2,1.04E2,2.13E3,7E0,2.8E1,2E0,3.6E1,1.4E1,2.45E2,1E0,1.8E1,2.838E3,8.2E1,1.24E2,2.8E1,3.5E1,1E0,8.8E1,1E0,2E0,4E0,1E0,3.3E1,1E0,5E0,1E0,7E0,1E0,1.1E1,3E0,1.06E2,1.4E1,9E1,5.8E1,2.072E3],"tree_param":{"num_deleted":"0","num_feature":"128104","num_nodes":"83","size_leaf_vector":"1"}},{"base_weights":[1.5842897E-3,3.4515563E-2,-5.6627844E-3,2.8162423E-1,3.2647982E-2,-6.6724145E-3,2.0083222E-1,3.1580762E-3,3.128332E-2,1.7028075E-1,3.0147823E-2,8.028116E-2,-8.499531E-3,-3.926839E-3,2.129787E-1,8.0332965E-2,2.1605587E-1,1.21304855E-1,2.6913641E-2,2.25746E-2,7.195533E-2,2.3257926E-1,-9.10146E-3,2.3287064E-1,9.479359E-2,9.2065465E-3,-8.9722875E-5,2.3921387E-1,6.6843927E-3,-3.3732504E-2,1.4173867E-1,1.2540972E-1,2.3609929E-2,2.400952E-2,6.5888226E-2,2.916352E-1,4.1558594E-2,-1.1464674E-2,5.186485E-2,2.4118306E-1,4.1623623E-3,2.3518652E-3,1.0673266E-2,9.937262E-3,2.617526E-2,-7.716298E-4,-3.8307481E-3,1.5679484E-2,-2.8532222E-4,-4.0677823E-3,1.4972103E-2,2.006863E-3,1.2280099E-2,-1.8750124E-3,7.3886584E-3,4.227364E-3,3.175212E-2,5.6364853E-3,-1.4300943E-4,-1.4454562E-3,4.261071E-3,1.911716E-2,4.4229617E-3,5.8226795E-3,2.4852008E-2],"categories":[],"categories_nodes":[],"categories_segments":[],"categories_sizes":[],"default_left":[0,0,1,0,0,0,0,0,0,0,0,0,0,0,1,1,1,0,0,0,0,1,1,0,0,0,0,0,0,0,1,0,1,0,0,0,0,1,0,0,0,0,0,0,0,0,0,0,0,0,0,0,0,0,0,0,0,0,0,0,0,0,0,0,0],"id":14,"left_children":[1,3,5,7,9,11,13,-1,-1,15,17,19,21,-1,23,25,27,29,31,-1,33,35,37,39,41,-1,-1,43,-1,45,47,49,51,-1,53,55,57,59,61,63,-1,-1,-1,-1,-1,-1,-1,-1,-1,-1,-1,-1,-1,-1,-1,-1,-1,-1,-1,-1,-1,-1,-1,-1,-1],"loss_changes":[1.4342756E0,4.9106658E-1,1.0283303E0,5.2549303E-2,3.654666E-1,7.79643E-1,7.8356445E-2,0E0,0E0,6.0873628E-2,3.0894786E-1,1.0607892E-1,6.990918E-1,0E0,3.1996846E-2,7.7068657E-3,2.5475383E-2,1.1882931E-1,3.3025163E-1,0E0,8.3132386E-2,1.232509E-1,6.910088E-1,2.0165801E-2,1.7445721E-3,0E0,0E0,5.5074096E-3,0E0,2.995259E-4,7.0111334E-2,1.3933796E-1,3.4599072E-1,0E0,6.569734E-2,4.4672012E-2,2.6266142E-3,7.4660426E-1,1.8193614E-1,9.691954E-3,0E0,0E0,0E0,0E0,0E0,0E0,0E0,0E0,0E0,0E0,0E0,0E0,0E0,0E0,0E0,0E0,0E0,0E0,0E0,0E0,0E0,0E0,0E0,0E0,0E0],"parents":[2147483647,0,0,1,1,2,2,3,3,4,4,5,5,6,6,9,9,10,10,11,11,12,12,14,14,15,15,16,16,17,17,18,18,20,20,21,21,22,22,23,23,24,24,27,27,29,29,30,30,31,31,32,32,34,34,35,35,36,36,37,37,38,38,39,39],"right_children":[2,4,6,8,10,12,14,-1,-1,16,18,20,22,-1,24,26,28,30,32,-1,34,36,38,40,42,-1,-1,44,-1,46,48,50,52,-1,54,56,58,60,62,64,-1,-1,-1,-1,-1,-1,-1,-1,-1,-1,-1,-1,-1,-1,-1,-1,-1,-1,-1,-1,-1,-1,-1,-1,-1],"split_conditions":[2.5E-1,2.5E-1,2.581989E-1,2.5E-1,1.3483997E-1,3.5355338E-1,6.3246554E-1,3.1580762E-3,3.128332E-2,2.4253562E-1,4.7140452E-1,3.0151135E-1,2.0412415E-1,-3.926839E-3,2.6726124E-1,2.6261288E-1,3.2539567E-1,2.182179E-1,2.2941573E-1,2.25746E-2,6.3246554E-1,1.7149858E-1,2.5E-1,3.7796447E-1,2.8867513E-1,9.2065465E-3,-8.9722875E-5,1.9611613E-1,6.6843927E-3,4.364358E-1,2.3570226E-1,7.3030674E-1,1.8898223E-1,2.400952E-2,3.3333334E-1,2E-1,1.9611613E-1,2.085144E-1,2.6726124E-1,2.6726124E-1,4.1623623E-3,2.3518652E-3,1.0673266E-2,9.937262E-3,2.617526E-2,-7.716298E-4,-3.8307481E-3,1.5679484E-2,-2.8532222E-4,-4.0677823E-3,1.4972103E-2,2.006863E-3,1.2280099E-2,-1.8750124E-3,7.3886584E-3,4.227364E-3,3.175212E-2,5.6364853E-3,-1.4300943E-4,-1.4454562E-3,4.261071E-3,1.911716E-2,4.4229617E-3,5.8226795E-3,2.4852008E-2],"split_indices":[24,45841,1019,9,75136,1996,2623,0,0,22,1197,12,13844,0,432,520,22,1197,94,0,16076,3700,47503,24,58,0,0,14179,0,5,1513,486,396,0,48,616,7,242,24,112,0,0,0,0,0,0,0,0,0,0,0,0,0,0,0,0,0,0,0,0,0,0,0,0,0],"split_type":[0,0,0,0,0,0,0,0,0,0,0,0,0,0,0,0,0,0,0,0,0,0,0,0,0,0,0,0,0,0,0,0,0,0,0,0,0,0,0,0,0,0,0,0,0,0,0,0,0,0,0,0,0,0,0,0,0,0,0,0,0,0,0,0,0],"sum_hessian":[6.008E3,1.083E3,4.925E3,7E0,1.076E3,4.902E3,2.3E1,1E0,6E0,1.8E1,1.058E3,1E2,4.802E3,1E0,2.2E1,7E0,1.1E1,3.5E1,1.023E3,4E0,9.6E1,1.1E1,4.791E3,1.8E1,4E0,6E0,1E0,9E0,2E0,4E0,3.1E1,3.2E1,9.91E2,2E0,9.4E1,8E0,3E0,4.613E3,1.78E2,1.7E1,1E0,1E0,3E0,2E0,7E0,1E0,3E0,2.8E1,3E0,4E0,2.8E1,9.58E2,3.3E1,8E0,8.6E1,1E0,7E0,2E0,1E0,4.372E3,2.41E2,8E0,1.7E2,1E0,1.6E1],"tree_param":{"num_deleted":"0","num_feature":"128104","num_nodes":"65","size_leaf_vector":"1"}},{"base_weights":[9.659818E-4,3.4371223E-3,-7.596518E-2,5.008386E-3,-9.787702E-2,2.4978554E-2,-7.909309E-2,8.1133395E-2,3.0813103E-3,-7.274243E-3,-1.093995E-1,1.2760729E-1,-8.2065664E-2,-4.0894477E-3,1.11787125E-1,1.3462122E-1,2.0023566E-3,1.0616722E-2,-2.923511E-2,-1.1518888E-1,-1.8366606E-3,1.5939837E-2,3.2012553E-3,1.1581657E-2,-8.490778E-2,6.680376E-2,-4.3626066E-2,2.2752503E-1,8.947357E-2,3.523951E-2,1.1629696E-1,1.966147E-4,7.643908E-2,-9.351876E-3,-1.0409211E-2,-7.2981045E-2,-1.3053574E-1,7.889561E-4,-6.2406063E-4,3.739626E-2,-8.861587E-2,-5.874521E-3,1.0638487E-2,6.910102E-3,-5.120224E-3,2.801895E-2,-9.4084125E-3,2.150402E-2,7.0618354E-3,-4.8071383E-3,1.2982637E-2,9.591437E-3,-1.27182E-4,3.2225873E-2,7.0080506E-3,-4.576236E-3,9.197295E-5,-2.1058273E-4,-7.996327E-3,-5.6631514E-4,-1.3532166E-2,1.6927144E-3,4.339903E-3,6.522152E-3,-9.167828E-3],"categories":[],"categories_nodes":[],"categories_segments":[],"categories_sizes":[],"default_left":[1,1,0,0,0,0,0,0,0,0,1,0,0,0,0,0,1,0,1,0,0,0,0,0,0,0,0,1,0,0,0,0,0,0,0,0,0,0,0,0,0,0,0,0,0,0,0,0,0,0,0,0,0,0,0,0,0,0,0,0,0,0,0,0,0],"id":15,"left_children":[1,3,5,7,9,-1,11,13,15,17,19,21,23,25,27,29,31,-1,33,35,37,-1,-1,-1,39,41,43,45,47,-1,49,51,53,55,-1,57,59,-1,-1,61,63,-1,-1,-1,-1,-1,-1,-1,-1,-1,-1,-1,-1,-1,-1,-1,-1,-1,-1,-1,-1,-1,-1,-1,-1],"loss_changes":[1.1300713E0,9.172724E-1,2.082566E-1,8.318247E-1,9.107351E-2,0E0,1.23527646E-1,3.6619288E-1,7.850041E-1,3.050781E-2,4.8360765E-2,4.0144324E-3,1.1219132E-1,1.0942374E-1,2.4564254E-1,1.3859189E-1,7.3778075E-1,0E0,1.3910536E-2,3.8407445E-2,2.6340442E-4,0E0,0E0,0E0,8.494651E-2,7.5820744E-2,2.4889123E-2,2.973593E-1,1.9316179E-1,0E0,1.01864636E-1,7.5349826E-1,1.8061423E-1,3.408036E-3,0E0,1.0718688E-2,3.0908048E-2,0E0,0E0,2.6077032E-6,8.842409E-2,0E0,0E0,0E0,0E0,0E0,0E0,0E0,0E0,0E0,0E0,0E0,0E0,0E0,0E0,0E0,0E0,0E0,0E0,0E0,0E0,0E0,0E0,0E0,0E0],"parents":[2147483647,0,0,1,1,2,2,3,3,4,4,6,6,7,7,8,8,9,9,10,10,11,11,12,12,13,13,14,14,15,15,16,16,18,18,19,19,20,20,24,24,25,25,26,26,27,27,28,28,30,30,31,31,32,32,33,33,35,35,36,36,39,39,40,40],"right_children":[2,4,6,8,10,-1,12,14,16,18,20,22,24,26,28,30,32,-1,34,36,38,-1,-1,-1,40,42,44,46,48,-1,50,52,54,56,-1,58,60,-1,-1,62,64,-1,-1,-1,-1,-1,-1,-1,-1,-1,-1,-1,-1,-1,-1,-1,-1,-1,-1,-1,-1,-1,-1,-1,-1],"split_conditions":[2.773501E-1,2.5E-1,2.8867513E-1,2.773501E-1,3.5355338E-1,2.4978554E-2,3.5355338E-1,6.1237246E-1,3.0151135E-1,2.948839E-1,2.6726124E-1,3.5355338E-1,6.666767E-1,4.364358E-1,2.085144E-1,2.773501E-1,1.8257418E-1,1.0616722E-2,2.6726124E-1,2.8867513E-1,3.0151135E-1,1.5939837E-2,3.2012553E-3,1.1581657E-2,7.5593895E-1,2.5E-1,2.236068E-1,1.9611613E-1,2.773501E-1,3.523951E-2,3.0151135E-1,2.8867513E-1,3.5355338E-1,2.8867513E-1,-1.0409211E-2,2.773501E-1,3.0151135E-1,7.889561E-4,-6.2406063E-4,2.8867513E-1,7.071168E-1,-5.874521E-3,1.0638487E-2,6.910102E-3,-5.120224E-3,2.801895E-2,-9.4084125E-3,2.150402E-2,7.0618354E-3,-4.8071383E-3,1.2982637E-2,9.591437E-3,-1.27182E-4,3.2225873E-2,7.0080506E-3,-4.576236E-3,9.197295E-5,-2.1058273E-4,-7.996327E-3,-5.6631514E-4,-1.3532166E-2,1.6927144E-3,4.339903E-3,6.522152E-3,-9.167828E-3],"split_indices":[86932,949,46,1779,522,0,16649,2309,45841,17,12700,8,9848,2309,1779,2000,432,0,3660,1029,1029,0,0,0,1510,623,73,935,67799,0,1040,396,47503,22,0,3837,87070,0,0,1510,91259,0,0,0,0,0,0,0,0,0,0,0,0,0,0,0,0,0,0,0,0,0,0,0,0],"split_type":[0,0,0,0,0,0,0,0,0,0,0,0,0,0,0,0,0,0,0,0,0,0,0,0,0,0,0,0,0,0,0,0,0,0,0,0,0,0,0,0,0,0,0,0,0,0,0,0,0,0,0,0,0,0,0,0,0,0,0,0,0,0,0,0,0],"sum_hessian":[5.942E3,5.758E3,1.84E2,5.671E3,8.7E1,1E0,1.83E2,1.39E2,5.532E3,1E1,7.7E1,2E0,1.81E2,3.7E1,1.02E2,4.4E1,5.488E3,1E0,9E0,7.3E1,4E0,1E0,1E0,2E0,1.79E2,1.3E1,2.4E1,1.5E1,8.7E1,2E0,4.2E1,5.359E3,1.29E2,8E0,1E0,2.1E1,5.2E1,1E0,3E0,5E0,1.74E2,3E0,1E1,1E0,2.3E1,1.3E1,2E0,1E1,7.7E1,3E0,3.9E1,8E1,5.279E3,2E0,1.27E2,1E0,7E0,2E0,1.9E1,2E0,5E1,2E0,3E0,3E0,1.71E2],"tree_param":{"num_deleted":"0","num_feature":"128104","num_nodes":"65","size_leaf_vector":"1"}},{"base_weights":[8.1015873E-4,8.669027E-3,-2.1949736E-2,1.0516974E-2,-9.063399E-2,-1.592681E-1,-2.0208506E-2,1.3335722E-2,-5.3709347E-2,3.7324734E-2,-9.6034E-2,-1.638011E-3,-1.6629632E-1,-1.2300518E-2,-4.9955625E-2,1.5429832E-2,-7.3748685E-2,1.3272248E-2,-5.650264E-2,-1.1443257E-3,5.739515E-3,-2.8774826E-2,-1.06647074E-1,-2.1200709E-3,-1.7358425E-1,3.0364944E-2,-1.3084718E-2,-5.22171E-2,2.0415122E-2,1.7207593E-2,-8.349961E-2,8.0966335E-3,-7.917443E-2,6.2161945E-2,-5.9535526E-2,-1.074951E-2,-2.2812635E-3,6.8515106E-3,-1.1033916E-1,-3.4489848E-3,-1.8012203E-2,-1.0312426E-1,-1.0354374E-2,-3.7145343E-2,-8.158363E-2,1.2309846E-2,1.5453625E-3,5.6678086E-4,-8.882811E-3,-3.12502E-3,1.9862808E-3,1.8289026E-3,-8.266521E-3,7.6739923E-3,2.6863322E-3,-4.3646013E-3,-8.497135E-3,-7.394326E-3,1.3897098E-3,-1.1395061E-2,6.220266E-3,-6.545915E-5,-1.334614E-2,-1.2327134E-2,-8.5655303E-4,9.678984E-3,-4.08842E-3,1.1740995E-2,-8.4597E-3],"categories":[],"categories_nodes":[],"categories_segments":[],"categories_sizes":[],"default_left":[1,1,0,1,0,0,0,1,0,0,0,0,0,0,1,1,0,0,0,0,0,0,0,0,0,0,0,0,0,0,0,0,0,1,0,0,0,0,1,0,0,0,0,0,0,0,0,0,0,0,0,0,0,0,0,0,0,0,0,0,0,0,0,0,0,0,0,0,0],"id":16,"left_children":[1,3,5,7,9,11,13,15,17,19,21,-1,23,25,27,29,31,-1,33,-1,-1,35,37,-1,39,-1,41,43,-1,45,47,49,51,53,55,-1,57,-1,59,-1,-1,61,63,65,67,-1,-1,-1,-1,-1,-1,-1,-1,-1,-1,-1,-1,-1,-1,-1,-1,-1,-1,-1,-1,-1,-1,-1,-1],"loss_changes":[1.0655223E0,8.1352115E-1,3.6236978E-1,7.878685E-1,5.9553683E-2,1.6356766E-2,3.5483295E-1,7.608679E-1,1.02798045E-1,4.5719626E-3,5.260974E-2,0E0,1.5353918E-2,3.0005544E-1,1.9282633E-1,7.170638E-1,4.4160068E-2,0E0,6.8841994E-2,0E0,0E0,2.4781737E-2,5.088967E-2,0E0,9.246945E-3,0E0,2.9221803E-1,1.3639015E-1,0E0,7.406434E-1,3.4712672E-2,3.8614483E-3,3.2812417E-2,5.1142275E-4,6.782812E-2,0E0,1.2621333E-2,0E0,4.8214376E-2,0E0,0E0,1.0871491E-1,2.3305148E-1,1.0911772E-1,7.3494375E-2,0E0,0E0,0E0,0E0,0E0,0E0,0E0,0E0,0E0,0E0,0E0,0E0,0E0,0E0,0E0,0E0,0E0,0E0,0E0,0E0,0E0,0E0,0E0,0E0],"parents":[2147483647,0,0,1,1,2,2,3,3,4,4,5,5,6,6,7,7,8,8,9,9,10,10,12,12,13,13,14,14,15,15,16,16,18,18,21,21,22,22,24,24,26,26,27,27,29,29,30,30,31,31,32,32,33,33,34,34,36,36,38,38,41,41,42,42,43,43,44,44],"right_children":[2,4,6,8,10,12,14,16,18,20,22,-1,24,26,28,30,32,-1,34,-1,-1,36,38,-1,40,-1,42,44,-1,46,48,50,52,54,56,-1,58,-1,60,-1,-1,62,64,66,68,-1,-1,-1,-1,-1,-1,-1,-1,-1,-1,-1,-1,-1,-1,-1,-1,-1,-1,-1,-1,-1,-1,-1,-1],"split_conditions":[3.1622776E-1,1.9611613E-1,7.5593895E-1,3.0151135E-1,5.164078E-1,4.8507124E-1,3.7796447E-1,2.3570226E-1,3.7796447E-1,2.2941573E-1,2.5E-1,-1.638011E-3,3.7796447E-1,7.071168E-1,4.082483E-1,2.236068E-1,2.8867513E-1,1.3272248E-2,4.170288E-1,-1.1443257E-3,5.739515E-3,2.182179E-1,5.0001E-1,-2.1200709E-3,3.2879797E-1,3.0364944E-2,3.7796447E-1,4.082483E-1,2.0415122E-2,1.0243051E0,2.948839E-1,2.4253562E-1,2.773501E-1,3.1622776E-1,3.5355338E-1,-1.074951E-2,2.1320072E-1,6.8515106E-3,2.581989E-1,-3.4489848E-3,-1.8012203E-2,3.3333334E-1,3.7796447E-1,7.5593895E-1,4.170288E-1,1.2309846E-2,1.5453625E-3,5.6678086E-4,-8.882811E-3,-3.12502E-3,1.9862808E-3,1.8289026E-3,-8.266521E-3,7.6739923E-3,2.6863322E-3,-4.3646013E-3,-8.497135E-3,-7.394326E-3,1.3897098E-3,-1.1395061E-2,6.220266E-3,-6.545915E-5,-1.334614E-2,-1.2327134E-2,-8.5655303E-4,9.678984E-3,-4.08842E-3,1.1740995E-2,-8.4597E-3],"split_indices":[24,75136,72,2282,23222,3944,24,5411,63371,168,22,0,8,82249,11858,949,83558,0,6869,0,0,1458,1341,0,1197,0,1028,24,0,520,1211,24,5643,1308,2282,0,1858,0,17736,0,0,21264,1071,99977,43,0,0,0,0,0,0,0,0,0,0,0,0,0,0,0,0,0,0,0,0,0,0,0,0],"split_type":[0,0,0,0,0,0,0,0,0,0,0,0,0,0,0,0,0,0,0,0,0,0,0,0,0,0,0,0,0,0,0,0,0,0,0,0,0,0,0,0,0,0,0,0,0,0,0,0,0,0,0,0,0,0,0,0,0,0,0,0,0,0,0,0,0,0,0,0,0],"sum_hessian":[5.955E3,4.427E3,1.528E3,4.347E3,8E1,1.8E1,1.51E3,4.165E3,1.82E2,3E0,7.7E1,1E0,1.7E1,1.194E3,3.16E2,4.068E3,9.7E1,2E0,1.8E2,1E0,2E0,1.1E1,6.6E1,1E0,1.6E1,2E0,1.192E3,3.14E2,2E0,3.997E3,7.1E1,6E0,9.1E1,4E0,1.76E2,2E0,9E0,1E0,6.5E1,1E0,1.5E1,3.4E1,1.158E3,2.09E2,1.05E2,6.4E1,3.933E3,4E0,6.7E1,1E0,5E0,3E0,8.8E1,2E0,2E0,1.1E2,6.6E1,1E0,8E0,6.4E1,1E0,8E0,2.6E1,1.7E1,1.141E3,5E0,2.04E2,1E0,1.04E2],"tree_param":{"num_deleted":"0","num_feature":"128104","num_nodes":"69","size_leaf_vector":"1"}},{"base_weights":[8.471079E-4,1.2994978E-2,-1.3177463E-2,1.5333221E-2,-6.365855E-2,1.029377E-1,-1.5369928E-2,2.0644204E-1,1.4454718E-2,1.3686761E-2,-6.728644E-2,2.3796273E-2,8.954108E-2,2.8624615E-1,-1.614938E-2,2.3099995E-1,-5.6405426E-3,3.328971E-2,1.3929492E-2,4.9051408E-2,-7.170939E-2,1.6272368E-1,7.521205E-2,1.3567306E-3,3.294314E-1,1.05898105E-1,-1.8032277E-2,-4.232505E-3,2.5730413E-1,2.1945633E-1,1.3183435E-2,7.4367607E-3,1.5823474E-3,5.749014E-2,-7.529903E-2,4.3044E-3,1.7549628E-1,6.638358E-3,8.429935E-2,9.159033E-3,4.2545438E-2,2.3550923E-1,8.552098E-2,6.772868E-2,-2.0488909E-2,-3.5356313E-3,2.8712383E-2,2.4168527E-2,-1.4164597E-4,7.1958485E-3,1.0604247E-3,1.1867605E-3,7.4367607E-3,5.749014E-3,-7.905564E-3,4.692295E-3,1.9182635E-2,-3.7726862E-4,1.2787052E-3,-4.291585E-3,8.902521E-3,2.7038678E-4,2.9303461E-2,-8.054585E-3,9.237133E-3,-4.3398826E-3,7.1418323E-3,5.046373E-3,-2.373451E-3],"categories":[],"categories_nodes":[],"categories_segments":[],"categories_sizes":[],"default_left":[1,1,0,0,0,0,0,1,0,0,0,0,0,0,0,0,0,0,0,0,0,0,0,0,0,0,0,0,0,1,0,0,0,0,0,0,0,0,0,0,0,0,0,0,0,0,0,0,0,0,0,0,0,0,0,0,0,0,0,0,0,0,0,0,0,0,0,0,0],"id":17,"left_children":[1,3,5,7,9,11,13,15,17,-1,19,-1,21,23,25,27,-1,-1,29,31,33,35,37,-1,39,41,43,-1,45,47,49,-1,-1,51,53,-1,55,57,59,-1,-1,61,63,65,67,-1,-1,-1,-1,-1,-1,-1,-1,-1,-1,-1,-1,-1,-1,-1,-1,-1,-1,-1,-1,-1,-1,-1,-1],"loss_changes":[1.0075611E0,5.689706E-1,7.0040023E-1,5.1344496E-1,7.759309E-2,7.094544E-2,6.382033E-1,1.03399515E-1,5.0766265E-1,0E0,5.1371127E-2,0E0,3.8095713E-2,7.796043E-2,6.1984986E-1,1.043551E-1,0E0,0E0,4.6615714E-1,2.188066E-3,4.6069235E-2,3.1462908E-3,2.5612667E-2,0E0,9.806174E-2,8.814424E-2,5.5948687E-1,0E0,1.1487615E-1,5.434978E-2,4.614408E-1,0E0,0E0,1.427413E-3,4.8442602E-2,0E0,3.5966188E-3,4.323274E-4,2.6065022E-2,0E0,0E0,6.6168785E-2,4.9531937E-2,3.3440948E-2,5.94409E-1,0E0,0E0,0E0,0E0,0E0,0E0,0E0,0E0,0E0,0E0,0E0,0E0,0E0,0E0,0E0,0E0,0E0,0E0,0E0,0E0,0E0,0E0,0E0,0E0],"parents":[2147483647,0,0,1,1,2,2,3,3,4,4,5,5,6,6,7,7,8,8,10,10,12,12,13,13,14,14,15,15,18,18,19,19,20,20,21,21,22,22,24,24,25,25,26,26,28,28,29,29,30,30,33,33,34,34,36,36,37,37,38,38,41,41,42,42,43,43,44,44],"right_children":[2,4,6,8,10,12,14,16,18,-1,20,-1,22,24,26,28,-1,-1,30,32,34,36,38,-1,40,42,44,-1,46,48,50,-1,-1,52,54,-1,56,58,60,-1,-1,62,64,66,68,-1,-1,-1,-1,-1,-1,-1,-1,-1,-1,-1,-1,-1,-1,-1,-1,-1,-1,-1,-1,-1,-1,-1,-1],"split_conditions":[2.773501E-1,3.1622776E-1,8.165066E-1,2.581989E-1,3.5355338E-1,3.3333334E-1,7.071168E-1,2.5E-1,2.2941573E-1,1.3686761E-2,7.071168E-1,2.3796273E-2,3.0151135E-1,3.5355338E-1,4.082483E-1,2.581989E-1,-5.6405426E-3,3.328971E-2,2.773501E-1,3.3333334E-1,6.3246554E-1,2.8867513E-1,3.7796447E-1,1.3567306E-3,3.7796447E-1,3.0151135E-1,1.1094104E0,-4.232505E-3,2.5E-1,2.4253562E-1,3.5355338E-1,7.4367607E-3,1.5823474E-3,3.3333334E-1,7.5593895E-1,4.3044E-3,2.8867513E-1,3.1622776E-1,5.163978E-1,9.159033E-3,4.2545438E-2,2.8867513E-1,4.7140452E-1,2.8867513E-1,8.944372E-1,-3.5356313E-3,2.8712383E-2,2.4168527E-2,-1.4164597E-4,7.1958485E-3,1.0604247E-3,1.1867605E-3,7.4367607E-3,5.749014E-3,-7.905564E-3,4.692295E-3,1.9182635E-2,-3.7726862E-4,1.2787052E-3,-4.291585E-3,8.902521E-3,2.7038678E-4,2.9303461E-2,-8.054585E-3,9.237133E-3,-4.3398826E-3,7.1418323E-3,5.046373E-3,-2.373451E-3],"split_indices":[24,13844,71586,45841,84,1019,7684,82,3563,0,4491,0,8,129,3018,155,0,0,25143,1308,43679,68,34226,0,101204,24,242,0,75,606,413,0,0,693,50397,0,47,24,1608,0,0,53,369,69409,47503,0,0,0,0,0,0,0,0,0,0,0,0,0,0,0,0,0,0,0,0,0,0,0,0],"split_type":[0,0,0,0,0,0,0,0,0,0,0,0,0,0,0,0,0,0,0,0,0,0,0,0,0,0,0,0,0,0,0,0,0,0,0,0,0,0,0,0,0,0,0,0,0,0,0,0,0,0,0,0,0,0,0,0,0,0,0,0,0,0,0,0,0,0,0,0,0],"sum_hessian":[5.912E3,3.168E3,2.744E3,3.075E3,9.3E1,5E1,2.694E3,1.3E1,3.062E3,1E0,9.2E1,3E0,4.7E1,6E0,2.688E3,1.2E1,1E0,4E0,3.058E3,3E0,8.9E1,6E0,4.1E1,1E0,5E0,4E1,2.648E3,1E0,1.1E1,1E1,3.048E3,1E0,2E0,2E0,8.7E1,1E0,5E0,5E0,3.6E1,2E0,3E0,4E0,3.6E1,7.3E1,2.575E3,1E0,1E1,9E0,1E0,1.27E2,2.921E3,1E0,1E0,2E0,8.5E1,1E0,4E0,2E0,3E0,1E0,3.5E1,1E0,3E0,1E0,3.5E1,2E0,7.1E1,1.12E2,2.463E3],"tree_param":{"num_deleted":"0","num_feature":"128104","num_nodes":"69","size_leaf_vector":"1"}},{"base_weights":[7.103333E-4,2.833446E-2,-4.1153817E-3,3.795877E-2,-2.3264416E-2,6.325324E-2,-6.2487065E-3,4.3681838E-2,-4.167408E-2,1.8112425E-2,-2.7508311E-2,2.3754841E-1,5.4754432E-2,-1.8444386E-3,-3.621563E-2,4.6896454E-2,-9.7276755E-2,1.6445365E-2,-5.3443655E-2,3.7061967E-2,-3.99665E-2,5.751674E-3,2.5796756E-1,3.2571692E-2,5.077657E-2,1.068209E-4,-6.7904875E-2,2.0877294E-2,-3.73195E-2,2.489903E-1,4.4753414E-2,-3.2569456E-3,-1.1613174E-1,1.3088549E-2,-8.043049E-2,1.1848504E-1,1.3684215E-2,1.1101838E-1,-4.629356E-2,5.935578E-3,2.858188E-1,1.9583955E-2,4.648386E-2,1.2964833E-1,-8.564542E-4,1.7918887E-2,-8.360555E-2,1.5206738E-1,-3.8765628E-2,-8.838541E-3,3.1995047E-2,2.80882E-2,4.2946045E-3,-1.4106765E-3,-1.241243E-2,1.5374737E-2,-7.940465E-4,2.4077406E-3,-9.469207E-3,3.4965705E-3,1.6250936E-2,-6.4556015E-4,7.1366816E-3,7.968612E-4,1.3478867E-2,-5.0194105E-3,1.1345762E-2,6.2619075E-3,3.259639E-2,2.320788E-2,4.362308E-3,3.8814817E-2,1.08093405E-2,1.6267262E-2,-1.6047548E-4,8.29859E-3,-9.302511E-4,-6.5253614E-3,-1.2343171E-2,1.7521743E-2,2.9733614E-3,9.548457E-3,-4.064886E-3],"categories":[],"categories_nodes":[],"categories_segments":[],"categories_sizes":[],"default_left":[0,1,0,1,0,0,1,1,0,0,0,0,0,1,0,0,0,0,0,0,0,0,0,0,0,0,0,0,0,0,0,0,0,0,0,0,1,0,1,0,0,0,0,0,0,0,0,1,0,0,0,0,0,0,0,0,0,0,0,0,0,0,0,0,0,0,0,0,0,0,0,0,0,0,0,0,0,0,0,0,0,0,0],"id":18,"left_children":[1,3,5,7,9,11,13,15,17,-1,19,21,23,25,27,29,31,-1,33,35,37,-1,39,-1,41,43,45,-1,47,49,51,-1,53,55,57,59,61,63,65,-1,67,-1,69,71,73,75,77,79,81,-1,-1,-1,-1,-1,-1,-1,-1,-1,-1,-1,-1,-1,-1,-1,-1,-1,-1,-1,-1,-1,-1,-1,-1,-1,-1,-1,-1,-1,-1,-1,-1,-1,-1],"loss_changes":[8.004868E-1,4.4435012E-1,7.350875E-1,3.4499586E-1,1.272864E-1,2.195574E-1,6.540378E-1,3.231107E-1,1.325168E-1,0E0,1.1329684E-1,1.0895222E-2,1.4621678E-1,5.5711764E-1,1.7951792E-1,2.8682637E-1,1.5738532E-2,0E0,8.903192E-2,4.215886E-2,1.1690843E-1,0E0,1.6224474E-2,0E0,8.430362E-2,5.240795E-1,1.6858691E-1,0E0,1.7925972E-1,1.9586065E-1,2.789954E-1,0E0,8.034289E-3,4.5589566E-2,5.444561E-2,1.270216E-2,2.253334E-2,1.1173535E-2,7.610701E-2,0E0,2.439037E-2,0E0,6.7925096E-2,1.3077408E-1,5.10417E-1,3.619628E-2,6.868881E-2,8.9503005E-3,1.6290766E-1,0E0,0E0,0E0,0E0,0E0,0E0,0E0,0E0,0E0,0E0,0E0,0E0,0E0,0E0,0E0,0E0,0E0,0E0,0E0,0E0,0E0,0E0,0E0,0E0,0E0,0E0,0E0,0E0,0E0,0E0,0E0,0E0,0E0,0E0],"parents":[2147483647,0,0,1,1,2,2,3,3,4,4,5,5,6,6,7,7,8,8,10,10,11,11,12,12,13,13,14,14,15,15,16,16,18,18,19,19,20,20,22,22,24,24,25,25,26,26,28,28,29,29,30,30,32,32,33,33,34,34,35,35,36,36,37,37,38,38,40,40,42,42,43,43,44,44,45,45,46,46,47,47,48,48],"right_children":[2,4,6,8,10,12,14,16,18,-1,20,22,24,26,28,30,32,-1,34,36,38,-1,40,-1,42,44,46,-1,48,50,52,-1,54,56,58,60,62,64,66,-1,68,-1,70,72,74,76,78,80,82,-1,-1,-1,-1,-1,-1,-1,-1,-1,-1,-1,-1,-1,-1,-1,-1,-1,-1,-1,-1,-1,-1,-1,-1,-1,-1,-1,-1,-1,-1,-1,-1,-1,-1],"split_conditions":[2.4253562E-1,2.236068E-1,5.7735026E-1,2.2941573E-1,2.4253562E-1,3.1622776E-1,3.5355338E-1,1.9611613E-1,2.3570226E-1,1.8112425E-2,2.1320072E-1,3.1622776E-1,2.773501E-1,2.5E-1,4.082483E-1,2.3570226E-1,2.236068E-1,1.6445365E-2,3.4815532E-1,1.5430336E-1,2.2941573E-1,5.751674E-3,3.0151135E-1,3.2571692E-2,6.666767E-1,3.5355338E-1,6.666767E-1,2.0877294E-2,8.165066E-1,2.1320072E-1,2.4253562E-1,-3.2569456E-3,2.236068E-1,2.4253562E-1,2.3570226E-1,1.5811388E-1,1.9245009E-1,1.9245009E-1,2.236068E-1,5.935578E-3,3.3333334E-1,1.9583955E-2,3.1622776E-1,3.0151135E-1,3.1622776E-1,2.8867513E-1,3.0151135E-1,3.7796447E-1,8.165066E-1,-8.838541E-3,3.1995047E-2,2.80882E-2,4.2946045E-3,-1.4106765E-3,-1.241243E-2,1.5374737E-2,-7.940465E-4,2.4077406E-3,-9.469207E-3,3.4965705E-3,1.6250936E-2,-6.4556015E-4,7.1366816E-3,7.968612E-4,1.3478867E-2,-5.0194105E-3,1.1345762E-2,6.2619075E-3,3.259639E-2,2.320788E-2,4.362308E-3,3.8814817E-2,1.08093405E-2,1.6267262E-2,-1.6047548E-4,8.29859E-3,-9.302511E-4,-6.5253614E-3,-1.2343171E-2,1.7521743E-2,2.9733614E-3,9.548457E-3,-4.064886E-3],"split_indices":[24,2309,45841,4211,17908,2000,24,35346,39329,0,43,1540,211,1029,66141,3563,43,0,242,24,976,0,206,0,57816,39112,21264,0,13558,114,20556,0,218,6482,9007,323,684,546,645,0,14,0,4792,39,50,24,1029,1197,1781,0,0,0,0,0,0,0,0,0,0,0,0,0,0,0,0,0,0,0,0,0,0,0,0,0,0,0,0,0,0,0,0,0,0],"split_type":[0,0,0,0,0,0,0,0,0,0,0,0,0,0,0,0,0,0,0,0,0,0,0,0,0,0,0,0,0,0,0,0,0,0,0,0,0,0,0,0,0,0,0,0,0,0,0,0,0,0,0,0,0,0,0,0,0,0,0,0,0,0,0,0,0,0,0,0,0,0,0,0,0,0,0,0,0,0,0,0,0,0,0],"sum_hessian":[6.003E3,8.92E2,5.111E3,7.52E2,1.4E2,1.56E2,4.955E3,7.02E2,5E1,2E0,1.38E2,6E0,1.5E2,4.321E3,6.34E2,6.87E2,1.5E1,2E0,4.8E1,2.2E1,1.16E2,1E0,5E0,1E0,1.49E2,4.198E3,1.23E2,2E0,6.32E2,6E0,6.81E2,4E0,1.1E1,1.4E1,3.4E1,4E0,1.8E1,4E0,1.12E2,1E0,4E0,3E0,1.46E2,3E1,4.168E3,1.9E1,1.04E2,4E0,6.28E2,1E0,5E0,4E0,6.77E2,1E0,1E1,1E0,1.3E1,4E0,3E1,2E0,2E0,1.4E1,4E0,1E0,3E0,1.1E2,2E0,1E0,3E0,1E0,1.45E2,1E0,2.9E1,1.8E1,4.15E3,5E0,1.4E1,7.3E1,3.1E1,3E0,1E0,8E0,6.2E2],"tree_param":{"num_deleted":"0","num_feature":"128104","num_nodes":"83","size_leaf_vector":"1"}},{"base_weights":[-2.855697E-4,4.8886657E-2,-2.832357E-3,4.569766E-2,3.4192376E-2,8.702956E-2,-4.25157E-3,2.6559917E-2,4.1707397E-2,1.04686655E-1,-3.3522595E-2,6.4166486E-2,-6.027389E-3,3.0554293E-2,3.8783837E-2,-6.358513E-2,1.1236774E-1,3.7403435E-3,-5.1448144E-2,1.5042588E-1,4.949965E-2,1.0694719E-1,-7.118419E-3,2.6410932E-2,3.54502E-2,-4.980445E-4,-1.196996E-2,2.3310067E-2,1.00240715E-1,3.6305883E-3,-6.5232575E-2,4.413162E-3,1.597846E-1,3.0684752E-2,1.0374064E-1,2.0142157E-1,7.3569335E-2,8.2233064E-2,-8.3290795E-3,1.0599236E-2,2.7256608E-3,2.5478456E-2,8.935562E-3,-1.0290277E-3,-1.0712837E-2,1.8745853E-2,1.11281965E-2,1.802361E-2,2.361857E-3,-6.4639295E-3,1.1758199E-2,2.6489125E-4,2.1776523E-2,-1.7644516E-4,7.75807E-3,-8.805711E-3,9.091318E-3,-8.913393E-4,1.6388923E-2],"categories":[],"categories_nodes":[],"categories_segments":[],"categories_sizes":[],"default_left":[0,1,0,0,0,1,0,0,0,0,0,0,0,0,0,0,0,0,0,0,1,0,0,0,0,0,0,0,0,0,0,0,1,0,0,0,0,0,1,0,0,0,0,0,0,0,0,0,0,0,0,0,0,0,0,0,0,0,0],"id":19,"left_children":[1,3,5,7,-1,9,11,-1,13,15,17,19,21,-1,23,25,27,-1,29,31,33,35,37,-1,39,-1,-1,-1,41,-1,43,-1,45,47,49,51,53,55,57,-1,-1,-1,-1,-1,-1,-1,-1,-1,-1,-1,-1,-1,-1,-1,-1,-1,-1,-1,-1],"loss_changes":[7.451389E-1,2.581817E-1,7.2182536E-1,2.4426478E-1,0E0,1.908263E-1,6.7713094E-1,0E0,2.0952398E-1,1.06668234E-1,1.7180994E-2,1.7094046E-1,6.700558E-1,0E0,2.0471597E-1,1.2558125E-2,8.4979594E-2,0E0,1.4464725E-2,1.2843996E-2,1.2132248E-1,1.4915591E-1,5.8255476E-1,0E0,1.6010529E-1,0E0,0E0,0E0,9.330702E-2,0E0,1.961428E-2,0E0,3.2999218E-3,9.2964716E-2,7.984918E-2,4.165578E-2,1.2224555E-2,1.1443147E-1,5.3560174E-1,0E0,0E0,0E0,0E0,0E0,0E0,0E0,0E0,0E0,0E0,0E0,0E0,0E0,0E0,0E0,0E0,0E0,0E0,0E0,0E0],"parents":[2147483647,0,0,1,1,2,2,3,3,5,5,6,6,8,8,9,9,10,10,11,11,12,12,14,14,15,15,16,16,18,18,19,19,20,20,21,21,22,22,24,24,28,28,30,30,32,32,33,33,34,34,35,35,36,36,37,37,38,38],"right_children":[2,4,6,8,-1,10,12,-1,14,16,18,20,22,-1,24,26,28,-1,30,32,34,36,38,-1,40,-1,-1,-1,42,-1,44,-1,46,48,50,52,54,56,58,-1,-1,-1,-1,-1,-1,-1,-1,-1,-1,-1,-1,-1,-1,-1,-1,-1,-1,-1,-1],"split_conditions":[2.0412415E-1,1.9611613E-1,3.3333334E-1,1.7149858E-1,3.4192376E-2,2.773501E-1,7.5593895E-1,2.6559917E-2,2.0412415E-1,3.1622776E-1,3.1622776E-1,4.7140452E-1,4.082483E-1,3.0554293E-2,3.380717E-1,3.1622776E-1,3.3333334E-1,3.7403435E-3,3.3333334E-1,2.773501E-1,2.1320072E-1,3.0151135E-1,2.6726124E-1,2.6410932E-2,1.3130644E-1,-4.980445E-4,-1.196996E-2,2.3310067E-2,3.3333334E-1,3.6305883E-3,2.8867513E-1,4.413162E-3,2.3570226E-1,2.8867513E-1,2.4253562E-1,2.8867513E-1,3.1622776E-1,2.6726124E-1,2.236068E-1,1.0599236E-2,2.7256608E-3,2.5478456E-2,8.935562E-3,-1.0290277E-3,-1.0712837E-2,1.8745853E-2,1.11281965E-2,1.802361E-2,2.361857E-3,-6.4639295E-3,1.1758199E-2,2.6489125E-4,2.1776523E-2,-1.7644516E-4,7.75807E-3,-8.805711E-3,9.091318E-3,-8.913393E-4,1.6388923E-2],"split_indices":[24,282,1996,3963,0,48,413,0,24302,2080,132,242,3018,0,43050,8,1019,0,99,35120,545,24,382,0,24,0,0,0,862,0,24,0,40260,3533,16834,53,1197,2122,114,0,0,0,0,0,0,0,0,0,0,0,0,0,0,0,0,0,0,0,0],"split_type":[0,0,0,0,0,0,0,0,0,0,0,0,0,0,0,0,0,0,0,0,0,0,0,0,0,0,0,0,0,0,0,0,0,0,0,0,0,0,0,0,0,0,0,0,0,0,0,0,0,0,0,0,0,0,0,0,0,0,0],"sum_hessian":[5.948E3,2.92E2,5.656E3,2.9E2,2E0,8.7E1,5.569E3,4E0,2.86E2,7.6E1,1.1E1,1.4E2,5.429E3,2E0,2.84E2,3E0,7.3E1,2E0,9E0,1.9E1,1.21E2,5.1E1,5.378E3,3E0,2.81E2,2E0,1E0,5E0,6.8E1,1E0,8E0,2E0,1.7E1,9.1E1,3E1,1.2E1,3.9E1,7.1E1,5.307E3,2.8E1,2.53E2,3E0,6.5E1,4E0,4E0,9E0,8E0,3E0,8.8E1,2E0,2.8E1,1E0,1.1E1,2E0,3.7E1,3E0,6.8E1,5.29E3,1.7E1],"tree_param":{"num_deleted":"0","num_feature":"128104","num_nodes":"59","size_leaf_vector":"1"}},{"base_weights":[1.3997147E-4,1.7733447E-1,-6.390608E-4,1.4605172E-1,3.6848504E-2,-3.5922541E-3,4.479771E-2,2.9325236E-2,1.1105866E-1,5.8923047E-3,-1.8076364E-2,1.4854264E-1,3.7626825E-2,-6.279796E-3,1.2289139E-1,5.2533913E-3,2.4298437E-2,4.3956675E-2,-2.1743024E-2,-3.4312436E-3,2.0238233E-1,3.2502737E-2,1.4614025E-1,1.401872E-1,-2.1847328E-2,1.3721393E-1,4.099489E-3,1.5366371E-1,3.288823E-2,7.892529E-2,-2.3508001E-2,6.5012723E-3,-2.5674025E-2,6.602198E-3,2.3926073E-1,-4.01085E-2,4.168652E-2,-3.5100468E-3,1.615932E-1,-3.7079721E-3,1.5279584E-2,2.0321459E-3,-5.309245E-3,-9.298395E-3,1.5770948E-2,1.3361464E-2,2.9576616E-4,-2.1535412E-3,1.7333716E-2,2.2092054E-2,2.9236868E-3,9.373516E-4,8.732635E-3,3.5429846E-3,-2.6754949E-3,-4.0869447E-3,2.5151537E-3,1.1708691E-2,2.8055057E-2,1.378543E-3,-5.314326E-3,2.6344333E-2,3.9223256E-3,1.977864E-3,1.7098058E-2],"categories":[],"categories_nodes":[],"categories_segments":[],"categories_sizes":[],"default_left":[0,1,1,0,0,1,0,0,0,1,0,0,1,0,1,0,0,0,0,0,0,0,0,0,0,0,0,0,0,0,0,0,0,0,0,0,0,0,0,0,0,0,0,0,0,0,0,0,0,0,0,0,0,0,0,0,0,0,0,0,0,0,0,0,0],"id":20,"left_children":[1,3,5,7,-1,9,11,-1,13,15,17,19,21,-1,23,25,-1,27,29,31,33,35,37,39,41,43,45,47,49,51,53,-1,55,-1,57,59,61,-1,63,-1,-1,-1,-1,-1,-1,-1,-1,-1,-1,-1,-1,-1,-1,-1,-1,-1,-1,-1,-1,-1,-1,-1,-1,-1,-1],"loss_changes":[8.1993437E-1,1.0165477E-1,7.9372257E-1,9.105581E-2,0E0,7.630895E-1,2.6297432E-1,0E0,5.091846E-2,5.0724626E-1,5.008998E-1,1.8888557E-1,1.8374497E-1,0E0,5.313021E-2,5.093882E-1,0E0,1.4430347E-1,3.7071317E-1,1.2325828E-2,6.969237E-2,2.1839681E-1,4.7682524E-2,4.5897275E-2,5.0316225E-3,1.5148735E-1,4.907276E-1,4.1647375E-2,7.1123905E-2,2.021654E-2,3.9153016E-1,0E0,5.6618243E-3,0E0,3.273022E-2,2.6724905E-2,1.4753193E-1,0E0,1.5256017E-2,0E0,0E0,0E0,0E0,0E0,0E0,0E0,0E0,0E0,0E0,0E0,0E0,0E0,0E0,0E0,0E0,0E0,0E0,0E0,0E0,0E0,0E0,0E0,0E0,0E0,0E0],"parents":[2147483647,0,0,1,1,2,2,3,3,5,5,6,6,8,8,9,9,10,10,11,11,12,12,14,14,15,15,17,17,18,18,19,19,20,20,21,21,22,22,23,23,24,24,25,25,26,26,27,27,28,28,29,29,30,30,32,32,34,34,35,35,36,36,38,38],"right_children":[2,4,6,8,-1,10,12,-1,14,16,18,20,22,-1,24,26,-1,28,30,32,34,36,38,40,42,44,46,48,50,52,54,-1,56,-1,58,60,62,-1,64,-1,-1,-1,-1,-1,-1,-1,-1,-1,-1,-1,-1,-1,-1,-1,-1,-1,-1,-1,